120 80
61 0.21894334 -0.15649183 -0.07739854 -0.09465111 0.050548833 0.33752394 -0.040216476 0.12568946 0.3217028 -0.23815775 -0.10130093 -0.15635537 -0.22816956 -0.07480873 -0.100666866 -0.24275032 -0.022583822 0.21414557 0.31976697 -0.3545414 0.43494952 -0.16542841 -0.083267584 0.43785846 -0.03450345 0.08058938 -0.09743761 -0.074498594 0.120660484 0.21520084 -0.2206072 -0.022185605 -0.21288733 0.053329974 -0.074855514 0.025399273 -0.09576663 -0.03723673 -0.31061542 0.09307833 -0.10031597 -0.10941578 -0.13708696 0.077918105 0.11621404 -0.0042743892 0.14346011 0.20295285 0.13969743 -0.2828793 0.16702709 0.69195473 0.18272814 -0.2000667 -0.11597938 0.28477564 -0.24428226 -0.322381 -0.50348425 -0.15227284 -0.07971075 0.1189152 0.29933497 0.19723861 -0.23403838 -0.076309256 0.2016457 0.27454153 -0.010288483 0.3444021 0.08062752 -0.15498236 0.38986832 -0.03744184 -0.24172424 -0.17038523 0.09680588 -0.066524066 -0.05450979 -0.0030069982
115 0.2780928 0.17856456 0.35697073 0.26261136 -0.013967598 -0.11432005 0.30262047 0.20386994 0.23074524 -0.08585279 -0.13670655 0.36833933 -0.28230387 -0.14919311 0.19350834 0.53698516 0.1796837 0.3246223 -0.103469074 0.08864785 0.3736655 -0.16233583 0.09466781 0.09300733 -0.017605197 -0.41350815 0.14851935 -0.20438182 0.23535936 0.27752984 -0.052968495 0.08455191 -0.055685706 -0.061303526 0.046740226 0.17355204 -0.2651343 0.28001693 -0.22764073 -0.002493484 0.2862808 -0.116257355 0.21020716 0.11128589 -0.19811329 0.07113822 0.06703384 -0.42426014 0.37513456 0.029435735 -0.1693058 0.01753015 -0.21016967 0.40920526 -0.3607283 0.111653216 0.1024495 0.16918181 -0.27638203 -0.0589069 0.052343313 -0.23837814 0.12667571 0.09198612 -0.22311543 0.20187855 -0.02353168 -0.115293525 0.09424555 -0.16491647 0.09338342 0.023483235 0.1554265 -0.45750764 -0.056379512 0.4503283 -0.17969659 -0.12858228 0.27059364 -0.054926373
60 0.1484531 0.012639096 -0.25489375 0.115641244 0.0038723352 0.4068481 -0.17325439 -0.023511702 0.24205197 0.0068666 -0.17342323 0.11694915 -0.33855864 0.13536175 -0.10437423 0.004380039 -0.06311575 0.09932782 0.29298648 -0.05873433 0.4347441 -0.16919753 -0.077006005 0.53947943 0.07003404 -0.21082631 -0.14898881 -0.107847065 -0.089502476 0.1489167 0.072423734 -0.19553752 -0.06418998 0.20686412 0.046401404 -0.10320635 -0.13397874 0.005085296 0.018203828 -0.010005834 -0.14257026 -0.13267697 -0.020645473 0.08676702 0.085564084 -0.12285417 0.22153 0.3052363 0.04330286 -0.05662354 0.26152733 0.5662301 -0.029704088 -0.21029817 0.1204732 0.17483012 -0.30733842 -0.23879537 -0.5212435 0.04991899 0.12254563 0.18361565 0.17073646 0.33133584 -0.13586664 -0.33025903 0.10199226 0.1912165 0.04011486 0.17848873 0.004756458 -0.2654761 0.17857383 0.05965195 -0.052533306 -0.3439248 0.28894734 -0.2766718 0.0687133 -0.22586761
92 0.05566873 -0.198484 -0.13772301 -0.1087242 -0.28103328 0.5392206 0.25219613 0.22203915 -0.15977976 0.08730363 -0.19107395 -0.15401931 -0.28181618 0.12863407 0.14010394 -0.034891933 0.12708059 0.26415908 0.12140869 -0.056848165 0.23475938 -0.15582792 -0.059728526 0.13048618 -0.4465123 -0.34387764 0.1820801 0.0038182 -0.05308411 0.24862942 0.16328776 -0.14480643 0.0714367 -0.26335326 0.039700378 0.1275553 -0.4724391 0.038247496 -0.057473186 -0.09023525 -0.20952556 -0.17162012 0.32097828 -0.08823414 -0.042257007 0.0012975006 0.37847996 0.31405514 -0.1762575 -0.24972032 -0.092569195 0.2722122 0.1753508 -0.27342975 -0.18515925 0.39998528 -0.14329797 -0.07918839 -0.17328218 -0.42337734 0.040364947 -0.061295286 0.36107853 -0.10481887 -0.13988425 -0.12829176 0.22777963 0.18126786 0.24735947 0.18772197 0.18547437 0.23068614 0.27305827 -0.10859383 0.015312283 -0.12206581 -0.26292917 0.044891715 0.14194244 -0.37592283
78 0.21996178 -0.027773073 0.10681065 0.14824945 -0.16062967 0.12646417 -0.07141251 0.322431 0.021299303 0.16081956 0.22803615 0.15861537 -0.2074832 -0.024602711 -0.10166864 0.318349 -0.044463214 0.17309536 -0.17221373 0.13711831 0.34892255 -0.065633364 -0.16982883 0.08414678 0.048514094 -0.22216335 0.2973425 -0.4777064 0.3294014 0.33252668 -0.19684677 -0.049680546 0.009849917 0.24906717 0.057939768 -0.3441415 0.28307152 0.11198026 -0.24394293 -0.11559786 -0.21130034 0.024020242 -0.25976083 -0.28779435 -0.23536867 -0.30244076 -0.017806344 -0.0043317955 0.26705205 0.08352279 0.11724145 0.01983007 -0.414915 0.06833179 0.15729193 0.08291048 -0.35212722 -0.24896638 -0.080117695 0.15428565 -0.2488052 0.103442945 -0.373746 0.17328557 -0.1940436 0.4771903 -0.07967508 0.03918111 0.38159692 -0.046656042 -0.023701219 -0.23988923 0.13148092 0.017177172 -0.047987647 0.23750201 0.33586112 -0.20235908 0.07717504 -0.251522
30 0.16575024 -0.34688064 -0.3223554 0.027429266 0.12370663 0.13985802 -0.19593902 -0.07437951 0.05103532 0.2068485 0.260049 0.007912536 -0.37818238 0.2976445 0.25031897 0.06968794 0.113986865 0.0073319343 0.24655394 -0.23323122 0.2646234 -0.0886399 -0.09079275 0.19414267 0.15798719 -0.24134436 -0.31272995 0.12081055 -0.26236716 0.14433666 -0.16522773 0.09124241 -0.35945284 0.26620483 -0.0155769065 0.07353002 -0.28718722 0.16885504 0.2183726 -0.10480605 -0.016877623 0.13204002 0.03412825 0.35310915 0.3018074 -0.13458566 0.57844615 0.16733292 0.0074197 0.0045066965 0.022974394 0.16789399 0.22610027 -0.42468625 -0.21619925 0.14595358 -0.41495398 -0.21487269 -0.16879438 -0.21006246 0.052249018 0.009066385 0.053628616 -0.36438078 -0.10949928 -0.18927303 0.35744098 0.19800407 0.3727826 0.058916915 -0.035656385 -0.06559924 0.12681277 0.23429887 -0.0771256 -0.27802476 0.06396431 -0.018148469 -0.05788825 -0.25995573
62 0.1111076 -0.13693328 -0.18044625 -0.18013296 -0.13446893 0.4806643 -0.054126356 0.19613434 0.36686084 -0.16595078 -0.060715772 -0.030085184 0.024052031 -0.13799845 -0.21167596 -0.25318876 0.05681222 0.32755712 0.2323405 -0.10271743 0.3990363 -0.14749216 -0.15080358 0.48828468 -0.0516575 0.06698284 0.01756137 -0.04460267 0.06443639 0.20685373 -0.014148837 -0.18599992 -0.17235258 -0.17971388 0.16466329 0.008973191 -0.07292137 -0.16844827 -0.32838833 0.20229651 -0.22628738 -0.05716683 0.042611122 -0.18553841 0.18696249 -0.11822974 0.1485873 0.37224546 0.048757225 -0.12500708 0.21308748 0.6115734 0.17011884 -0.39028606 -0.33172655 0.33836192 -0.34379184 -0.28375608 -0.46697792 -0.25178957 0.046856835 0.07131617 0.35509107 0.1752157 -0.15754977 -0.17426562 0.15558723 0.35816914 0.18907644 0.3431093 0.153617 -0.21679345 0.34616637 -0.040777974 -0.07574218 -0.29105073 0.0747087 -0.03142831 -0.062738694 -0.18983547
111 0.043850604 0.088390715 0.25367746 0.28365412 -0.14767638 0.051508013 0.3619386 0.08479984 0.20604211 -0.043982007 -0.20780607 0.49851376 -0.3799359 -0.17923853 0.29317024 0.4952594 0.17148085 0.1747268 -0.19989346 0.11265802 0.44859794 -0.0667745 0.12297091 0.015671689 -0.034390092 -0.51059264 0.22427675 -0.08190873 0.44168755 0.21390301 0.041083794 0.085160114 0.13534175 -0.2514667 0.056972608 0.042220045 -0.32886305 0.06944042 -0.25337836 0.09175838 0.21095634 -0.2397349 0.352037 0.042528022 -0.14028996 0.015168083 0.16818991 -0.3966917 0.37452197 0.07088952 -0.10752399 -0.08641559 -0.32879192 0.23440199 -0.5068183 0.105529815 0.16371968 0.17800061 -0.27188125 -0.14924248 0.15678944 -0.24000336 0.09714703 -0.060464565 -0.19758831 0.17856969 -0.013243007 -0.17363502 0.3602823 -0.1495553 0.046490036 0.16770004 0.081021614 -0.25818312 -0.106031284 0.37162507 -0.21230467 -0.08411948 0.19171578 -0.12439588
91 0.2163187 -0.16368794 -0.13913462 -0.17117529 -0.20689511 0.5470042 0.18857528 0.13666524 -0.22721955 -0.008980712 -0.14797433 -0.3484779 -0.4797715 0.06473777 0.18607926 -0.13363728 0.06330451 0.08615487 0.26117533 -0.24176188 0.39881608 -0.09724423 -0.15059924 0.025492214 -0.48356214 -0.4658073 0.029190172 0.027536819 0.15945795 0.23329456 0.16180506 0.047848042 0.12113133 -0.032473918 -0.15828267 0.02888039 -0.4284027 0.0060116756 0.040037353 -0.13365005 -0.22354968 -0.23372114 0.22890188 -0.077698946 -0.1864239 0.13562997 0.49286282 0.3515684 -0.28228983 -0.36236793 -0.17127773 0.22667871 0.0055151274 -0.18829688 -0.20226298 0.33921728 -0.01918587 -0.07755274 -0.15598103 -0.32838634 0.0394965 0.014625741 0.26135346 0.014588248 -0.22045639 0.07682858 0.25969577 0.22234157 0.16944626 0.088460796 0.061427683 0.20677046 0.16608721 -0.122473314 -0.16171609 -0.06351307 -0.18813223 -0.023894647 -0.048442967 -0.2942305
95 0.22345933 -0.23279624 -0.16337164 0.08261479 -0.06834827 0.47827312 0.18737163 0.18460122 -0.52600527 0.0575955 -0.013958034 -0.28594735 -0.69662607 0.20027511 0.3093012 -0.28584778 0.07651202 0.03783342 0.17834282 -0.17495722 0.2002296 0.060154747 -0.0043076924 0.3717899 -0.30938083 -0.5776385 -0.06395316 0.07728411 0.011942948 0.08444952 0.18414138 -0.0357677 -0.039789487 0.001912338 -0.17283861 -0.035518702 -0.50060195 0.18816797 -0.029761244 -0.016037533 -0.27644852 -0.2893879 0.34609002 0.013886421 -0.15510692 0.24657275 0.27805158 0.37307706 -0.26855668 -0.38419974 -0.092460744 0.23548661 0.0164035 -0.16619399 -0.30351377 0.42284554 -0.014086661 -0.14222845 -0.28057295 -0.16438054 -0.013492974 0.040777385 0.37309104 0.09910793 -0.23058993 -0.029070556 0.047347255 0.10353111 0.2981328 -0.13286497 0.194556 0.116124354 0.123326875 -0.0055714278 -0.13323203 -0.18168516 -0.18110104 0.03956587 0.045824405 -0.21871424
66 0.20690344 -0.20765728 -0.120109975 -0.032749653 0.013586104 0.39416593 0.104785085 -0.025555959 0.31460392 -0.22450863 -0.18090092 -0.12403761 -0.2971566 -0.03213679 -0.010667129 -0.37411216 -0.09584215 0.1656349 0.2619293 -0.36728624 0.44555947 -0.06398867 -0.2264358 0.30026826 -0.15050654 0.03689195 -0.103991605 -0.008940217 0.35874596 0.14551853 -0.2887421 0.07778651 0.001159666 -0.04364609 -0.1482829 -0.17375226 -0.21774472 -0.17297639 -0.29937968 0.19657363 -0.18744871 -0.2921471 -0.096322395 0.067121655 0.053082872 0.045968004 0.14343338 0.20301858 0.0835027 -0.17832987 0.12564798 0.72887605 0.15796597 -0.32100105 -0.1827213 0.24017592 -0.01629615 -0.38521123 -0.41855395 -0.3729101 -0.07201337 0.17723109 0.32358605 0.07416014 -0.21919207 -0.024952767 0.10795426 0.13107744 0.051369023 0.43377343 -0.098380074 -0.19553366 0.32847884 0.037984394 -0.38530287 -0.27200088 -9.3235765e-05 -0.068003945 -0.06608691 -0.1732985
6 0.25943208 -0.12278402 -0.07643979 -0.34562507 -0.21900344 0.42286837 0.078458674 -0.2400166 0.21579997 0.20109388 -0.21304893 -0.17328683 -0.14152637 -0.15319444 0.22693138 -0.51967096 0.032959722 0.17471927 0.3933165 -0.3827507 0.24782445 -0.12780721 -0.08606977 0.15392916 -0.20655671 -0.50192934 -0.09821021 -0.09754795 0.13539594 0.42258728 -0.014951673 0.14789484 -0.09346842 0.113692015 0.0937923 -0.2607167 -0.55465907 -0.156036 0.07929863 0.026701499 -0.21895742 -0.17496453 0.016436394 0.022513283 0.106394045 0.15134332 0.38119203 -0.30300608 -0.36294883 -0.2305814 0.17361465 0.43082714 -0.023321435 -0.13896658 -0.2492493 0.2251594 -0.11177741 -0.34586993 -0.17711267 -0.43655205 0.38209805 0.5830877 -0.047234297 -0.2762069 -0.10461772 -0.05010204 0.032129478 0.30151936 0.17677343 0.5031725 0.0090543 0.19084418 0.096488796 0.041703127 -0.23494932 -0.19275714 0.030784661 -0.11567711 -0.10352539 -0.6633962
43 0.14459132 -0.29152057 -0.27925402 0.334392 0.22139132 -0.07947893 -0.27679044 -0.16644463 -0.17237845 -0.13717596 0.0017696797 -0.18841033 -0.32226178 0.059313588 0.33596465 0.021079052 -0.014917677 0.36671114 0.12654641 -0.15988879 -0.057481617 -0.15210603 0.12950666 0.38983667 0.21156299 -0.17176722 -0.13235284 -0.054916207 -0.22550012 0.43827596 -0.35601446 0.1547741 -0.43476573 0.19840617 0.13906862 -0.10964275 -0.08353621 0.4157553 0.1578002 -0.057058398 -0.1297972 -0.059290003 -0.14490952 0.38779616 0.16167223 -0.0024608308 0.41486755 0.040906634 0.0361964 -0.083107926 -0.02583287 0.07767261 0.5351758 -0.075131506 0.11039388 0.38337985 -0.1025013 -0.3808784 -0.12315107 -0.25149873 -0.23225336 -0.010838495 0.43578246 -0.10155698 -0.29204747 0.10006433 0.12390201 0.006492067 0.086794555 -0.31108883 -0.08818575 -0.33711818 0.003271706 -0.1348235 0.23210922 -0.113284096 -0.05956642 0.15748063 0.10052505 -0.062881425
85 0.18267195 0.23334493 0.34247878 0.19723964 -0.06421986 -0.21491855 0.049532823 0.5924754 0.114683665 -0.1411383 0.10744329 0.5233707 -0.35396138 -0.17838848 0.14823031 0.27896458 0.25052944 0.1841428 -0.075449094 0.06508268 0.31469998 -0.19866112 -0.1942187 0.15227185 0.122590125 -0.39067835 0.2439468 -0.34786737 0.12491756 0.07525407 -0.25098708 0.10224194 -0.43067923 -0.06273493 -0.052796494 0.11257023 0.17214279 0.00029907416 -0.31677294 -0.063843414 0.020252744 0.18999535 -0.2128444 -0.12503923 -0.2124166 -0.086244956 0.07605433 -0.33291864 0.4914936 -0.1608067 0.1303313 -0.11028903 -0.3076073 0.40569696 -0.201684 0.0877316 -0.3496263 -0.17856705 -0.18082382 0.030950641 -0.10309568 -0.13631804 -0.16709352 0.19308901 -0.34933242 0.40359434 -0.03967723 -0.0827773 0.33835578 -0.2587805 0.08180864 0.025561795 0.28865975 -0.17332463 0.010761897 0.28324455 0.11483931 0.10256074 -0.121985324 -0.21521592
8 0.25407636 -0.21139255 -0.45624614 -0.07854081 0.020073537 0.27068874 0.0055500176 -0.076037236 0.18370047 0.27995485 -0.032368727 -0.0521487 0.082223296 0.45333722 0.11267477 0.097176485 -0.16923112 -0.005908855 -0.37398764 0.59773624 0.10288771 -0.411406 -0.018448794 0.44990218 0.43322378 -0.50987333 -0.10040114 -0.20678997 -0.084473476 0.41538346 0.005908569 0.03674143 -0.36130112 0.24907015 0.16758385 -0.33825794 0.031894118 0.048106726 -0.051930495 -0.15561822 -0.30312607 0.050524577 -0.30383727 -0.3940937 -0.15723774 -0.1355646 0.30170378 -0.17348409 0.04241276 -0.2402452 -0.16584973 0.01176109 0.2144208 -0.2939816 -0.22595705 0.24399716 0.03421612 -0.086826995 -0.3240433 -0.23815934 0.43854204 0.13314983 0.2940507 -0.01738174 0.14977972 -0.08534509 -0.1256084 0.033689246 0.34100923 -0.09099955 -0.2598637 -0.13487388 0.16244766 -0.12734924 0.18468966 -0.10507 -0.021013996 0.06082945 0.19787471 -0.27670217
31 0.2239163 -0.39983356 -0.20216589 0.17234536 0.059357468 0.1423869 -0.011684976 0.025781613 -0.05947019 0.12986892 0.13382712 -0.12946773 -0.43634105 0.13381101 0.31540605 -0.16655491 0.05338115 0.22561334 0.22412166 -0.39923918 0.23270969 -0.012391174 0.0015167709 -0.08021954 0.07713592 -0.2871535 -0.2842851 -0.013416973 -0.0406061 0.05830715 -0.23474574 0.057619695 -0.34316474 0.12579498 -0.028828515 0.039224323 -0.34855363 0.15678822 -0.035507806 0.050002906 -0.20373195 0.024805695 0.110196106 0.12898378 0.34613797 0.01918516 0.49491626 0.0492044 -0.09618563 -0.3028906 0.10881628 0.18341425 0.3130151 -0.3507149 -0.08526763 0.30583742 -0.12397631 -0.3407458 -0.21365501 -0.6068334 -0.14252576 0.103534386 0.0057085888 -0.28140086 -0.22615169 0.2353641 0.261728 0.14809243 0.094914734 0.38387346 -0.028286932 0.03790111 0.24659197 0.22428338 -0.27964574 -0.3731208 -0.021998964 -0.03692121 -0.24898256 -0.20344374
36 0.1628441 -0.42017156 -0.23785412 0.16587038 0.07383314 0.07858457 -0.039567508 -0.060859565 -0.037757173 0.08334508 0.11022202 -0.05849195 -0.4399782 0.24608974 0.32921413 -0.26891512 0.043733284 0.23168564 0.26149225 -0.42777333 0.29231763 -0.1322386 -0.23519091 -0.111672565 -0.008921782 -0.13972126 -0.15917197 0.043474402 -0.0065731937 0.11327677 -0.378466 0.078379124 -0.26871836 0.033276524 -0.038517315 -0.020841537 -0.31162128 0.009064166 0.027586512 0.031711403 -0.23460306 0.011584573 0.086600184 0.16231981 0.3217845 -0.040261935 0.6252688 0.19844143 -0.07895359 -0.17555082 0.10324232 0.25595957 0.38079563 -0.41352138 -0.0789158 0.28285962 -0.27927715 -0.3105755 -0.17443053 -0.52007306 -0.2651131 0.12574226 -0.0104628345 -0.37719157 -0.16702817 0.14591648 0.36306664 0.19283241 0.20410344 0.3081333 -0.02316973 0.057228863 0.19884208 0.14535795 -0.12092602 -0.30980283 -0.07542537 0.061175458 -0.21265253 -0.26892614
96 0.14916995 -0.09702543 -0.11417348 -0.16062501 -0.11952111 0.44820496 0.26027423 0.037055522 -0.14951453 -0.056418974 -0.20918363 -0.26778793 -0.45540267 0.12324791 0.10278303 -0.26276955 0.15774937 0.13896899 0.16434203 -0.29881915 0.30276272 -0.14447495 -0.30809155 0.084185824 -0.5742707 -0.16112344 -0.02978569 -0.0024878946 0.24803223 0.23946364 -0.0509662 -0.061994225 0.18421517 -0.033535447 -0.21364547 0.028221406 -0.41773194 0.07115642 -0.0593862 -0.1616626 -0.20247014 -0.23196638 0.23131323 0.018346049 -0.2745847 -0.08162322 0.50619406 0.23814963 -0.2042553 -0.39274994 -0.19145322 0.3271442 0.10489787 -0.24727795 -0.10214763 0.2567161 -0.12951553 -0.048518356 -0.12946238 -0.27198458 -0.0138256075 0.0015498182 0.30811077 -0.04536541 -0.19674899 0.02546977 0.34870178 0.17876783 0.17736192 0.30610007 -0.038371645 0.16539097 0.19451551 -0.10169906 -0.22422966 0.04683438 -0.28576857 0.1075812 0.12180402 -0.3534521
97 0.3122382 -0.19882084 0.17475492 -0.0013979906 0.12618637 0.32236475 0.2999146 0.019735808 -0.084193096 0.13188311 0.010785536 -0.1932221 -0.569018 0.06451531 0.19836068 0.12434082 0.19185965 0.3063207 -0.00997094 -0.3379252 0.33741793 -0.16590741 0.004959118 -0.05530815 -0.3827105 -0.36425364 -0.16681914 -0.12439356 0.0619649 0.063664496 -0.038727883 0.039081313 0.26968008 0.203221 -0.26416522 0.053205606 -0.42837077 0.30296558 -0.0071598575 -0.24653769 -0.29823175 -0.09758672 0.12498167 -0.1683143 -0.3584319 -0.13820222 0.36591792 -0.088342465 -0.23687665 -0.15099922 -0.2251893 0.37744686 0.010653596 -0.10695974 0.077016756 0.13870828 -0.060246367 0.10305238 0.08742164 -0.06625236 -0.079722285 -0.06352495 0.0800867 -0.020812396 -0.25004905 0.08553182 0.214817 0.13084795 -0.020856043 0.27674106 0.36097285 0.08475949 0.0058082836 -0.17999145 -0.31226993 0.1606026 -0.11249599 -0.11610611 0.29734343 -0.23649935
26 0.23029967 -0.39813885 -0.45561025 0.3399811 0.048701584 0.13403356 -0.17430688 -0.2126203 0.01818415 -0.09281005 -0.009223008 -0.2100842 -0.28683153 0.52025974 0.4483751 -0.063534066 -0.17554325 0.02152388 -0.11406938 0.43851078 0.08654871 -0.2666001 0.0025779502 0.64584327 0.40245327 -0.38100427 -0.20470086 -0.13733189 -0.010727753 0.37599227 -0.011087766 0.007383852 -0.41844067 0.3559914 0.18726674 -0.53115815 0.098507166 0.060928605 -0.09043577 -0.0045888186 -0.23797596 -0.09416978 -0.22813573 -0.1142566 -0.19695917 0.13138697 0.12781344 -0.017425096 0.07083114 -0.1987295 0.0011623554 0.06415311 0.19024807 -0.17017592 -0.43550745 0.29733515 -0.045245778 -0.03737893 -0.39384988 -0.063920386 0.14352755 0.27263778 0.4979439 0.17378724 0.21930571 -0.03205811 -0.32858709 0.11779561 0.3416637 -0.4069766 -0.14510158 -0.24041618 0.03431645 -0.2682064 0.15638763 0.022771576 -0.004672885 0.09169987 0.2811488 -0.054676007
67 0.43999913 -0.063561715 -0.066559084 0.1590133 0.07284882 0.24767093 -0.13386007 0.13064733 0.15122488 -0.033175174 0.041171696 0.08302576 -0.37432534 0.046784937 -0.0018366743 -0.21056421 -0.12954359 0.04954548 0.1858743 -0.23843715 0.43272266 -0.0013392912 -0.03161555 0.23811677 -0.13122353 -0.048487253 -0.29061836 -0.2956248 0.15924114 0.18256284 -0.29893142 0.06632148 -0.06599597 0.36651686 -0.08602382 -0.12365434 -0.18992972 0.0823536 -0.27545854 -0.040029697 -0.28894064 -0.13640064 -0.141344 -0.26394546 -0.1294966 -0.050909895 0.092115864 0.13186383 0.0024839651 -0.15578446 0.13412687 0.6136236 -0.09290291 -0.19642527 0.13199763 -0.006872533 -0.15903442 -0.26935145 -0.32070652 0.008827769 -0.19749555 0.31474325 0.035238855 0.32154316 -0.26514545 0.15484908 0.17658125 0.21192369 -0.0625179 0.44416106 0.07649619 -0.08499352 0.14473604 0.061468657 -0.24853617 0.017815873 0.11680977 -0.2270922 0.10984019 -0.0019553045
116 0.16497923 0.18559474 0.27889058 0.31047297 0.0109815365 -0.21131551 0.32450768 0.10472081 0.107261136 0.08355172 -0.11854672 0.5738662 -0.51277107 -0.16483189 0.30383688 0.420806 0.17621085 0.21179587 -0.12940945 0.18028758 0.3172972 -0.08059178 0.19392397 0.20587577 0.062083103 -0.57748365 0.2050733 -0.07417075 0.21859299 0.18238273 -0.024296453 0.041546874 -0.1125028 -0.23935118 0.20479111 0.2607429 -0.52622354 0.22274482 -0.1542362 -0.059494164 0.29486924 -0.18571487 0.3933278 0.21866181 -0.15079597 0.0618336 0.029454855 -0.50365156 0.2725977 0.028807512 -0.05205686 -0.07189344 -0.22218513 0.37179136 -0.41404808 0.10903887 0.11797405 0.18809164 -0.3511242 -0.09703779 0.09369715 -0.15095027 0.059219193 -0.01446046 -0.1383036 0.03781541 -0.0069222073 -0.2622909 0.24027719 -0.123723336 0.0308637 0.060753655 0.15550011 -0.32307193 0.090838686 0.29562137 -0.18406968 -0.0398945 0.15517949 -0.17457677
49 -0.028184578 0.25356507 0.05980125 0.2428239 -0.10932829 -0.16532964 -0.21239494 0.23852848 0.103269435 -0.009499222 0.054712355 0.46068847 -0.24612014 -0.3104965 -0.35374326 0.21048339 0.3153199 0.3541386 -0.3595525 -0.04857059 0.20883359 -0.23844624 -0.055748817 -0.085237406 0.24567834 -0.506364 0.099956766 -0.28892162 0.33948627 0.121695146 -0.28337193 -0.20743039 -0.120553434 0.0052501215 -0.023853542 -0.021042114 0.118018955 -0.028055716 -0.069315284 0.25951242 0.033315197 -0.11417168 0.47660413 0.15452959 0.036907315 -0.18644433 0.57473975 -0.19145936 0.34767815 0.42050362 -0.14986564 -0.115941 -0.28367406 0.08168546 -0.25959763 0.25653735 -0.2543815 -0.2335537 -0.20798565 0.17897612 0.18199727 -0.22109042 -0.19290018 -0.23542124 -0.3421353 0.2902703 0.19481994 -0.119269885 0.35527173 -0.25325277 -0.16151391 -0.42479795 0.02766626 -0.15606195 0.0015188816 0.35266897 -0.06478963 0.16852342 -0.08263539 -0.15854035
4 0.24637313 -0.08225716 -0.1007906 -0.2812313 -0.16158399 0.55636394 -0.08640333 -0.20157443 0.20339613 0.113879085 -0.18841846 -0.17184599 -0.06969987 -0.1458695 0.22454111 -0.5118925 0.23078065 0.3896982 0.4733043 -0.29790357 0.19549826 -0.31425604 -0.09488451 0.17281882 -0.05609077 -0.6160542 -0.24034035 -0.116116025 -0.19043317 0.3184374 0.11470307 -0.0057869963 -0.11616859 0.04750319 0.15283215 -0.10719929 -0.44506136 -0.2284631 0.16490722 0.054963283 -0.33113703 -0.04495988 0.17929217 -0.15146774 0.21443565 0.18203524 0.41955715 -0.15079853 -0.49951863 -0.19917192 0.17945041 0.4267924 0.0861389 -0.045943864 -0.18909378 0.37423998 -0.29738852 -0.27471855 -0.29571334 -0.49832335 0.1981139 0.5953368 -0.0016171696 -0.03235562 -0.074270785 -0.048932347 0.06032049 0.46030948 0.09554514 0.44593492 0.24779823 0.09978089 0.025469415 -0.08243653 -0.06270633 -0.22837695 0.089430705 -0.07206103 -0.29536825 -0.6806291
16 0.2690879 0.41058925 0.12672329 0.2525383 0.0062789395 0.10921924 -0.26856583 0.26073778 0.26450717 -0.14265476 0.12709022 0.5019904 -0.4045679 -0.30661672 0.031649664 0.5063623 0.33337724 0.27264026 -0.12641841 0.18339911 0.4585496 -0.39377713 -0.26343712 -0.24704173 0.037993178 -0.8380749 -0.020294638 -0.3380114 0.25954816 0.15324624 -0.093989864 0.099515 -0.01509494 0.2187251 0.1620069 -0.049567256 -0.079648726 -0.011226349 -0.043125167 0.13925952 -0.041332994 -0.0069632665 0.3968467 -0.05187198 -0.18881923 0.042965405 0.27908152 -0.30701295 0.14513731 0.40768966 -0.09678875 -0.25354815 -0.5178986 0.2843061 -0.38730648 -0.09658442 -0.20450747 0.10887603 -0.17460302 0.06816038 -0.018791648 0.057135567 -0.23950863 0.16602536 -0.143478 0.35759437 -0.0820141 -0.004475905 0.102291256 -0.201588 -0.017526759 -0.24888094 -0.113505274 -0.5121394 -0.10978177 0.54480004 0.024784856 -0.011188847 -0.21380311 -0.3555458
13 0.2353059 0.45424342 0.038997922 0.17003 -0.005067776 0.094280936 -0.14151002 0.20416611 0.360373 -0.019600002 0.22390255 0.45669445 -0.22875443 -0.28243944 -0.08350817 0.29399425 0.31605464 0.30776256 -0.12283003 0.19752647 0.3921161 -0.35691258 -0.3064102 -0.15758134 0.15301402 -0.717235 -0.08266212 -0.32236782 0.2523008 0.11296191 -0.18826038 0.05571538 -0.129651 0.13243529 0.23711817 -0.098118894 -0.14958028 -0.059996292 -0.019291842 0.19617829 -0.04258332 -0.076726355 0.3422888 -0.029161286 -0.09871418 -0.0064258324 0.12241823 -0.19942626 0.16231456 0.41233838 -0.20569976 -0.16752544 -0.4114915 0.27586883 -0.41275206 -0.08060305 -0.14459287 0.07440531 -0.24110565 0.040166378 -0.032067813 0.1711621 -0.23680146 0.093706585 -0.069989726 0.3275482 -0.04231216 0.014765362 -0.03552804 -0.10529402 0.104983225 -0.30206767 -0.08035929 -0.48034623 0.048006598 0.4909455 0.021597715 0.037891462 -0.24918729 -0.39861843
54 0.08927648 0.24062954 0.1452336 0.2029546 0.025015136 -0.34008676 -0.122245364 0.23042059 0.14233153 -0.05258382 0.013350632 0.45510128 -0.1001838 -0.35222793 -0.2730876 0.1579356 0.2136054 0.3914317 -0.2596242 -0.15501931 0.21992631 -0.29331145 -0.057148285 -0.08176333 0.16966328 -0.27491027 0.033832803 -0.18513694 0.28676638 0.17885381 -0.41720957 -0.055389106 -0.2828932 0.03873633 0.06432242 -0.0042089066 0.061107386 0.07417455 -0.1352883 0.20836085 0.092002705 0.007781276 0.2586851 0.19930014 0.07958285 -0.14578779 0.52510786 -0.28224963 0.3546284 0.28234908 -0.16131608 -0.0968731 -0.037113536 0.18820436 -0.26053438 0.17424522 -0.122933425 -0.1698108 -0.21232753 0.064128295 0.0831489 -0.23129342 -0.12852383 -0.20593488 -0.39663517 0.21401004 0.21119726 0.009355741 0.18154867 -0.18868233 -0.13292569 -0.35789612 0.12903172 -0.26655307 0.009378477 0.275565 -0.12391678 0.15677908 -0.085890785 -0.10970904
47 0.18603595 0.023101551 0.038064912 0.117254235 0.0649716 -0.060172386 -0.19146743 -0.01301166 0.065359585 0.23591079 0.32860824 0.1592471 -0.17624505 0.05341544 -0.33503747 0.15178904 0.22596756 0.22810161 -0.40365252 -0.13055374 0.1774962 -0.12697314 -0.21932586 -0.19143863 0.172388 -0.2271282 -0.2537422 -0.25458074 0.23468061 0.08773448 -0.35704082 -0.08955036 -0.08544352 0.339377 -0.18379673 -0.12233263 -0.02453793 0.25958416 -0.087442875 -0.050908327 0.034145117 0.029755365 0.30948725 0.11195915 0.16718394 -0.30820584 0.57683367 -0.22409347 0.15809579 0.40640813 -0.30331683 -0.035388224 -0.19552283 -0.021032538 -0.07639927 0.0448922 -0.31356755 -0.22604115 0.09262845 0.033566944 -0.06905575 -0.031235185 -0.2683166 -0.31544763 -0.26546898 0.468659 0.27552432 -0.008297724 0.25170174 0.0631768 -0.099651314 -0.34911966 -0.03773095 0.010878107 -0.19901489 0.30493388 0.030540247 0.0028535556 0.07040176 -0.12499935
106 0.14601342 -0.07173317 0.124519624 0.25030896 0.070306905 0.06399638 0.2519676 -0.19846356 0.113183126 0.07339951 0.14934424 0.07772919 -0.37680626 0.021484755 0.12708776 0.40975812 0.173439 0.47014564 -0.24282037 0.1043893 0.37580055 0.07708017 -0.052182578 0.004537095 -0.054111056 -0.318109 0.035840515 -0.23146005 0.33561105 0.31900966 -0.12173799 0.098452464 0.30481496 -0.030919759 0.17409937 -0.06261051 -0.3358796 0.22111866 -0.17193809 -0.19108512 0.14738719 -0.3641726 0.38413247 0.00054970477 -0.15215139 -0.23706664 0.017375661 -0.19969285 -0.001274303 0.18797027 -0.18487361 -0.13326895 -0.26889443 0.2396849 -0.11926111 0.14985617 -0.0020222168 0.1351467 -0.00922741 -0.09437052 -0.32583463 0.07186396 -0.06468866 -0.039269656 -0.0611539 0.5367012 0.0336499 -0.21572125 0.100831926 0.15911642 0.2682073 -0.20312442 -0.07264598 -0.33753702 -0.06966811 0.46923965 -0.126897 -0.24035361 0.23459376 -0.18768024
80 0.14341842 0.19540255 0.1831217 0.35234472 -0.25168458 -0.17519899 0.034323215 0.4821468 0.102645285 -0.015465695 0.20809102 0.5013537 -0.32771954 0.07394258 0.21758038 0.11796128 0.28487206 0.23584157 -0.15272887 0.17910732 0.20426896 -0.035716347 -0.3117272 0.10603922 0.05030415 -0.30336615 0.2240201 -0.4612542 0.23406294 0.17039713 -0.3471425 -0.0052599786 -0.35694945 -0.059077755 0.03456138 -0.1302007 0.100322545 0.054234635 -0.24920994 0.018104348 -0.0927486 -0.0026408604 -0.013135079 -0.13514376 -0.15437251 -0.07136471 -0.045914315 -0.22541264 0.44962358 -0.06477297 0.094403945 -0.14316528 -0.4340256 0.2814421 -0.28874606 0.087951 -0.46084407 -0.18976669 -0.14810014 0.1158975 -0.17975163 0.12655863 -0.28526402 0.11403942 -0.17851971 0.55517125 -0.10899645 -0.13476847 0.3287709 -0.12320178 0.105789125 0.01887317 0.18385221 -0.027393553 0.096458405 0.4059503 0.076853655 0.06742265 0.028072378 -0.37434182
25 0.19960113 -0.5281487 -0.4464305 0.19865325 -0.011802239 0.056300532 -0.009166951 -0.3001984 0.3878878 -0.13961343 0.060085267 -0.3392521 -0.0076844916 0.4637706 0.4351771 0.19621095 -0.093650416 0.30241707 -0.21528749 0.47786272 0.15531886 -0.26206103 -0.08225882 0.4607698 0.2946794 -0.14695452 -0.15453257 -0.1437996 0.12660952 0.4575708 -0.11430489 -0.04005805 -0.34311488 0.28278324 0.37514082 -0.49722442 0.13903281 0.024261659 -0.09884566 -0.08691917 -0.17852212 -0.10748764 -0.28411222 -0.2837514 -0.18824546 -0.16856831 0.112168245 -0.1305069 0.08885674 -0.15098982 -0.016237244 -0.079174966 0.22726333 -0.26967236 -0.4194744 0.31788212 -0.11338359 0.045011114 -0.14325279 -0.21798335 0.07325883 0.2211631 0.4986952 -0.0634918 0.31688738 0.18353069 -0.28992915 0.1505336 0.350874 -0.13007379 -0.08825171 -0.3298272 0.12324023 -0.33177444 0.2331233 0.22199638 -0.009288352 0.023327792 0.5084981 -0.17635745
38 0.077053055 0.024184993 -0.3052543 0.0200946 0.23746787 0.12649807 -0.19965136 0.0056591593 -0.03616469 0.19137736 -0.058651213 0.1271069 -0.009847617 0.22621351 -0.18387519 0.1765213 -0.036427546 0.21522623 -0.15228336 0.18276492 0.08906789 -0.4300685 -0.33905882 0.318684 0.18174341 -0.08949706 0.04236583 0.057166472 -0.22485866 0.4258297 -0.1783687 -0.049220737 -0.2620876 0.21570987 0.1916866 -0.09780716 0.014988816 0.36880997 0.010112551 -0.05243825 -0.020118507 0.21818674 -0.024180893 0.33287352 0.3052595 -0.2106681 0.5932257 0.02302551 0.04676119 -0.11514243 -0.118649736 -0.06291914 0.5051618 -0.20957729 0.06763877 0.2594995 -0.20632741 -0.32047436 -0.2822345 -0.26800314 0.090099245 -0.20111574 0.22783618 -0.1548535 -0.13080613 -0.17132655 0.2697845 0.04445033 0.2887595 -0.10692421 -0.35031134 -0.30430448 0.16221133 -0.057841875 0.017434046 -0.3926524 -0.14338037 0.096967734 -0.017637985 -0.32346576
65 0.28495148 -0.027587062 -0.23495871 0.11515219 -0.1226267 0.29967272 -0.10134399 0.11233884 -0.016655223 -0.12703907 -0.17296965 0.004761084 -0.43866852 0.031851005 0.06320091 -0.39509448 -0.08818618 0.09003226 0.4896489 -0.17163603 0.35901132 0.06093225 0.0046034195 0.55714464 -0.05983423 -0.15028808 -0.08192705 -0.14974596 0.08744318 0.19591454 -0.097188674 -0.15002298 -0.24022236 0.00495465 0.07218697 -0.035060428 -0.19848132 -0.06395353 -0.13410027 0.044834264 -0.19695449 -0.27771166 -0.0010042918 -0.013034762 0.019572152 0.047222085 0.11917548 0.43437144 -0.006840003 -0.32279965 0.29814625 0.5446989 -0.02994729 -0.14545923 0.036203813 0.32192203 -0.23983718 -0.35947582 -0.56576383 -0.15555914 -0.15293747 0.30315003 0.18407954 0.34035116 -0.24113461 -0.017000755 0.13786702 0.26375273 0.09667344 0.2757168 0.05708211 -0.10357701 0.3031838 0.11956537 0.0835209 -0.26083922 0.1706339 -0.110096104 -0.09306268 -0.16994219
63 0.3051719 -0.2434861 -0.02205836 -0.039596256 0.14615479 0.24573816 -0.049178362 0.033895858 0.18173282 -0.08957672 -0.062331643 -0.037435584 -0.36966926 -0.0883796 -0.081815936 -0.28255934 -0.15888916 -0.07843692 0.21454337 -0.4482285 0.4829294 -0.028160658 0.06989189 0.42168298 -0.035097606 -0.017413093 -0.18718308 -0.009112576 0.32887042 0.1793825 -0.23128659 -0.074333385 -0.09675604 0.28506503 -0.042080637 -0.09529651 -0.19144474 -0.013308457 -0.37214094 0.029702414 -0.12089854 -0.1627271 -0.1892082 -0.050643977 -0.08487081 -0.1359038 0.25228074 0.045394182 0.036234576 -0.26228303 0.15638319 0.6388392 0.050035466 -0.32371283 -0.02089893 0.1263723 -0.09162215 -0.2849682 -0.45815933 -0.019113429 -0.1130671 0.06156234 0.16723658 0.12295831 -0.28291783 -0.030789413 0.2423462 0.3264299 0.21822016 0.42431855 -0.04135809 -0.08205746 0.30689028 0.077087514 -0.31150475 -0.09278644 0.13693953 -0.09221521 0.0827728 0.12852414
104 0.039137524 -0.14550047 0.19366087 -0.15856387 0.21450393 0.1922938 0.29365218 0.27135304 -0.08171831 0.14266293 0.074559286 0.081787296 -0.0934535 -0.1693433 -0.060342174 0.39402467 0.017309157 0.22170976 -0.2505877 0.11280828 0.33490893 -0.1676873 0.056686446 0.20184241 0.13824908 -0.3292208 0.24740015 0.039705522 -0.014324576 0.33564922 0.1911075 0.18752322 -0.14999413 -0.05604571 0.3914196 0.20978807 -0.26083 0.37246835 -0.41240913 -0.12757516 0.07594946 0.08863292 -0.03647659 -0.077770635 -0.05826365 -0.23159423 0.21551941 -0.22137603 0.021752682 -0.21903226 -0.15893877 -0.124613225 0.19636533 0.034439847 -0.25655088 0.2132603 0.16569337 0.019390786 -0.2134358 -0.27775902 0.02043989 -0.37620714 0.17681408 -0.1454802 -0.23944165 0.11781267 0.09559299 0.014240943 0.24201821 -0.011622877 0.21017066 0.11298459 0.2689679 -0.47622955 -0.10207485 -0.028092228 -0.19702354 0.053745527 0.02937154 -0.010139459
93 0.30398762 -0.1073636 -0.059121322 -0.17454182 -0.06636375 0.4156952 0.19739644 0.10752574 -0.22741118 0.14886922 -0.2382483 -0.15513137 -0.48694605 0.09943662 0.09555271 -0.057743046 -0.047191054 -0.024102682 0.08460419 -0.2753709 0.36280167 -0.27079794 -0.057611983 0.062570885 -0.48750544 -0.36381248 0.03893004 0.024772983 0.18755995 0.26977646 0.04267805 -0.025208406 0.18804413 0.18585606 -0.22789937 -0.0021709695 -0.4219034 0.12711124 -0.04298169 -0.19293714 -0.16042735 -0.09538067 0.1646306 -0.01880139 -0.14534487 0.041593716 0.64331484 0.0688319 -0.22493455 -0.35043418 -0.18741554 0.28616825 0.060055688 -0.2277 0.07115843 0.21425615 -0.0055849846 -0.10991937 -0.1214643 -0.23482957 0.1531729 -0.0707295 0.20659597 -0.097808465 -0.28088522 -0.12828386 0.3860678 0.2129801 0.24449389 0.14051937 -0.052118283 0.2478648 0.19205411 -0.016536333 -0.25586554 -0.051681064 -0.24642304 -0.021874545 0.14611024 -0.23182015
52 0.13517086 0.25040978 0.12364483 0.46287107 -0.08647519 -0.37395018 -0.10194544 0.23766233 0.123853765 0.060830895 0.11655747 0.5028774 -0.39063418 -0.24897264 -0.17883977 0.27441218 0.26799694 0.3516448 -0.3936868 -0.17477673 0.34506923 -0.15908875 -0.11126909 -0.3227499 0.12898828 -0.47777265 -0.045032147 -0.21591702 0.5815848 -0.00088604627 -0.4671921 -0.14556226 -0.22882806 0.20265253 -0.04143067 -0.23398821 0.10570021 0.14827341 -0.04289471 0.34459248 -0.027784513 -0.14366505 0.4624964 0.20898484 0.035625286 -0.08776327 0.53041214 -0.38030556 0.38898557 0.31208494 -0.15890063 -0.21973951 -0.34499192 0.058514614 -0.41660842 0.0973293 -0.0843082 -0.12376882 -0.14446016 0.20407149 0.1373481 -0.22992541 -0.39689043 -0.31472328 -0.29457864 0.492053 0.06451141 -0.095662944 0.23996323 -0.11257722 -0.18742369 -0.37332654 0.025406254 -0.049143475 -0.2197656 0.32890534 -0.11070557 0.011063572 -0.030169759 -0.25676546
39 0.23463793 -0.1124372 -0.36889407 0.36553633 0.25512025 0.006737573 -0.16286507 -0.15557039 -0.09588279 -0.11542282 -0.02534388 -0.06042018 -0.45295492 0.19103558 0.35960448 0.15197 0.057717666 0.27408746 0.2608193 -0.0073588886 -0.059437163 -0.12850204 -0.051043626 0.65173715 0.19120029 -0.23222429 -0.18139985 0.058816694 -0.22235635 0.22631195 -0.1326383 -0.050871734 -0.35265604 0.3042314 0.17097329 -0.21259102 0.041241087 0.38323328 0.26131278 0.08280146 -0.08705503 -0.07940956 -0.042978622 0.44452572 0.13082126 -0.008898624 0.25392035 0.10282372 -0.0007217367 -0.18813664 0.1284443 -0.049464837 0.27956462 -0.14545901 0.06514112 0.34756273 -0.23674743 -0.34375557 -0.1827925 -0.06649092 -0.036184657 -0.032527372 0.43897408 0.06019711 -0.17332754 -0.1525061 -0.09264832 -0.012073869 0.1369192 -0.37632018 -0.114945024 -0.561537 -0.048082963 0.024537046 0.13718338 -0.311006 0.05547476 0.03401898 0.1276737 -0.3056613
90 0.1634823 -0.15275562 -0.20444499 -0.091175824 0.13086364 0.50253606 0.20710413 0.027908264 -0.24620736 0.08851463 0.04815606 -0.1884393 -0.57904726 0.17512225 0.098990835 -0.14815293 0.080855146 0.041017853 0.13447154 -0.11653525 0.30183044 -0.060384527 -0.2078473 0.37737325 -0.3240668 -0.4597933 -0.16936062 0.09149324 -0.017859047 0.07822711 0.13161612 0.064795375 0.007762114 0.17130093 0.08397807 -0.0014140398 -0.5630529 0.18388654 -0.010566834 -0.16614972 -0.11800285 -0.25560263 0.25018862 0.20760287 -0.24084109 -0.09978063 0.23182991 0.29764056 -0.27156818 -0.17290005 -0.087595575 0.2599874 0.047759175 -0.21441303 -0.18190888 0.21627454 -0.04339926 -0.02043258 -0.23731865 -0.07492318 0.039915442 0.06887124 0.32666922 -0.026107758 -0.09745637 -0.25826904 0.09988548 0.026820635 0.15922067 0.12652831 0.1813488 -0.052570198 0.14833246 -0.23266931 -0.19401853 -0.16714318 -0.19679876 0.027077345 0.06970996 -0.3862582
1 0.30446765 -0.058367897 -0.019968526 -0.3298158 -0.12931123 0.47664595 -0.04810708 -0.12966135 0.26666856 0.11965352 -0.1517987 -0.19269434 -0.09393156 -0.3113977 0.107495986 -0.31853363 0.029066691 0.239544 0.38521314 -0.35681126 0.29941744 -0.14546642 0.021395234 0.20404382 -0.08071188 -0.5404597 -0.011862143 -0.022656383 0.065329604 0.3707408 0.09073098 0.0074010226 -0.1448507 0.074864626 0.15989207 -0.11914596 -0.44834757 -0.12951148 0.01977992 0.070650935 -0.13962711 -0.10794018 0.07749949 -0.001804324 0.2594975 0.167537 0.2428099 -0.26887268 -0.37269327 -0.25247493 0.22358376 0.40719858 0.01609757 -0.08664114 -0.12530108 0.26179808 -0.06479864 -0.36469126 -0.28228226 -0.43418667 0.25496918 0.4154208 -0.001629839 -0.089297615 -0.10825716 0.018472044 -0.011537979 0.3030198 0.09522472 0.45740137 0.05934005 0.0698215 0.13861704 0.020417284 -0.2632335 -0.2643866 0.12638423 -0.18169066 -0.21264559 -0.5250197
18 0.30326915 0.46345824 0.0254439 0.10052483 0.07363061 -0.008216217 -0.15725134 0.26581267 0.4582675 -0.13558201 0.14164265 0.34187013 -0.24198706 -0.35874102 -3.2585143e-05 0.45886844 0.16558747 0.25769848 0.022144107 0.17964883 0.5449564 -0.34963414 -0.2726568 -0.16851547 0.18181738 -0.7764865 -0.095931105 -0.20030198 0.17669094 0.0753829 -0.11943738 0.14658003 -0.2508197 0.1852067 0.21494567 0.12168312 -0.14905886 -0.16883577 0.01315401 0.033370286 0.13366927 -0.0005255235 0.124264985 0.015238331 -0.25089106 -0.05487033 0.13070051 -0.13717812 0.22824024 0.26701844 -0.12801969 -0.12886232 -0.27773115 0.3528248 -0.33427775 -0.09192651 -0.02788614 0.14178985 -0.37946546 -0.003231851 -0.02499553 0.042420395 -0.19250411 0.25661066 -0.037920903 0.2540189 0.02178457 -0.001033868 -0.09085004 -0.12151171 -0.04953418 -0.28226465 0.09357471 -0.56281716 0.046642832 0.41852275 0.06622618 -0.05423 -0.31613857 -0.26140088
75 -0.03206342 -0.1462355 0.056846686 0.062234525 0.054631393 0.13295074 -0.1710111 0.33572966 0.08415567 0.0053293714 -0.036418643 0.26976746 0.002814145 -0.10493198 -0.17840214 0.22825556 -0.20293276 0.10934697 -0.019722937 0.017012982 0.49014258 -0.28014565 0.06877032 0.35411292 0.23469247 -0.06918581 0.3034255 -0.18096645 -0.034856435 0.41582495 0.068742864 -0.006824814 -0.26134798 0.10228743 0.37448305 0.022522755 0.11609862 0.030167744 -0.41821265 -0.06256653 -0.10175217 0.16456734 -0.3698682 -0.1568601 0.041600816 -0.38718796 0.24566177 0.11071229 0.29425898 -0.030919736 0.24849199 0.28005388 0.17967099 0.00625585 0.043019194 0.1461991 -0.17496632 -0.22352497 -0.4275814 -0.057461962 -0.070111535 -0.19658066 0.09905659 0.12260718 -0.2573672 -0.004400974 0.07820356 0.2823367 0.35465544 -0.07627734 0.08633573 0.06871209 0.39033917 -0.3152601 0.08582783 -0.14724019 0.16319792 -0.051999375 0.114152186 0.043341354
87 0.24346173 0.21505578 0.058849506 0.50406057 -0.24645263 -0.27780727 -0.25207996 0.41112906 0.052578714 -0.1052725 0.03201791 0.57014835 -0.426627 -0.080521025 0.2914422 0.20869634 0.10700846 -0.05538705 0.11719261 0.046862505 0.4023292 -0.12830672 -0.09478401 0.12223582 0.11039171 -0.37237063 0.14431703 -0.18209438 0.32191524 0.119915225 -0.1790004 -0.19809124 -0.452168 0.20593362 0.17150389 -0.2561621 0.2239694 0.06294487 -0.10086353 0.19833572 -0.04528339 0.06462439 -0.021838756 0.010790029 -0.16224064 0.0673978 0.07755403 -0.12287846 0.40713096 -0.07742856 0.28600132 -0.15930267 -0.43722787 0.15286048 -0.38393405 -0.104896076 -0.26604706 0.017473117 -0.40865043 0.3324379 -0.04700537 0.0028353857 -0.23229061 0.26741356 -0.12533355 0.25081453 -0.25588587 0.20579863 0.43852732 -0.33416295 -0.13465698 -0.008085146 0.14888646 -0.015715564 0.11643935 0.2395573 0.18906212 -0.041382007 -0.049063183 -0.19569123
101 0.36976692 -0.13181499 -0.061087083 -0.13445915 -0.060819127 0.5826703 0.27943552 0.18144818 -0.1989744 0.22268446 -0.08244045 -0.20783477 -0.3910609 0.29340905 0.0035202466 -0.01509633 0.140292 0.07995171 -0.0521371 -0.08227115 0.2195783 -0.15342842 -0.13626353 0.12189711 -0.37652123 -0.43770406 -0.11909107 -0.118574396 -0.0031537118 0.16782868 0.084826834 -0.12659466 0.054928225 0.100634575 -0.267103 0.08537317 -0.40371314 0.3414543 -0.12868118 -0.25585493 -0.28170717 -0.0700052 0.2251588 -0.26028475 -0.14244555 -0.038589686 0.47245532 0.060100902 -0.27838683 -0.48866826 -0.25822663 0.23535629 0.047673248 -0.33626366 0.06622391 0.28246096 -0.09827006 -0.17165762 -0.12252334 -0.35573947 0.0680536 -0.07444105 0.29839218 0.04181651 -0.2418856 0.10731839 0.2529094 0.076078355 0.1339651 0.33189124 -0.0032643783 0.12001289 0.18575203 0.092585996 -0.29472822 -0.16743584 -0.15448143 -0.12121359 0.13409108 -0.29464638
10 0.2993676 -0.033244923 -0.028504118 -0.36897585 -0.2238909 0.5064161 0.051689044 -0.10661275 0.2684767 0.18697178 -0.16602358 -0.21602985 -0.067559354 -0.15554272 0.15830709 -0.52039033 0.24916549 0.3767875 0.36947158 -0.39196125 0.12719527 -0.21634127 -0.14266294 0.23180856 -0.21133707 -0.54321575 -0.1772004 -0.16238773 -0.042918123 0.3160021 -0.010040263 -0.04732694 -0.09209807 0.06544769 -0.073849216 -0.18430279 -0.44646248 -0.14447507 0.15449525 0.0267328 -0.35149434 -0.12061065 0.120391406 -0.18327549 0.17304236 0.19866225 0.39104453 -0.25505638 -0.44903892 -0.32476375 0.06464341 0.47679752 -0.020312682 -0.074374005 -0.1538827 0.39705303 -0.29776675 -0.43974894 -0.16769439 -0.33837634 0.3575747 0.5387376 -0.03634128 -0.111580685 -0.19040999 0.04979068 0.120423086 0.30797777 0.061621346 0.4847332 0.20107867 0.065424636 0.039147332 0.10920832 -0.20840962 -0.17241712 0.08574736 -0.1255 -0.12761757 -0.7345116
37 0.17015773 -0.3533687 -0.19310299 0.25902474 0.11029726 0.11679322 0.051359314 -0.097428575 0.19388077 0.19687814 0.19106667 -0.1059342 -0.40021738 0.28831258 0.17807615 0.11394572 -0.0018766643 0.31661934 0.049978103 -0.397331 0.3716351 0.0038384567 -0.16387333 -0.3188121 0.035297 -0.25224552 -0.4015186 -0.11808011 0.0030509664 0.034091238 -0.36889488 0.19209205 -0.13847083 0.27092025 -0.2331545 -0.042553663 -0.2778073 0.073362574 0.06744633 -0.097602434 -0.196806 -0.08454318 0.04997275 0.05855844 0.2675727 -0.112480246 0.48995417 0.06955826 -0.015619452 -0.06265159 0.007086432 0.20196459 0.15913948 -0.37710506 0.10958457 0.22977628 -0.18031625 -0.3217343 -0.10994464 -0.39064634 -0.12765376 0.1464908 -0.20187898 -0.29554945 -0.1211423 0.3052065 0.35985523 -0.087442786 -0.07035405 0.4677785 -0.039401814 -0.15170975 0.12138816 0.3204771 -0.3906709 -0.3021553 0.078545794 -0.3579612 -0.10016474 -0.17639351
77 0.44958025 -0.21017352 0.037676223 0.20047559 0.13987538 -0.17333584 0.0015669982 0.3256275 0.09781603 -0.010707113 0.13018644 -0.06898244 -0.20660274 -0.083696395 0.024634106 0.2538753 -0.215493 0.2778371 -0.013422938 -0.10548174 0.39062935 -0.13160333 0.21257238 0.27780232 -0.017449703 0.10378568 -0.039204184 -0.17647652 0.22914207 0.27300102 -0.23151824 -0.0704061 -0.26815552 0.51994 0.2863885 -0.13239418 0.18242563 0.36088687 -0.31671128 -0.023120161 -0.24657086 0.07207493 -0.33901712 -0.2735068 -0.24216475 -0.24548848 0.041683115 -0.046332654 0.20891736 -0.23909143 0.111296564 0.21345966 0.11917757 -0.108118564 -0.007088223 0.12644099 -0.18245389 -0.08740822 -0.19875172 0.26617628 -0.1611701 -0.064676024 0.029810809 0.18538764 -0.1692451 0.15736012 0.07180725 0.32024533 0.14623901 0.052057553 0.19611889 -0.21365106 0.32135713 -0.1494144 0.0018096529 0.20591217 0.07552869 -0.15510115 0.43483517 0.19480635
83 0.16033919 0.22771485 0.24798921 0.22907881 -0.19994767 -0.15756541 -0.02735687 0.41035798 0.01104676 -0.014072148 0.10314241 0.44423538 -0.42231834 0.04310037 0.14986156 0.22682193 0.30301222 0.16586477 -0.21348473 0.14765948 0.30737674 -0.118586265 -0.29754156 0.16562957 0.13164641 -0.48263997 0.2676008 -0.35153928 0.22307535 0.1699574 -0.14008692 0.029035205 -0.28905657 0.050457623 -0.14209212 -0.11987861 0.28116325 0.0071163583 -0.16193974 -0.0143198995 0.04573383 0.05247468 0.037620917 0.007131673 -0.16297674 0.0098431045 0.20048836 -0.28606296 0.43558002 -0.025679907 0.046923757 -0.23929052 -0.54724264 0.38610056 -0.36505017 0.18338919 -0.4357161 -0.11979321 -0.1731558 0.23664467 0.011643926 -0.041077644 -0.30641064 0.12721144 -0.18024713 0.4168543 -0.11889118 -0.13456847 0.5309566 -0.40858492 0.019788424 -0.044286396 0.100783356 -0.051105436 -0.06299946 0.30104735 0.14101295 -0.0036464096 -0.06741114 -0.2716006
14 0.14732079 0.40469787 0.08288881 0.21698359 -0.015010776 0.1345463 -0.12082087 0.25506988 0.3893967 -0.10596017 0.18358864 0.45608103 -0.37848938 -0.3597768 0.021699337 0.55159885 0.36137557 0.37655154 -0.04771689 0.15178263 0.58211094 -0.31855622 -0.25055012 -0.2075167 0.22570777 -0.87688595 0.00095537433 -0.16937256 0.22283247 0.0066670775 -0.030021897 0.025685297 -0.10280816 0.040672284 0.18809178 0.036242656 -0.07977267 -0.17681286 -0.043552466 0.20063177 0.08417906 -0.032764055 0.44772628 0.025460772 -0.028632335 -0.0035488512 0.16793731 -0.15087672 0.21958351 0.3484147 -0.042767324 -0.25169238 -0.47902763 0.2984717 -0.47670108 0.035553623 -0.16836485 0.14744654 -0.39318436 0.037214752 -0.036479253 -0.0076385387 -0.33861056 0.20892636 -0.022681782 0.31017932 -0.038757503 -0.040021636 0.099340744 -0.15295829 0.13013895 -0.28584304 -0.029664755 -0.40119004 -0.103453524 0.35500854 0.11946933 -0.10387735 -0.46232817 -0.32686663
22 0.29406732 -0.3970239 -0.34954464 0.23900965 -0.13004762 0.04204345 0.004488123 0.13235037 -0.037009187 -0.099748485 -0.032964006 -0.37722778 0.012475698 0.2274036 0.39062998 0.16640139 -0.29092994 0.21594195 -0.18768728 0.37819195 0.031058867 -0.2436245 0.111386135 0.22286803 0.23294203 -0.30371115 0.0031378367 -0.2866465 0.106945865 0.5717354 -0.11903782 0.16779484 -0.4232013 0.30549115 0.15388711 -0.41397992 0.20696583 0.2839589 -0.18366413 0.09332199 -0.3352997 -0.011843563 -0.37230268 -0.32690725 -0.26588675 0.1670939 0.14356835 -0.08032154 0.21979514 -0.33847922 -0.13819031 -0.13885263 0.3192439 -0.1721104 -0.38688016 0.3833213 0.20384608 -0.17377327 -0.21030812 -0.41240406 0.17058103 0.021711998 0.46681997 0.05875005 0.023111783 0.34306175 -0.26579306 0.06812459 0.27972716 -0.3943643 -0.3026979 -0.10957378 0.18643458 -0.23765607 0.09256354 0.1095601 -0.18877973 0.023015251 0.27854294 0.068666436
70 0.10045632 -0.13926096 -0.17391683 0.0203065 0.29619995 0.30001155 0.012932825 0.14810628 0.20156272 0.030388374 -0.04471381 0.28299913 -0.2811633 0.03880702 -0.13266668 0.13261175 -0.21977256 0.10441483 -0.09137739 0.30395296 0.28450957 -0.29057616 -0.059842985 0.769191 0.026745146 0.081656486 0.2641136 0.021922126 0.08431821 0.22960517 -0.13077177 -0.07643509 -0.17530602 0.022145705 0.61570483 -0.20757891 -0.062086526 0.1518512 -0.42136115 -0.037022814 -0.17493355 -0.043129075 -0.16705322 -0.007022585 0.033548705 -0.31136423 0.0056732097 -0.032657806 0.08434342 -0.09956717 0.32097545 0.26579756 0.23143983 -0.32434618 -0.008566032 0.14903112 -0.35433486 -0.21698977 -0.2997135 0.07264456 -0.11687969 -0.012076466 0.29792896 0.13328113 -0.1391662 -0.40907913 0.04555622 0.10210515 0.31851554 0.1797621 0.09000834 -0.3842995 0.3269479 -0.19453046 0.13379882 -0.28005806 0.030037524 0.16332304 0.21561286 -0.265319
7 0.51277715 -0.022249915 -0.018577078 -0.3279275 -0.12294098 0.30019835 0.024791762 -0.30117288 0.2758826 0.33774114 0.049531545 -0.32062158 -0.07827456 -0.17283976 0.17568153 -0.29175544 0.08739912 0.2762063 0.38621694 -0.4727526 0.28644738 -0.1386853 -0.2162434 -0.058150716 -0.14670347 -0.528239 -0.25271398 -0.15649465 0.15244998 0.37396398 -0.17205021 0.06778746 -0.02570275 0.39605844 0.0031510536 -0.32265735 -0.4259937 -0.0036829216 0.25596896 -0.14342834 -0.11327405 -0.10034918 -0.12854713 -0.005136109 -0.03768333 -0.0029725265 0.2853218 -0.28517866 -0.42011738 -0.16715665 -0.05278358 0.33224463 -0.107791126 0.015237448 0.049080037 0.09948544 -0.10478349 -0.22134839 -0.037175246 -0.23672467 0.04237736 0.5589332 -0.32448372 -0.12888941 -0.05736763 0.24455462 0.116774656 0.3437843 -0.07944004 0.54653394 0.091670185 -0.016627764 -0.012298633 0.012595943 -0.2281904 0.069144495 0.17421207 -0.30147886 -0.122357585 -0.658768
19 0.34004548 0.47848785 0.10442901 0.34877783 0.0036170627 -0.115243986 -0.10953011 0.32126918 0.43144393 -0.22690436 0.09722827 0.5174566 -0.42116427 -0.2365563 0.17674866 0.3846904 0.2712783 0.23738568 -0.056625675 0.1726701 0.42657965 -0.5214538 -0.29461077 -0.28285125 0.13875638 -0.815984 -0.20490508 -0.2641638 0.27963468 -0.09974365 -0.22562504 0.024382988 -0.21874262 0.20244257 0.041126337 0.001056214 -0.11247542 -0.14219159 -0.029507324 0.21494778 -0.08355222 0.017500462 0.27178004 -0.102109775 -0.3283892 0.16394393 0.23431134 -0.2805621 0.31391156 0.2846542 -0.18604879 -0.14750886 -0.36553782 0.27893943 -0.5197665 -0.09039057 -0.12636845 0.22663248 -0.35120735 0.07529432 0.035123143 0.079816066 -0.21152127 0.2544101 -0.018032584 0.28064477 0.003570607 0.04456337 -0.044009984 -0.2684703 -0.014516546 -0.20941089 0.036394462 -0.5246713 0.055912632 0.63343006 0.007093062 0.08468357 -0.19415033 -0.23803052
0 0.22429654 -0.057147697 -0.07360194 -0.4248054 -0.14504541 0.42310816 -0.084091336 -0.27674216 0.19319466 0.24777429 -0.09403344 -0.301669 -0.024038533 0.021807412 0.032092307 -0.46589375 0.045597848 0.030025033 0.2525823 -0.28278682 0.24830922 -0.22401242 -0.29722083 0.36282927 0.060959626 -0.5045926 -0.18590862 -0.008642803 -0.008365578 0.3805069 0.18664797 -0.00033980433 -0.20613776 0.34131584 -0.07490915 -0.34306312 -0.2920682 -0.100010686 0.044712164 -0.0732154 -0.024544686 -0.05449585 -0.11165429 0.140968 0.15093558 0.12364445 0.3312578 -0.21931434 -0.31693688 -0.254434 0.047194026 0.32214254 -0.07829875 0.033093978 -0.3124192 0.25153178 -0.11985553 -0.29711 -0.3958661 -0.28082284 0.39612347 0.48890895 -0.037059106 -0.13067964 0.11742287 -0.032681804 -0.10692561 0.3500817 0.32215825 0.25014225 -0.029261118 0.09375161 0.11285802 0.05936423 -0.35638654 -0.270585 0.1738592 -0.15862016 -0.13695467 -0.5197224
40 -0.13209122 -0.24828354 -0.2940405 0.22699757 0.23928405 0.027402386 -0.24769646 -0.24044271 -0.032575708 -0.11483373 -0.097963996 0.023146087 -0.2772975 0.19154678 0.124319404 0.07878732 -0.028920546 0.2676684 -0.071780555 -0.035838082 0.1331455 -0.4432112 -0.29613876 0.36213288 0.120937645 -0.0050207367 0.043635517 0.124073125 -0.077097625 0.32935497 -0.19322275 -0.07169756 -0.18977422 0.14934054 0.24577776 -0.21885982 -0.0361133 0.16307215 0.009219139 -0.04284557 -0.11158303 0.09884873 -0.027833184 0.423015 0.19412328 -0.29999122 0.60506135 0.03153784 0.061484464 0.026738815 0.12599342 0.015185276 0.5384719 -0.23201147 0.073688105 0.24334511 -0.29442024 -0.25139344 -0.14312682 -0.24696079 -0.07894155 -0.089443326 0.4141325 -0.20776483 -0.081348404 -0.22392526 0.13468874 0.08404312 0.36425844 -0.23810016 -0.20687954 -0.287219 0.111321606 -0.22059654 0.15634008 -0.24540687 -0.081182994 0.239704 0.14518914 -0.26044992
117 0.26902315 0.19316715 0.15081128 0.48832574 0.06079033 -0.14337063 0.08285416 0.22374436 0.021480225 -0.19069101 -0.0827712 0.27735144 -0.4121111 -0.32358438 0.34164366 0.36175188 0.113992095 0.2668379 -0.069156095 0.011602178 0.22420146 -0.05853325 0.15003392 0.1103594 0.042042505 -0.5109746 0.0036676102 0.005712261 0.33323702 0.08944673 -0.05162468 -0.046938736 -0.14330171 0.18076661 0.26006794 -0.11774016 -0.14238358 0.3477863 -0.13241543 0.3965183 0.020068627 -0.19323152 0.30952263 0.19186203 -0.26860633 0.22071615 -0.045865584 -0.39033633 0.1867037 -0.1420288 -0.060057264 -0.15367673 -0.103824615 0.20055737 -0.5114067 0.0899324 0.33777213 0.15331157 -0.37117082 0.076409675 0.11945848 -0.25280312 0.1475302 0.119692914 -0.12907882 0.24105088 -0.24282813 -0.032044157 0.0894291 -0.25775948 0.028644465 -0.0686733 0.01330009 -0.36570254 -0.20333336 0.31541443 -0.31763655 0.025616454 0.1715482 -0.06795103
112 0.035265468 0.06393539 0.38491565 0.25396237 0.016657704 0.08727551 0.3620451 0.050778456 0.18347473 0.06109656 -0.11895546 0.48134625 -0.41897166 -0.075604625 -0.017108802 0.4637678 0.17330265 0.31157985 -0.4325851 0.18089852 0.3956593 -0.13757613 0.09056394 0.10221201 0.07780675 -0.43081978 0.23946379 -0.2359098 0.32652035 0.18663874 -0.0075456416 0.056252427 0.16598673 -0.3364706 -0.07013625 0.15452825 -0.35612282 0.10211451 -0.4363005 -0.07744069 0.19060737 -0.21457784 0.41484413 -0.014803925 -0.00825322 -0.05570445 0.09788392 -0.45579454 0.3521898 0.19365497 -0.09445495 0.07184545 -0.3109047 0.29077333 -0.25815207 0.15459345 0.059223697 0.0690342 -0.26313746 -0.25049907 -0.012836009 -0.18054157 0.09977067 0.04537338 -0.20088266 0.21206571 -0.006954096 -0.336734 0.20912449 0.005970856 0.09450634 -0.051859014 0.14306822 -0.28986502 -0.14607741 0.22424342 -0.07121028 -0.12791383 0.12469702 -0.057955593
27 0.1437567 -0.3404701 -0.24149154 0.13587128 0.07434778 0.011157481 0.04664892 -0.014752025 0.22326328 -0.04440218 -0.035269212 -0.09742043 -0.022991199 0.37383145 0.24352449 0.1886627 -0.13592616 0.15520668 -0.27295512 0.3742732 0.13007987 -0.4648355 -0.03554622 0.37613803 0.3030793 -0.23382014 -0.10575941 -0.11422497 -0.1043302 0.32538095 -0.08314907 0.11027164 -0.47597972 0.18104011 0.14165361 -0.20720804 0.047313828 0.022572236 -0.20337841 -0.13074735 -0.11227276 0.15497977 -0.32480332 -0.21012685 -0.07863167 -0.0090469485 0.31737423 -0.22353427 0.2151543 -0.22323048 -0.067863636 -0.0081894025 0.38926017 -0.15157901 -0.39036575 0.30577317 -0.07021897 -0.01360004 -0.25097737 -0.28478476 0.20596993 -0.029571148 0.49246284 -0.006830856 0.13567397 -0.11368092 -0.08947072 0.08629378 0.22734843 -0.23138377 -0.13938175 -0.13009526 0.27053633 -0.33762872 0.17055967 -0.03609891 -0.07827985 0.13543293 0.24899627 -0.011444529
110 0.098018475 0.19915277 0.23674399 0.34604874 -0.100978106 -0.027654402 0.27317744 0.009328584 0.23420694 0.017310603 -0.1416612 0.48916075 -0.41794482 -0.19202915 0.113116376 0.63247746 0.27797854 0.3479772 -0.22156766 0.101741575 0.39240196 -0.032452937 0.047074385 0.08570047 -0.009501408 -0.47871456 0.2045675 -0.1752974 0.39266005 0.30372217 -0.027069831 -0.04398666 0.11203165 -0.18461066 0.01812226 0.04284964 -0.3063614 0.29526427 -0.162568 0.014454675 0.27974474 -0.28371808 0.39935008 0.24760652 -0.117308855 -0.13599949 0.06978536 -0.37883198 0.405747 0.16268589 -0.10347427 -0.12538101 -0.40433562 0.27979702 -0.342998 0.078540124 0.089982145 0.12220651 -0.28828898 -0.057475343 0.07032712 -0.27191964 0.0865351 0.012512512 -0.16421254 0.23197098 -0.12391979 -0.29689702 0.22253887 -0.10420563 -0.050078273 -0.17580597 0.06642713 -0.20486404 -0.10984187 0.34824163 -0.070984885 -0.21320333 0.2284209 -0.24780591
28 0.3692044 -0.3904956 -0.5053707 0.21936743 0.086879835 -0.0170618 0.012248167 -0.20012665 0.15346533 -0.05403237 0.052423313 -0.32356894 -0.16017082 0.54073757 0.37485442 -0.018367324 -0.20858245 0.07152983 -0.18622027 0.38786498 0.13032214 -0.33699834 -0.09150654 0.44075796 0.33790517 -0.28372297 -0.3299575 -0.15410352 0.0416615 0.34126514 -0.25859126 0.1427381 -0.5441182 0.3259109 0.059892535 -0.43594074 0.030817915 0.1512708 -0.08271445 -0.09585766 -0.21759474 -0.046052914 -0.38451034 -0.14354447 -0.28052765 0.009600593 0.25221077 -0.017537382 0.1785473 -0.23119566 -0.21562882 0.040492427 0.3903296 -0.24193493 -0.40955546 0.26167908 0.070351444 0.009598277 -0.29596972 -0.26524457 0.11625943 0.17588778 0.57609206 0.06937086 0.15919554 -0.0025965152 -0.1478679 0.0883968 0.16556922 -0.24435306 -0.23564726 -0.2948328 0.20208704 -0.2543666 0.19222377 0.03618028 -0.10925341 0.10297258 0.28615022 -0.013668085
32 -0.07315103 -0.36100513 -0.16584243 0.060215026 0.046552494 0.35453027 0.09141659 -0.03377417 0.008886854 0.089019775 0.07626383 -0.11384735 -0.2930103 0.22622424 0.18407837 -0.15049455 0.10918922 0.31829923 0.14792934 -0.19925518 0.13129684 -0.1320837 -0.28293756 0.16032182 0.16386658 -0.23799454 -0.09225186 0.054731205 -0.18904547 0.060183473 -0.09382132 0.07792484 -0.34343547 -0.14527763 0.056884248 -0.06640134 -0.29035622 0.0861738 -0.102972575 0.028670497 -0.22924332 0.0025649494 0.071796946 0.17154713 0.5250729 0.021910036 0.40803716 0.06863697 -0.094913386 -0.25526476 0.12762469 0.11112989 0.34812286 -0.3045824 -0.12382679 0.44091117 -0.28905067 -0.48374733 -0.20937693 -0.67893225 -0.15926154 0.15763481 0.1240349 -0.24726772 -0.14133994 0.18278034 0.154467 0.021374248 0.16133927 0.23584661 0.095593736 -0.065286495 0.21951494 0.1682459 -0.16351205 -0.57653993 0.0919933 0.01653747 -0.32206956 -0.38573748
44 0.15315235 -0.25018987 -0.055576716 -0.012142629 0.24263528 -0.12530275 0.013965597 0.011908945 0.17200907 -0.047995225 -0.0046564117 -0.07325881 -0.0003443206 -0.012568617 0.16892663 0.3122822 -0.05332944 0.39893425 0.067969844 -0.096649624 0.2228034 -0.38353184 0.05668323 0.25056207 0.26219207 -0.041612767 0.09518765 -0.0027637496 -0.21082403 0.42232466 -0.20998007 0.22302502 -0.40238142 0.099360585 0.17937393 0.12943625 0.118478104 0.25031057 -0.04965345 -0.07900709 0.1480975 0.24616049 -0.29728144 0.27478957 0.18309332 -0.1844205 0.42581248 -0.15182145 0.27594554 -0.028601648 -0.00056961813 0.061833985 0.5318469 0.021272311 -0.03563745 0.2772594 -0.19288066 -0.18399283 -0.084230706 -0.28876036 -0.017864482 -0.25320196 0.2635696 -0.17325772 -0.22360256 -0.08317285 0.19177341 0.08618608 0.22126071 -0.26078618 -0.018235607 -0.19520435 0.21571818 -0.30224997 0.11647004 -0.13832593 -0.04278765 0.041776344 0.038494732 -0.016157128
23 0.31817457 -0.3638815 -0.18661295 0.4124444 0.085446246 -0.14167129 -0.061031736 -0.13781768 0.20995899 0.0023461208 -0.04684895 -0.06646499 -0.067616716 0.45407408 0.35879183 0.22690785 -0.19570056 0.0860568 -0.25211883 0.21225193 0.12742655 -0.2796025 0.15261072 0.3079746 0.39355466 -0.18743414 -0.29284978 -0.21025892 0.03099481 0.43168107 -0.11154756 -0.013911115 -0.40490207 0.54077053 0.06008762 -0.37159428 0.10703805 0.31059876 -0.16794454 -0.05131255 -0.16058466 0.063901454 -0.36437097 -0.24939941 -0.124877244 -0.017763054 0.28011292 -0.38938892 0.22007933 -0.30410698 -0.11023105 0.07103024 0.25018355 -0.16444989 -0.27682292 0.19450974 0.045018427 -0.019421358 -0.30336216 -0.1317477 0.18625623 0.031122228 0.34125084 0.008510294 0.12602064 0.21540847 -0.19211453 0.1867774 0.2523446 -0.14119454 -0.21490563 -0.022566494 0.10294985 -0.14105858 0.010787325 0.16095927 -0.0355064 -0.082929194 0.5545001 0.13148795
99 -0.07327094 -0.21017167 -0.18321507 -0.07500724 -0.026354423 0.41034958 0.2206855 -0.041527756 -0.010382924 -0.10173455 -0.011698601 -0.26325995 -0.31255993 0.20574975 0.20039178 0.36027244 0.100195475 0.18212612 0.0579855 0.24876764 0.30763337 -0.097139195 -0.26269633 0.39858434 -0.14005455 -0.24880396 -0.00084496837 0.12470312 -0.06919451 0.1616665 0.30982962 0.014061442 0.020761488 -0.06893633 0.16978377 0.116789214 -0.29659322 0.24827717 -0.0051152837 -0.25053835 0.09218527 -0.11925508 0.1376364 0.22793907 -0.22606996 -0.18188587 0.22815797 0.19577011 -0.010769779 -0.15930271 -0.050039217 -0.061729766 0.12598519 -0.16396762 -0.33166814 0.2935456 -0.16981576 0.1205216 -0.099691786 -0.28296638 0.117396876 -0.16158012 0.49911296 0.029208932 0.03287774 -0.09401719 0.069351174 -0.04172321 0.3735922 -0.16654776 0.018226236 -0.10892439 0.22489761 -0.284295 0.028487649 -0.088391125 -0.068172194 -0.055052076 0.23518643 -0.30048072
12 0.3071787 0.52452964 0.158041 0.1992757 -0.007412533 0.038305536 -0.101867095 0.21970977 0.48499307 -0.20889366 0.005752832 0.5016879 -0.320285 -0.40370837 0.11050894 0.35217783 0.2607584 0.3585663 -0.018887252 0.15373164 0.45697895 -0.41470054 -0.23412983 -0.0758735 0.092234425 -0.795461 0.12865055 -0.31261107 0.2901884 0.23005255 -0.20645583 0.15454736 -0.10306058 0.00022905282 0.14394677 -0.09266306 -0.09600319 -0.1539394 -0.026916318 0.20128596 0.042140093 -0.106172636 0.21649288 0.013397201 -0.21895058 0.16574612 0.06556355 -0.3676099 0.22721717 0.27613682 -0.10851374 -0.081355974 -0.4021123 0.4372561 -0.3668131 -0.059901733 -0.056550905 0.08104596 -0.30974713 0.08929735 0.03005738 0.1351439 -0.15563394 0.27759242 -0.11137419 0.225653 -0.11119761 -0.08427457 -0.12055162 -0.22794634 0.05745075 -0.2783393 -0.090644196 -0.569391 0.0062475805 0.5149887 0.00093426264 -0.023296524 -0.25756064 -0.3834618
94 0.24735524 -0.13180858 -0.017414482 -0.14181699 -0.06936918 0.54318297 0.37912214 0.08446547 -0.18141393 0.22651502 -0.07922645 -0.27939978 -0.39562395 0.1528454 0.026613796 -0.25521597 0.26174527 0.3639217 0.09514257 -0.26681376 0.15332219 -0.21009335 -0.21872553 0.17914556 -0.37645334 -0.32781175 -0.17308933 0.008398331 -0.026399113 0.017951503 0.03565446 -0.1379621 0.10052276 0.006400687 -0.21137045 -0.084901296 -0.37528738 0.29292074 -0.023340954 0.014917263 -0.3368664 -0.12108413 0.32442793 -0.023080152 -0.04600277 0.050684616 0.41003832 0.10814806 -0.3169913 -0.3163811 -0.27350423 0.38908765 0.12319732 -0.2246144 -0.18331817 0.4121737 -0.15628834 -0.10647608 -0.07339602 -0.27031308 0.07726457 0.005122769 0.226674 -0.05943005 -0.26718295 -0.041576754 0.1959738 0.22691299 0.09191084 0.25374871 0.32109705 -0.027249731 0.08620465 0.01167835 -0.31739768 -0.22427984 -0.18553692 -0.025381882 0.05829234 -0.5153139
33 0.2761904 -0.499032 -0.04130259 0.13408221 0.20553456 0.13039392 0.005177416 -0.17757995 0.05387217 0.17719193 0.12718381 -0.11826775 -0.5622069 0.27178076 0.328717 -0.010696187 -0.09060626 0.085017815 0.16085838 -0.5265749 0.4079788 -0.08116809 -0.010194746 -0.07930896 0.15369874 -0.3597598 -0.24996497 -0.03043725 -0.03560548 0.16573465 -0.23017596 0.2242161 -0.25869894 0.24338382 -0.28790987 0.09945063 -0.43176797 0.08337371 -0.06875511 -0.27110493 -0.034692045 0.035953876 -0.09123837 0.10569291 0.3899383 0.01779383 0.6136667 -0.13631016 -0.039360587 -0.21461491 0.13666196 0.2783157 0.2299075 -0.27962324 0.1627445 0.24048641 -0.18159632 -0.4191239 -0.14445266 -0.5953472 -0.23173262 0.15739451 -0.035927575 -0.2711427 -0.1767005 0.25535282 0.34079272 0.0020396325 0.13026358 0.3254063 -0.09510174 0.099102624 0.21923675 0.25644833 -0.3258179 -0.36585987 0.22961769 -0.2610438 -0.16787355 0.01703565
50 0.0032729823 0.28757766 0.23012434 0.3150297 -0.16465907 -0.17302857 -0.042492755 0.250502 0.21500915 -0.0058240504 0.0034318718 0.475081 -0.12835652 -0.2700113 -0.22296056 0.16077052 0.35318765 0.38790426 -0.4143843 -0.06351903 0.14174241 -0.30396658 -0.20650838 -0.19850716 0.22431722 -0.41331697 0.05548603 -0.24257012 0.43690532 0.012092277 -0.25884905 -0.1940974 -0.21568242 0.04979869 -0.06919762 -0.25798002 0.18090615 0.06562489 -0.16829209 0.4601306 -0.070651926 0.0053753713 0.42421007 0.12450699 0.1483198 0.018935887 0.4245255 -0.5530351 0.38900787 0.21370882 -0.12869437 -0.12107221 -0.29484618 0.17237963 -0.5380806 0.19444562 -0.1659061 -0.18674497 -0.17539728 0.04567056 0.36621916 -0.13439716 -0.2983501 -0.2818175 -0.24951781 0.40693527 -0.08632369 -0.041232686 0.29237276 -0.15793608 -0.1666843 -0.24161337 0.04062322 -0.09316447 -0.32218236 0.27281535 -0.08194189 0.13012466 -0.042361956 -0.33046874
86 0.23673555 0.28221038 0.23335354 0.32169053 -0.25255212 -0.36778113 -0.004878548 0.427051 0.36003846 -0.16391575 0.11025276 0.5745257 -0.35147724 -0.05552532 0.45710674 0.36049968 0.36682278 0.1947153 0.13249098 0.15430728 0.24503501 -0.16741872 -0.36532223 0.07849763 0.1018208 -0.38786453 0.19434968 -0.26254326 0.19396473 0.08843527 -0.27138767 -0.03788577 -0.5082185 -0.012165209 0.016663427 -0.016087504 0.15761077 -0.006897173 -0.013368885 0.06384573 0.12410493 0.17516366 -0.05812167 0.11558611 -0.13250165 0.11030116 0.04013792 -0.44754657 0.50686014 -0.117989816 0.19452481 -0.2673359 -0.46971846 0.34309956 -0.46621335 0.045803968 -0.5110299 -0.068730354 -0.17536525 0.06739793 0.05016852 0.050206043 -0.30336034 0.094141394 -0.09393279 0.38468903 -0.14208779 -0.0641222 0.4311148 -0.32239014 -0.1257015 -0.026642803 0.16345161 -0.0015862468 0.065355755 0.36352 0.19392678 -0.010852027 -0.05797705 -0.47012675
24 0.10695224 -0.40240997 -0.39832354 0.20711088 0.02000806 0.086391576 0.06743544 -0.17374612 0.3307186 0.0816823 -0.005024826 -0.060702972 -0.0711285 0.55984104 0.3207055 0.21539591 -0.16773103 0.12959968 -0.21766043 0.44056576 0.25857016 -0.3232296 -0.14973108 0.51602477 0.3069083 -0.1525441 -0.10088806 -0.047861468 -0.033020426 0.39311424 -0.0512087 0.05496527 -0.4066606 0.22807655 0.2498436 -0.43914837 0.008847347 0.13463712 -0.07942006 -0.07923162 -0.12032113 -0.031718645 -0.32583225 -0.041301418 -0.10288744 -0.11242332 0.19676992 -0.06785202 0.24233529 -0.1226937 -0.053484388 0.0981429 0.2860231 -0.2902076 -0.49136978 0.25072697 -0.10096104 0.07297394 -0.34133306 -0.11307102 0.26763028 0.05678674 0.43233183 -0.070220105 0.23672244 -0.2229946 -0.14717688 0.10059361 0.35548794 -0.18792762 -0.09624943 -0.1756399 0.19211875 -0.19485728 0.118578546 -0.09348855 -0.07748271 -0.040011793 0.45130584 -0.19470279
82 0.10298967 0.22541516 0.3126143 0.3024853 -0.18458502 -0.14279707 0.13372879 0.29978538 0.24865483 -0.057914015 0.21392098 0.529311 -0.37043524 0.07745453 0.121021874 0.11708371 0.3591268 0.2870669 -0.197868 0.16193925 0.2517658 -0.07482169 -0.50722235 0.1253033 0.14298797 -0.29966587 0.15583597 -0.41305807 0.33708358 0.08569969 -0.40963545 0.055301487 -0.29955164 -0.18958446 -0.13563032 -0.18251523 0.144925 0.0029824472 -0.31558287 -0.010690084 -0.015821856 -0.021650556 0.034286093 -0.061804503 -0.023783766 -0.015538719 -0.030479042 -0.38017365 0.47456422 0.038779844 0.06058407 -0.14273651 -0.53964037 0.37881842 -0.30322322 0.06771057 -0.50995064 -0.25875187 -0.09325396 -0.030497663 -0.25168654 0.19454382 -0.29898265 0.15638505 -0.2465255 0.6776915 -0.13950187 -0.24324502 0.37175426 -0.1462383 0.05992901 -0.22635144 0.090710014 -0.018509444 -0.01901148 0.3235711 0.22745058 -0.0040424513 -0.18553272 -0.4464877
35 0.17224297 -0.4050034 -0.25021335 0.21151534 -0.019831505 0.1700497 -0.07940508 -0.03510791 -0.20216458 0.058110077 0.12178534 -0.18468274 -0.50025326 0.2453152 0.244322 -0.16943105 0.1763164 0.2403517 0.32794437 -0.40965766 0.2607862 0.0589821 0.0542283 0.20637822 0.14157176 -0.30126432 -0.22857761 0.02058779 -0.20955344 0.078223504 -0.043646142 -0.06723714 -0.3826611 0.060512066 -0.1270077 0.090033695 -0.19923007 0.11513812 0.059198055 0.077452295 -0.060521778 -0.01983865 0.30217272 0.29859224 0.4543479 0.06913438 0.5198319 0.29701528 -0.050495803 -0.20921493 0.21476823 0.20057549 0.13922127 -0.3268644 -0.17854558 0.44728896 -0.35898256 -0.36764166 -0.32601535 -0.39663124 -0.07619181 0.08079683 0.13946523 -0.20919403 -0.16328272 0.028599491 0.13177827 0.11656797 0.3419982 0.08224951 0.035485137 -0.10955694 0.18874753 0.3648413 -0.16459781 -0.5034201 0.13236754 -0.14340554 -0.25617704 -0.12380775
64 0.23675339 -0.1416844 -0.13746984 -0.10640235 -0.09187188 0.37972772 0.1626124 0.13751046 0.28629634 0.013113682 0.008473295 -0.08767097 -0.20279278 -0.002916087 -0.21837507 -0.44252867 0.0935273 0.26921368 0.30150953 -0.38737202 0.45716745 0.010697754 -0.17343685 0.38521758 -0.016717272 -0.04501823 -0.20725133 -0.10869886 0.144444 0.02680524 -0.24733964 -0.13659376 -0.2444861 -0.077883385 -0.07554423 -0.025033895 -0.2227829 -0.057555187 -0.25263146 0.19381285 -0.20866448 -0.28328493 0.017068254 0.007631175 0.102651656 -0.10032877 0.14989576 0.43790135 0.061059855 -0.16169526 0.023170887 0.79513043 0.07555568 -0.3704283 -0.23554398 0.33199382 -0.22194868 -0.32299992 -0.5740373 -0.15023585 -0.06111737 0.2013651 0.15173577 0.029138831 -0.23351584 -0.022653807 0.22562619 0.26597288 0.031814005 0.53641903 0.24214615 -0.23601723 0.37805256 0.11373447 -0.20036055 -0.29433578 0.12062923 -0.12234495 -0.09302377 -0.20141518
42 0.34228468 -0.48305357 -0.1136225 0.06119316 0.035411716 0.1462537 0.09524991 0.17853872 -0.033038568 0.11350453 0.23204473 -0.17755839 -0.4344823 0.29803538 0.38244128 -0.21620454 0.14975634 0.21559216 0.33654657 -0.52608573 0.3372319 -0.10711886 -0.0630078 -0.078920715 0.030116726 -0.2361829 -0.25914007 0.021403044 -0.1389603 0.05433993 -0.3371653 0.06415637 -0.46252778 0.023537781 -0.1746147 0.15656339 -0.31915694 0.09823566 -0.02916485 0.011190643 -0.23405458 0.1402372 0.049235348 0.0220666 0.38449627 0.119234405 0.659043 0.14510566 -0.12250075 -0.41358167 -0.046559468 0.3268128 0.41544348 -0.42839906 -0.1416394 0.37024575 -0.3151228 -0.35410988 -0.1950625 -0.5636027 -0.2091998 0.048443638 0.019946514 -0.36574632 -0.2960172 0.22065309 0.49663177 0.30279842 0.15582149 0.35256213 0.2049866 0.18227035 0.31692743 0.23564605 -0.21566182 -0.32403234 -0.055468556 0.017326893 -0.25782597 -0.17443384
2 0.22266248 -0.11072211 0.0027751976 -0.48989806 -0.21301603 0.4088085 0.12197156 -0.08972588 0.04488296 0.2798268 -0.14415471 -0.27166662 -0.016337309 -0.19039042 0.08949422 -0.573474 0.14335003 0.29321086 0.45743385 -0.4093488 0.1791003 -0.13621765 -0.11129098 0.41947058 -0.107739925 -0.40666944 0.11387416 -0.12974145 -0.07124808 0.4825749 0.07871614 0.05228497 -0.28834367 -0.021861898 0.22687143 -0.14303921 -0.41813305 0.007090958 0.029612549 -0.04660891 -0.059633337 -0.07463699 -0.07515793 0.24224423 0.17511253 -0.022893673 0.26618716 -0.20376703 -0.34981996 -0.35922414 0.20223355 0.42639366 0.118160866 0.055721134 -0.1805452 0.4010196 -0.25697786 -0.41464788 -0.256895 -0.38923463 0.28065163 0.451802 -0.008659778 -0.29391605 -0.16591729 -0.08752781 -0.00986843 0.33252284 0.25633 0.4291182 0.20177355 0.15846176 0.29847613 -0.032120254 -0.14974909 -0.34897864 0.04142389 -0.028252712 -0.14417316 -0.77462375
21 0.24749547 -0.35823467 -0.58581126 0.18965226 -0.15654883 0.17928416 -0.04294236 0.0017342044 0.25129944 0.011235754 0.11599223 -0.32002297 0.089778826 0.527497 0.16307445 0.33911157 -0.120384455 0.2142264 -0.3148398 0.6035023 0.13503742 -0.15587671 -0.10232924 0.321704 0.2870422 -0.22039522 -0.18076298 -0.22826001 0.049622044 0.44541198 0.0139212 -0.17576651 -0.40054926 0.3211141 0.2873755 -0.3303632 0.07239493 0.25569052 -0.10868987 -0.0057625696 -0.2222254 -0.0724462 -0.10330413 -0.31372026 -0.19623995 -0.19896612 0.15646866 0.12856472 0.18441644 -0.2070776 -0.1847186 -0.11170116 0.23226687 -0.4714652 -0.46663693 0.33294865 -0.030446446 -0.010354394 -0.33310267 -0.29911855 0.23730886 -0.0032992037 0.50692 -0.042354796 0.2955865 0.24999659 -0.20544443 0.10416121 0.31142327 -0.045260195 -0.29702076 -0.26495892 0.27227494 -0.16623731 0.12932153 0.12682179 -0.123057105 -0.009275873 0.49192494 -0.09609768
81 0.10186367 0.1415979 0.22420782 0.33705878 -0.19719869 -0.14123324 -0.054115884 0.4614011 0.14494567 -0.04075107 0.2770896 0.51810837 -0.40778613 0.1413115 0.2665741 0.39193088 0.3196284 0.057113566 -0.116290115 0.113869414 0.42600992 -0.10705786 -0.3855657 -0.0078311 0.062990434 -0.28326383 0.15297562 -0.28204277 0.23751235 0.07897159 -0.12320693 -0.12029383 -0.2899691 0.12862097 0.024179043 -0.042822927 0.1135867 0.059074145 -0.22883585 -0.021061702 0.0020275638 0.17833216 0.041163836 -0.01969401 -0.16049612 -0.22539812 0.1358938 -0.23420843 0.45968375 -0.098221995 0.14511307 -0.19941723 -0.44925454 0.20382579 -0.3541968 -0.06274165 -0.5217764 0.023104345 -0.22965196 0.173838 -0.06800214 -0.055214148 -0.32135758 0.024164509 -0.058009226 0.45780832 -0.041010924 0.054396324 0.5118363 -0.13691491 0.06270629 0.20254007 0.23975804 -0.047042567 -0.113722935 0.4162871 0.09429086 0.026452117 0.09745006 -0.32813245
5 0.39903462 -0.08940739 -0.10760473 -0.43083403 -0.26431367 0.44816858 0.029041274 -0.15909591 0.107315004 0.19688782 -0.2507952 -0.29702097 -0.12493988 -0.08831031 0.12354201 -0.4734351 0.11624722 0.11074928 0.5182975 -0.3813444 0.21183205 -0.19517097 -0.044784304 0.3908345 -0.07838998 -0.5451793 -0.09629222 -0.07952539 -0.00499746 0.35693187 0.17552301 -0.12932563 -0.19653234 0.17056006 -0.04204955 -0.08237754 -0.3958957 -0.05396192 0.1682964 -0.024368893 -0.04974448 -0.07283357 0.008794462 0.14254172 0.08182837 0.14106168 0.4309846 -0.14591664 -0.33680063 -0.34954703 0.12377984 0.48220956 -0.022921612 -0.12761304 -0.18159887 0.3895657 -0.23228854 -0.2938994 -0.30375448 -0.3745011 0.39367342 0.40999034 0.07402192 -0.1589144 -0.07801932 -0.18696095 0.0629099 0.41822082 0.31625053 0.31872055 -0.036770366 0.10855686 0.22527057 0.12634632 -0.13304539 -0.268278 0.20120314 -0.13259056 -0.04066534 -0.5714889
79 0.20792186 0.26234975 0.21626803 0.22881302 -0.25971913 -0.31043443 -0.015328896 0.46993116 0.20383435 -0.13406236 0.16681685 0.5352704 -0.3437047 0.008507638 0.3058772 0.06683179 0.39968222 0.15637146 0.077995695 0.06610305 0.2513254 -0.13469286 -0.3292235 0.19366188 0.040226992 -0.3279359 0.23077546 -0.40036893 0.17170367 0.16918218 -0.37346855 -0.030198669 -0.5061398 -0.09231348 -0.012142804 -0.025084523 0.15402924 -0.037315853 -0.07994957 -0.06603265 0.030907677 0.08758655 -0.12316382 -0.038597852 -0.21804112 -0.03828679 0.061047282 -0.24942628 0.443271 -0.1221394 0.11707329 -0.13829057 -0.4332019 0.40266392 -0.3010348 0.029923594 -0.5767605 -0.11698057 -0.14431714 0.23524766 -0.13693523 0.13348943 -0.22864814 0.10553129 -0.19853178 0.397746 -0.050540186 0.005816044 0.37504235 -0.26724854 0.1283281 0.043772966 0.17177226 -0.10970944 0.2560248 0.49179384 0.13187326 0.14880902 -0.025026111 -0.4144145
113 0.108984634 0.07480119 0.27653646 0.38402846 -0.017877007 -0.062412214 0.29165432 0.058737148 0.17019124 0.112217985 -0.046026755 0.5413667 -0.51666355 -0.09191417 0.12833995 0.5402167 0.24240646 0.18013838 -0.26921424 0.02721413 0.48176607 0.005326447 0.09633658 0.059319522 0.10657118 -0.50199914 0.14236006 -0.15925038 0.39539406 0.21818614 -0.049330514 0.06765491 0.022671845 -0.079931706 0.050604664 -0.016450047 -0.32310674 0.30642697 -0.25451094 0.06910787 0.24166854 -0.26956725 0.28422865 0.22090891 -0.19045411 -0.16193473 0.08528351 -0.3581806 0.41862577 0.16523841 -0.16819282 0.009514345 -0.40151793 0.19696766 -0.477481 -0.014704836 0.19618715 0.22947367 -0.3645535 0.040820353 0.03427546 -0.29804778 0.013249295 -0.1017285 -0.17864041 0.16870171 -0.13062274 -0.2040396 0.21921009 -0.028798124 0.06594616 -0.004864349 0.072860956 -0.24386215 -0.25627697 0.33354712 -0.14268653 -0.17241845 0.22806719 -0.10574504
34 0.08450795 -0.29615214 -0.24534224 -0.0011126738 -0.14188932 0.20839757 0.08947152 -0.0061899396 0.09433911 0.2808413 0.11966926 -0.057491757 -0.31539908 0.21255171 0.2570272 -0.3465829 0.3358066 0.38506907 0.32146722 -0.41303802 0.16172555 0.0019911749 -0.20443766 0.05777156 -0.035727996 -0.28501102 -0.29395175 -0.087631874 -0.24404618 0.07768491 -0.2665679 0.020399403 -0.4048557 -0.091185905 -0.0702257 0.07412618 -0.46944898 0.062315185 0.15737692 -0.074972615 -0.20220055 -0.061102815 0.13341823 0.1807577 0.35505584 -0.100073166 0.4613064 0.19484624 -0.09515511 -0.18685527 0.10257735 0.27010623 0.20065479 -0.3118735 -0.23574366 0.38286582 -0.423457 -0.33383858 -0.16831492 -0.4606774 -0.05531217 0.21921593 -0.05899902 -0.38478446 -0.15448706 0.06455738 0.25893128 0.1282585 0.11174927 0.5016785 0.19391733 0.023334555 0.2511541 0.33410028 -0.0558145 -0.40767428 0.084616825 -0.04424774 -0.21633469 -0.61447257
51 0.1577841 0.22909409 0.17041308 0.12464909 -0.010545797 -0.3467281 0.0074696857 0.14546844 0.11064001 0.13826115 0.19060561 0.34409958 -0.29351446 -0.15551691 -0.28522223 -0.0036000526 0.3378048 0.33108908 -0.37757838 -0.14673683 0.21624984 -0.15747401 -0.12147892 -0.10723743 0.3226037 -0.50141346 -0.13397653 -0.35045898 0.36636707 0.044488106 -0.43745837 0.0013153688 -0.30497536 0.14160061 -0.15120792 0.0053245076 0.006841372 0.03626804 -0.10906555 0.08944763 0.18547359 -0.09509249 0.35710838 0.25345215 0.036645945 -0.16924593 0.55865973 -0.36770573 0.35199672 0.37291005 -0.32420674 -0.09335005 -0.32955804 0.29375693 -0.30647922 0.23444988 -0.2309667 -0.21464896 -0.1256795 0.08672693 0.12184017 -0.025629913 -0.36921993 -0.37211546 -0.35115215 0.45564643 0.2674282 -0.152442 0.3011792 -0.14826965 -0.055672817 -0.34875724 0.067538366 -0.16296892 -0.07208704 0.42060375 -0.038103558 0.1541637 -0.106277615 -0.16554227
55 0.08201376 0.45877713 0.09266667 0.34839162 -0.09783078 -0.4356205 -0.04440515 0.26751474 0.20761593 -0.0831336 -0.037516795 0.6264413 -0.36694303 -0.2988887 -0.096229695 0.10523112 0.2672148 0.19952157 -0.19713838 -0.05038526 0.21232651 -0.29734343 -0.21255894 -0.1704976 0.10482897 -0.466151 -0.0723957 -0.1744226 0.505989 -0.05897608 -0.45904335 -0.14285573 -0.32905692 0.096346416 0.0793734 -0.050425977 -0.09910136 0.027744427 -0.044537347 0.31771627 0.07637604 -0.09893941 0.41209045 0.32408267 -0.10896948 -0.018479854 0.47963086 -0.4386451 0.42703116 0.2322712 -0.13102776 -0.15145002 -0.2874146 0.17669642 -0.45564657 0.031251673 -0.12524357 -0.10107754 -0.26488766 0.16602238 0.2995407 -0.085812196 -0.24444398 -0.23272467 -0.31355762 0.24784061 0.13391343 -0.11780278 0.21380867 -0.16475183 -0.33667198 -0.27122703 0.1527147 -0.23217951 0.026933571 0.46344194 -0.20579283 0.26631632 -0.045664553 -0.3487128
15 0.26825303 0.40012828 0.1583729 0.11260926 0.034787845 0.1103033 -0.04083291 0.19297764 0.37361678 0.024016809 0.2115931 0.5314701 -0.38958785 -0.15688314 0.060367133 0.50306815 0.35622808 0.22964123 -0.12793636 0.22169119 0.510347 -0.46009165 -0.33724958 -0.2357975 0.17656416 -0.9178807 0.027525757 -0.3758415 0.16226973 0.13894607 -0.10857116 0.20438544 -0.035960753 0.05721078 0.09036618 0.09069845 -0.24227922 -0.12189474 -0.004809395 -0.06389996 0.039518673 0.01598922 0.24724436 -0.06621728 -0.27334103 -0.101281874 0.2652366 -0.28919446 0.21207559 0.420402 -0.20126575 -0.16695055 -0.48406228 0.34422818 -0.3276172 -0.08416828 -0.260374 0.17420964 -0.21859235 0.026344156 -0.044473734 0.13436852 -0.33383632 0.089235425 -0.05566118 0.2627232 0.030530073 -0.108338185 0.044514235 -0.14846821 0.08334283 -0.17437579 0.011675813 -0.5535078 0.039730404 0.5757348 0.115187906 -0.025058538 -0.23018888 -0.43183714
3 0.4012735 -0.131112 0.045483265 -0.4489525 -0.064300165 0.3969634 0.00014694125 -0.07448423 0.00026622013 0.14985055 -0.119034484 -0.29439235 -0.27378485 -0.20005564 0.20235088 -0.4620264 0.015587893 0.0627644 0.46159843 -0.5350411 0.34971407 -0.16085015 0.028239343 0.13528827 -0.19642355 -0.62321615 -0.1315508 -0.17380737 0.024223829 0.3719265 0.09844357 0.2049831 -0.10109524 0.36526224 0.0057949065 -0.038746167 -0.4735554 -0.13852665 0.087298706 -0.14617248 -0.13188797 -0.04137878 -0.085424274 0.026788523 -0.075454324 0.07557018 0.48828995 -0.26194468 -0.42637125 -0.29453662 0.18924128 0.43460515 -0.061936915 0.019416025 -0.015360973 0.26701394 -0.18253995 -0.33677253 -0.17945655 -0.26410887 0.31773856 0.48000124 -0.14256802 -0.23409607 -0.19982512 -0.06411785 0.14095457 0.37065634 0.23541999 0.39577213 0.09907144 0.28321797 0.20263487 -0.06591141 -0.28673396 -0.1227378 0.07159796 -0.074012674 -0.104935005 -0.49316415
72 0.3813068 -0.08625727 -0.1053796 0.0009623894 -0.14285582 0.33833304 0.030835751 0.13581426 0.36747673 -0.059416074 -0.2338931 0.0047620498 -0.2523463 0.04292712 -0.04759526 -0.25825575 -0.051737 0.16944899 0.26547572 -0.35693312 0.5136752 -0.102349535 -0.048924923 0.25581104 -0.13042971 -0.046100184 -0.14350386 -0.23955457 0.13865079 0.15183532 -0.20379901 -0.08082323 -0.13507488 0.08853635 -0.26661828 -0.05595283 -0.14439535 -0.15052441 -0.21421462 0.023912754 -0.23748843 -0.18001887 -0.21238247 -0.18337381 -0.016465196 -0.023521286 0.24702671 0.22563194 0.12138479 -0.3044371 0.13706677 0.8442162 0.043377887 -0.2920148 0.00031239988 0.22490416 -0.14629242 -0.29155096 -0.49572384 -0.18156293 0.052240368 0.1570045 0.175311 0.23143284 -0.23554991 -0.066815756 0.18923037 0.28194866 -0.06426388 0.54470575 0.014522148 -0.013320612 0.386075 0.18797852 -0.29622748 -0.2920019 0.15853266 -0.25234646 0.07553956 -0.093075775
109 0.011046328 0.26441044 0.18922384 0.4037407 -0.08171104 -0.19520153 0.31068808 0.1266761 0.2696329 -0.012431962 -0.17813915 0.6755732 -0.44741884 -0.13805379 0.1928154 0.2996224 0.18246824 0.2675031 -0.13110287 0.11336724 0.42547402 -0.010226264 0.034494046 0.11226095 -0.01068175 -0.41577312 0.15510435 -0.2124417 0.38368845 0.20900221 -0.20926851 0.121042356 -0.084210336 -0.26877934 0.21442644 0.031067975 -0.35476932 0.10425805 -0.22813639 0.03214188 0.21221372 -0.34989646 0.33150622 0.19710578 -0.12101316 -0.059574526 0.016864365 -0.35693187 0.41819158 0.06627701 0.020415597 -0.059326362 -0.3068156 0.37279102 -0.41777062 0.01293651 0.08175296 0.104671225 -0.38282183 0.020684564 0.046457667 -0.08556171 -0.011551459 0.011905371 -0.19650903 0.17002589 -0.03258029 -0.28871965 0.077607214 0.041998003 0.06714683 -0.014250171 0.1320522 -0.31138453 0.051963836 0.32456753 -0.24898137 -0.03572347 0.06780097 -0.2952112
71 0.27186733 -0.19449206 -0.109217584 0.066162564 -0.046553563 0.23597027 -0.034376025 0.080995195 0.1447174 -0.1583163 -0.16840468 -0.21140489 -0.30491385 -0.15396285 -0.016269391 -0.4220275 -0.069628246 0.3890868 0.32924256 -0.41574597 0.3298875 0.072123654 0.13977735 0.4042435 -0.05691328 -0.009208489 -0.15530223 -0.29618043 0.13305244 0.26735422 -0.35932702 0.004706981 -0.23379049 0.016796526 -0.051336393 -0.0039279303 -0.163367 -0.0049426234 -0.23485003 0.011050609 -0.2516165 -0.28761527 -0.17258984 -0.0815792 -0.013480465 -0.091072425 0.16115263 0.24489674 0.042527054 -0.2940626 0.21666105 0.7671801 0.19100231 -0.16852878 0.17166592 0.3994697 -0.13423833 -0.49102864 -0.4166438 -0.25208837 -0.19678761 0.26111403 0.22706544 0.20443414 -0.39609894 0.16482799 0.23816977 0.17493232 -0.10886442 0.4926362 0.096367426 -0.22580096 0.33731675 0.04112865 -0.10973691 -0.18201761 0.11212907 -0.10505479 -0.002018543 -0.048580714
59 0.21217392 -0.35409486 -0.22850999 0.17713316 0.20919517 -0.17194504 -0.36893156 -0.2610173 0.02666699 -0.109658934 0.06320826 -0.1946487 -0.19576797 -0.018307742 0.19835956 0.3384983 0.07399422 0.46827435 0.09032219 -0.034637917 0.0637425 -0.14979023 0.06746126 0.4246726 0.08484052 0.016510617 -0.03057112 -0.04118764 -0.15288293 0.56733054 -0.16404241 -0.11785536 -0.28372917 0.36278152 0.45952123 -0.06941867 0.07485373 0.3465511 0.05712703 -0.23521699 0.1481006 0.09625016 -0.07954332 0.31793773 0.083805636 -0.41204098 0.3773864 -0.123228244 -0.06062642 -0.02725828 0.17723867 -0.1982619 0.31989548 -0.07408042 0.096905574 0.25290832 -0.35176924 -0.19209683 0.008140078 -0.16960545 -0.26210266 -0.06780079 0.40147993 -0.13714252 -0.048841164 0.07945156 -0.031394288 0.18496779 0.38321292 -0.12712511 -0.18873192 -0.51032853 0.07758258 -0.22341864 0.17068231 0.013355853 0.094819136 0.012701094 0.32287133 -0.17902714
107 0.408965 -0.16709326 0.11952199 0.3292609 -0.038965605 -0.085279584 0.093429886 0.058183897 -0.16966133 0.16103394 -0.005154841 -0.09550525 -0.37109163 -0.13269882 0.28707466 0.5177532 -0.09288284 0.1900884 0.010878997 -0.17046864 0.37409532 0.004874404 0.3318556 -0.0514022 -0.07390317 -0.4106018 -0.12748687 -0.101646915 0.13829789 0.2846846 0.1212697 0.05681308 -0.061811674 0.39631104 0.08308904 0.006576454 -0.26781118 0.4920311 -0.095623896 -0.13972701 0.069802724 -0.047330473 -0.009670075 -0.012992609 -0.35998192 -0.12076261 0.15029669 -0.18325591 0.09986238 -0.11726132 -0.10426964 -0.005807481 -0.030830381 0.09788022 -0.17172322 0.028238123 0.24523458 0.18724756 -0.11154537 -0.096007645 -0.036897577 -0.21417119 0.12611175 0.14373334 -0.14403088 0.2730673 -0.0990962 0.14904691 0.119446196 -0.088688575 -0.010149736 0.043536507 0.14072281 -0.21100625 -0.14610922 0.2120302 0.0041670725 -0.3428666 0.37422267 0.10745528
9 0.4692985 -0.1288346 0.03307469 -0.35619554 -0.100298055 0.39244783 0.09035659 -0.1345862 0.36981347 0.21878606 -0.14738281 -0.25109023 0.020804025 -0.16620885 0.144047 -0.49136585 0.07280219 0.3570502 0.25535017 -0.43920204 0.17166397 -0.19788781 -0.00019266507 0.1723744 -0.06328413 -0.43035966 -0.19477573 -0.20491661 0.032249197 0.39063045 -0.16276072 0.12381139 -0.19259013 0.122585334 -0.06262306 -0.17197399 -0.42356324 -0.060334425 -0.054266468 -0.008627428 -0.22057045 -0.0876492 -0.12107679 -0.17382433 0.21561162 0.1842206 0.35099292 -0.3951246 -0.38622403 -0.3289448 -0.04001131 0.5633083 0.19163692 -0.08337946 -0.093064226 0.3298208 -0.07374027 -0.4438677 -0.18664747 -0.5256408 0.20396128 0.50011545 0.05115891 -0.19328189 -0.21797618 0.13980304 0.16618417 0.3189736 -0.031423483 0.57166284 0.17018493 0.06532682 0.12909232 0.033341072 -0.2951565 -0.16752943 0.035919607 -0.103778556 -0.049647793 -0.45751458
48 0.1012176 0.42870945 0.0518407 0.2995446 -0.26401585 -0.33891973 -0.06258011 0.29744157 0.3970144 -0.0612731 -0.0557786 0.7026829 -0.2736364 -0.19896124 -0.23715837 0.14765856 0.36733696 0.2706468 -0.21966533 -0.08337 0.39587286 -0.21087606 -0.25955096 -0.17762591 0.039465 -0.3951269 0.011340151 -0.2696388 0.49792776 0.11596654 -0.49378547 -0.15762448 -0.27010307 -0.12371684 -0.1243878 0.024750566 -0.02979665 -0.06549336 -0.07574987 0.24944007 0.19806232 -0.22029586 0.48448896 0.21319726 -0.019282766 -0.092041805 0.537167 -0.16020887 0.5761153 0.32089064 -0.22876394 -0.071465075 -0.40836045 0.15085553 -0.55090904 0.07764802 -0.24395277 -0.061365463 -0.37937838 0.17458814 0.16377597 -0.16836646 -0.15235122 -0.19101213 -0.33045432 0.28404364 0.25487375 -0.10052567 0.24525547 -0.10225601 -0.24705385 -0.29415724 0.13054064 -0.1195161 0.062983245 0.51233464 -0.17514266 0.07404406 -0.06227302 -0.19887793
58 0.13143696 -0.26621404 -0.26236406 0.20471382 0.11811347 -0.12595315 -0.471296 -0.05183444 -0.15912536 -0.25426826 -0.040600196 -0.21541522 0.008561996 -0.19701684 0.05979926 0.09705883 -0.12441993 0.32783312 -0.048159316 -0.061411433 0.03125519 -0.2741596 0.04120463 0.081236586 0.12324539 0.015455634 -0.05839382 -0.037652537 0.09649688 0.6037562 -0.22038534 -0.03904834 -0.2513646 0.42193145 0.401948 -0.11674134 0.068538055 0.33425897 -0.16553745 0.17151704 -0.07797248 0.14719494 0.028071407 0.20550728 0.053266607 -0.16921562 0.46639776 -0.07981155 0.08070044 -0.034434285 0.015242782 -0.14922313 0.50609106 -0.14718056 -0.18565458 0.23104708 0.041803773 -0.25041336 -0.1878924 -0.3909216 -0.07062933 -0.106654346 0.4296822 -0.17910184 -0.107863486 0.24822837 -0.020821352 0.27634665 0.34763524 -0.21052258 -0.47885048 -0.22903523 0.2042713 -0.39606825 0.0076861107 0.1720853 -0.21147256 0.24466014 0.1916821 0.101734854
84 0.18313393 0.32791454 0.15571223 0.29400095 -0.30846867 -0.18693937 -0.09407977 0.38789463 0.12066183 -0.13221872 0.08594301 0.62102175 -0.43152425 0.103115454 0.16591653 0.11307847 0.30560613 0.08810493 -0.09780602 0.28293312 0.22416332 -0.052229196 -0.41549495 0.16980554 -0.095556825 -0.21495976 0.27426913 -0.5617444 0.37038457 0.3164404 -0.43731725 -0.06827361 -0.24499507 -0.16478822 -0.09875872 -0.023618845 0.024920862 0.050560657 -0.24614793 -0.24393055 0.07347252 -0.057216033 0.059340198 -0.052320268 -0.22200754 -0.13359189 0.038587127 -0.2200697 0.48832664 0.0040975553 0.11298096 -0.18489565 -0.5734761 0.38449836 -0.10367487 -0.03328936 -0.6010298 -0.23500575 -0.12119987 0.03843937 -0.3027242 0.20550974 -0.1700872 0.20599441 -0.24601431 0.6162618 0.013910816 -0.19764592 0.45734403 -0.13501032 -0.19997431 -0.054550458 0.2028794 -0.018269382 0.27591115 0.5903976 0.11320362 0.11655186 0.04939173 -0.4239524
29 -0.010590831 -0.43267453 -0.44463712 0.16774507 0.16962259 0.12617064 0.036135703 -0.2775887 0.3171887 -0.20665187 -0.1122735 -0.024484744 -0.25060725 0.65287083 0.40942356 0.04514326 -0.29275158 -0.16257526 -0.16289309 0.34322312 0.3653888 -0.53134 -0.44758216 0.313229 0.1368313 0.03871695 -0.03325665 0.026885906 0.23149115 0.40783033 -0.24909686 0.25605503 -0.21683049 0.16321662 0.15352516 -0.4389622 -0.078363955 -0.08416297 -0.22980751 -0.094347976 -0.1660132 -0.050480254 -0.4145115 0.06620258 -0.20789239 -0.11631955 0.36643818 -0.010717482 0.30205604 -0.11468994 -0.06565105 0.14503078 0.4197841 -0.38800395 -0.4447577 0.025986994 -0.03468493 0.08653642 -0.2962475 -0.301045 0.09617848 0.093434006 0.5508483 -0.1616343 0.24505256 -0.18711954 -0.033389494 0.099465005 0.36326492 -0.17441204 -0.3720634 0.05729379 0.2650601 -0.4075388 0.08220755 0.046286657 -0.24551494 0.27068445 0.3597502 -0.15481271
41 0.334822 -0.41515377 -0.10022329 0.13777818 -0.007070472 0.1366505 0.0045188554 -0.029805848 0.012469355 0.1490156 0.09911983 -0.14636171 -0.20765698 0.17859225 0.32101816 -0.35699016 0.19279626 0.44570127 0.18359086 -0.51370764 0.20632665 -0.045110043 0.19526504 0.0753872 0.09035048 -0.1597447 -0.3125215 -0.08957621 -0.1581226 0.2865971 -0.35441133 -0.044396102 -0.31647336 0.027758937 -0.091246635 0.055727027 -0.3218391 0.19629923 -0.022949807 0.03579264 -0.23106879 0.020359354 0.20632774 -0.056950107 0.44775993 0.10502297 0.5443638 -0.0067148167 -0.20399627 -0.34140792 -0.078702524 0.42255074 0.46906886 -0.23962516 -0.08222882 0.41526413 -0.22679916 -0.35787052 -0.27931154 -0.44049639 -0.17716135 0.18889672 0.134237 -0.23333183 -0.3223839 0.2480125 0.41627175 0.31539893 0.09402852 0.3740052 0.27204472 0.10311394 0.14254011 0.16897139 -0.10483901 -0.19505624 -0.101413764 -0.042786017 -0.06943661 -0.099568695
73 0.4001106 -0.17026992 -0.22234106 0.19932283 0.06857693 0.15164539 -0.16998412 0.07231467 0.05066097 -0.1708315 0.043265138 -0.2927268 -0.16937143 -0.060463954 0.13131714 -0.101123095 -0.22208352 0.22876471 0.336835 -0.25380394 0.39264435 -0.15604489 0.027690055 0.42022243 0.1642808 -0.049913187 -0.17501155 -0.05135102 0.110746294 0.33640775 -0.20319018 0.010103104 -0.23112772 0.41868183 0.15353043 -0.35376546 0.079042815 0.26505154 -0.079547495 0.2652455 -0.22247735 -0.16293052 -0.3276023 0.09239794 -0.12455733 0.123153314 0.0351525 0.3639566 0.028380167 -0.20069095 -0.06925191 0.4860019 0.30905113 -0.12488541 -0.1313462 0.2648844 0.096375495 -0.15393981 -0.49061313 0.069163956 -0.16779347 0.11146417 0.2695742 0.29893702 -0.19989155 0.08568763 0.038134437 0.43875167 -0.032017272 -0.15534669 0.16656168 -0.28476715 0.16722713 -0.2163063 -0.03505344 -0.047721714 0.07786632 -0.15787233 0.13911597 0.097666115
53 0.10613327 0.39653242 0.2101253 0.1025706 -0.11035007 -0.25669545 0.039983943 0.16280471 0.35906222 -0.11948062 -0.12488732 0.533351 -0.19115718 -0.2673654 -0.23921812 0.09643958 0.32215142 0.39922035 -0.29181126 0.0060002375 0.13572507 -0.2815287 -0.24977754 -0.038840733 0.05300336 -0.36177173 0.17038909 -0.4287555 0.40433243 0.20777668 -0.53809124 0.045854326 -0.095220014 -0.21829344 -0.23959903 0.030450108 0.02146349 -0.0554726 -0.07309316 0.114344984 0.19489217 -0.16011587 0.3262347 0.26801145 -0.015757404 0.0029066822 0.45671377 -0.47722694 0.44272816 0.39696077 -0.23777671 0.0072531058 -0.31100014 0.34643018 -0.1827826 0.20068385 -0.24704538 -0.32273197 -0.016391164 -0.065805435 0.19231899 -0.068947546 -0.10886938 -0.25533283 -0.47930253 0.319844 0.24829601 -0.35000414 0.21239139 -0.18961352 -0.29133892 -0.42636195 0.02176165 -0.19942269 -0.0038732376 0.43282312 -0.13677989 0.16290818 -0.034500767 -0.34946483
114 0.07467162 0.19020312 0.116996914 0.23511727 -0.14884017 -0.07414297 0.32387027 0.025481682 0.20230621 -0.020323293 -0.19330963 0.4315063 -0.38563812 -0.110222585 0.08721369 0.24318515 0.05155514 0.29908925 -0.22692986 0.20563456 0.32180738 -0.047035582 -0.06363879 -0.06495697 -0.13311331 -0.32858106 0.2316779 -0.3864301 0.491717 0.37301356 -0.37053424 0.22212493 0.17118411 -0.39415765 -0.07291932 0.05960186 -0.39737833 0.012954123 -0.19850674 -0.13518253 0.18278795 -0.4219598 0.18881948 0.07245594 -0.3043019 -0.10508607 0.08878588 -0.18756564 0.43796998 0.24169457 -0.25654504 0.0723915 -0.2700677 0.2762446 -0.11471197 0.053108376 0.1306348 -0.014997672 -0.1429201 -0.29789513 -0.14660397 -0.009275517 0.09410714 -0.0040747835 -0.2938164 0.34151864 0.16246282 -0.41075248 0.044098657 -0.0066605783 -0.18873876 -0.14132665 0.12900917 -0.2971652 0.17239904 0.49504998 -0.23010412 -0.013766121 0.1354405 -0.2458901
17 0.26259276 0.47191676 0.046125937 0.12241867 0.101913854 0.00910093 -0.13071325 0.13945615 0.46018377 -0.20727237 0.1734545 0.42372012 -0.4435367 -0.25551787 -0.0094099585 0.42930603 0.34307444 0.42197043 -0.0019393378 0.20197497 0.38969547 -0.35605028 -0.42449778 -0.07335647 0.032759212 -0.6836794 0.032639924 -0.4357318 0.16368754 0.16449697 -0.3930336 0.23097382 -0.06485065 -0.03933937 0.10808862 0.12741204 -0.19858803 -0.15174307 0.03908591 -0.111614384 0.10571613 -0.1412991 0.20045413 0.1309949 -0.27100286 -0.1289563 0.10900378 -0.1690216 0.2321505 0.4785996 -0.09686577 -0.102804765 -0.38773587 0.3508601 -0.052537594 -0.044165973 -0.3142496 -0.046972554 -0.08921574 -0.013488437 -0.23148693 0.17511258 -0.12977478 0.19237651 -0.1507273 0.2733493 0.08970715 -0.31432313 -0.1530752 -0.063890666 -0.0134858675 -0.5330825 -0.0011823133 -0.5406422 0.15850316 0.55448264 0.08564632 0.0375318 -0.2548321 -0.48295268
68 0.14259402 0.15513882 -0.23160078 -0.0968168 0.13929011 0.45700482 -0.11405253 0.32875 0.118654124 0.1308923 0.2273874 0.15146618 -0.074472524 0.18764251 -0.3471332 0.24967991 -0.066121325 0.07594316 -0.13438833 0.4042492 0.31386763 -0.17498341 -0.5676839 0.6546086 0.09277831 0.030882427 0.06715202 -0.0067274957 -0.016847912 0.19485125 0.039623257 -0.13830467 -0.2084233 0.27073145 0.30726725 -0.24838623 0.15418296 0.32188988 -0.3210192 -0.052021526 -0.17224485 0.0994616 -0.17951015 -0.017316118 0.041138347 -0.33462977 -0.034603044 0.24892806 0.10254347 -0.19244543 0.07867183 0.055703226 0.014158839 -0.22646603 -0.03757301 0.06444448 -0.38206568 -0.3007037 -0.33316928 0.076488756 0.015987217 -0.047103617 0.121396735 0.33363461 -0.069925874 -0.004548221 0.039535955 0.07860845 0.32385245 0.020936951 0.035169337 -0.40839234 0.272864 -0.0062700966 -0.13454352 -0.31555438 0.11117048 -0.08331695 0.050869554 -0.38990006
100 0.3805232 -0.17662282 -0.0077752434 -0.14137234 -0.09544144 0.51645565 0.3354365 0.15004666 -0.04255897 0.041898068 -0.035742585 -0.3996694 -0.3289675 0.013483359 0.19132163 -0.24576975 0.17709932 0.36871526 0.17111433 -0.37767166 0.19095491 -0.16890131 -0.0922791 0.027278922 -0.39165244 -0.48279575 -0.080325656 -0.1006081 0.047706448 0.14741766 -0.08281843 0.058764532 0.0071141943 -0.07712672 -0.22413163 -0.039696466 -0.4258471 0.12750155 0.027342323 -0.030620134 -0.42674145 -0.22153836 0.1620317 -0.2728029 -0.11077598 0.2303368 0.37336928 0.11107784 -0.3792835 -0.3611564 -0.32042435 0.4033745 0.21997176 -0.21250951 -0.09397204 0.39278984 -0.027551798 -0.24599685 0.013790898 -0.32204252 -0.018370908 0.129342 0.3050519 -0.021069407 -0.32081762 0.20279527 0.2531906 0.14549747 -0.1540992 0.21388684 0.34663934 0.04382188 0.040839214 -0.14032766 -0.1652232 -0.02711483 -0.17276704 -0.015392423 0.01819231 -0.31003112
57 0.037714493 -0.28479093 -0.36082783 0.13284534 -0.09874263 0.016670788 -0.12858577 -0.048798174 0.12337268 -0.072551355 -0.013285946 -0.1358444 -9.357167e-05 -0.010252903 0.06574155 0.41353357 0.050963037 0.4910268 -0.06275014 0.13685347 0.007302734 -0.074991114 -0.013087272 0.35520855 0.08045589 -0.03810414 0.19250897 0.0051842905 0.03014925 0.41443095 -0.11027469 -0.20787063 -0.30680147 0.09283844 0.4194242 -0.25584897 0.19782881 0.3484985 0.13661677 0.14126389 -0.072866134 -0.064546205 0.01445764 0.27791676 0.16763163 -0.28118196 0.34818804 0.031552397 0.16151004 0.06534188 0.11436053 -0.20078005 0.24133122 -0.40391693 -0.14355995 0.43174806 -0.27466893 -0.3134479 0.059397534 -0.1850449 0.12772347 -0.27655262 0.34056792 -0.37150842 -0.10982178 0.035688017 -0.09656242 0.01216445 0.4454584 -0.1990659 -0.21693966 -0.5427276 0.09678625 0.0104522025 0.16652982 -0.13195828 -0.0024355107 0.027591772 0.34742185 -0.3661588
45 0.34058797 -0.39430702 0.03222517 0.23881862 0.31271702 -0.30596426 -0.08444931 -0.09843917 0.0028919817 -0.007568921 0.17388824 -0.23129602 -0.16255385 -0.061344735 0.24327932 0.27596477 -0.080881886 0.42957073 -0.08220534 -0.30399767 0.18498138 -0.16930659 0.2517033 0.09457888 0.3162886 -0.22154723 -0.16032404 -0.10817155 -0.016746296 0.33292627 -0.3255409 0.13193096 -0.3364993 0.49627733 0.15178469 -0.14929727 0.13211884 0.29940185 -0.023899974 -0.07497957 -0.0070335763 0.12803106 -0.28816268 0.08225502 -0.05001662 -0.21677378 0.36504543 -0.30091497 0.030048998 -0.08504394 -0.023333203 -0.047883164 0.3760021 0.0019286379 0.14958724 0.31758085 -0.01867418 -0.17308293 -0.04135722 -0.07919345 -0.19300543 -0.12934229 0.045075864 -0.19833092 -0.1869101 0.27177677 0.07845432 0.12774241 0.11404495 -0.134099 0.0759951 -0.3182072 0.06947029 -0.21970516 -0.039129477 0.07743717 0.033298478 -0.090006456 0.18309957 0.1317482
102 0.32136536 -0.10765171 -0.2173207 0.27762717 0.13056129 0.22904278 0.017492285 0.015570016 -0.4224173 -0.068638355 0.003734848 -0.33058712 -0.41070345 0.023651324 0.32657465 -0.11202722 0.085852236 0.35022083 0.028776975 0.041781463 -0.08977725 0.12446253 0.28226265 0.49118087 -0.08235907 -0.37608004 -0.1972805 -0.098303504 -0.060042273 0.31736416 0.004928386 -0.08827234 -0.10976574 0.26398066 0.27149338 -0.035580724 -0.3492633 0.53995746 -0.0119102355 0.037936877 -0.15658727 -0.2980381 0.31324494 0.14690667 -0.2734177 0.04139838 -0.036973495 0.037524767 -0.2674449 -0.38691142 -0.14448717 0.1039226 0.24188815 0.0154645005 -0.055199385 0.40857494 0.16316138 -0.03878653 -0.28375548 -0.08679038 -0.118331306 0.07746595 0.45648235 0.11551537 -0.13526325 0.112625636 -0.06866434 0.037700444 0.075131305 -0.039722618 0.16630198 -0.12641056 0.002811346 -0.2584398 -0.0011903231 0.15784372 -0.3679274 0.1406947 0.3570875 -0.12179233
69 0.3977511 0.087697126 -0.29790637 0.3596943 0.1187484 0.11386822 -0.11765248 0.08254303 -0.043139655 0.010042996 -0.09017931 0.11060135 -0.48247504 0.3885267 -0.0016238594 -0.07706037 0.06757456 -0.00027009542 0.08646136 0.14184795 0.045819737 -0.044718437 -0.03600964 0.9000608 -0.004017903 -0.117485434 -0.24391171 -0.16938064 -0.070454404 0.119050995 -0.07810976 -0.2586212 -0.3049347 0.4165682 -0.024490114 -0.33270347 0.16059038 0.39410788 -0.01150904 0.065234 -0.13422346 -0.23573327 -0.0011137747 0.2061877 -0.10558157 0.055725303 0.009155345 0.16655608 0.057698492 -0.3019253 0.032632027 0.31128532 -0.14762491 -0.090579145 -0.13710414 0.21067028 -0.26173633 -0.19030029 -0.4597391 0.490022 0.16045544 0.069485806 0.4153169 0.30358824 -0.10722967 -0.29935122 -0.22575685 0.056417096 0.1215448 -0.17416012 0.017814744 -0.47117695 0.022238169 0.1121773 -0.07562087 -0.18177648 -0.022479966 -0.061400775 0.41776708 -0.23671198
11 0.27447197 0.24563798 0.08643457 -0.073811494 0.2673207 0.2936018 -0.15135126 -0.035315525 0.40335482 -0.028898496 0.304493 0.11965057 -0.30975533 -0.15818514 -0.14632876 0.359237 0.22490564 0.29226944 -0.21485041 0.12974353 0.4579151 -0.34520048 -0.3929688 -0.13557957 0.116434634 -0.66125274 -0.2868354 -0.36493078 0.15555109 0.043789893 -0.09595307 0.26635417 0.1449941 0.39445886 -0.03809685 -0.07052802 -0.13128933 -0.13090469 -0.07618197 -0.14553086 -0.038379654 -0.027351212 0.12937471 -0.0873893 -0.3068424 -0.2623587 0.12689455 -0.2378583 -0.0013842108 0.49037486 -0.18604058 0.034946542 -0.41670942 0.2625822 -0.12292004 -0.10896499 -0.22595443 0.10027938 -0.060956337 0.039065246 -0.0438186 0.27865863 -0.25545326 0.13804875 0.009139739 0.2829925 0.023858929 -0.04232669 -0.006085096 0.050275102 0.17136389 -0.38126233 -0.10436806 -0.48991027 -0.29728326 0.45386165 0.15320276 -0.09227206 -0.09637989 -0.34041527
