120 80
0 0.175495545 -0.13603621525 -0.21382402 -0.0932276785 0.0283492988 0.368087585 -0.061545154000000005 -0.086681277 0.060018647499999994 0.137501005 0.010187097499999992 -0.0913116535 -0.32995670325 0.157483978 0.06925697049999999 -0.13499467525 0.04433102725 0.044425660075 0.23164856500000003 -0.17282190499999997 0.31237679 -0.13555859425 -0.16821672124999998 0.368456155 -0.008771485999999995 -0.3541391425 -0.20424699999999998 0.0239534805 -0.09452356525 0.1879968425 0.0563650235 -0.009959884832499998 -0.15550461649999997 0.24642143 0.009973354375000002 -0.09353837244999999 -0.319071765 0.0644540475 0.0676804395 -0.08854425099999999 -0.07549885475 -0.0776838575 0.038004276749999996 0.19711176 0.07436649350000002 -0.0583940025 0.340765965 0.13772386 -0.134445625 -0.11986272337500001 0.06102504375000001 0.32906350749999996 0.04146415175 -0.204075868 -0.1475135325 0.197147505 -0.2213867975 -0.19280266000000001 -0.33080565749999996 -0.12897237250000002 0.15270838999999997 0.18761555625 0.1284937975 -0.04745808450000002 -0.056349855000000004 -0.20262072600000003 0.11309827750000001 0.19153072625 0.223569095 0.15351905125 0.030296938750000002 -0.072473482 0.14164427 0.030161435000000007 -0.170015994 -0.264919435 0.08249302250000001 -0.10659077100000001 -0.014104914999999999 -0.347950985
1 0.24091149750000002 -0.19459530674999997 -0.109666894 -0.10582421 -0.05657500975 0.3758902475 0.022141687 0.03961874074999999 0.07542040500000001 0.0005959945000000026 -0.06681171 -0.206748835 -0.3095534175 -0.046914412499999995 0.1270786075 -0.215369035 0.030792132249999996 0.191364445 0.297569275 -0.33808843000000005 0.3414731825 -0.1051325585 -0.052738704775 0.1467937385 -0.1304103875 -0.30320778 -0.09109867025 -0.02075878275 0.0762104845 0.2193858375 -0.050704225000000006 0.022670788650000002 -0.14494286 0.0553789155 -0.025518657249999997 -0.006410493499999998 -0.3302676325 -0.0009870786000000021 -0.07157648825 0.02002053025 -0.16680617749999999 -0.10656785125 0.069877629 0.03184965375 0.1338564025 0.07951943519999999 0.3435122725 0.0837132425 -0.152867825 -0.30015319 0.08203735000000001 0.3773115675 0.12933898435000002 -0.206429905 -0.1322027675 0.297907105 -0.11306076999999999 -0.2763427 -0.2888506375 -0.3804198125 0.018057292500000002 0.16312403175 0.14119179495 -0.03971790424999999 -0.19722590499999998 0.063588867 0.17788287275 0.23699883249999998 0.08732430775 0.31853443149999994 0.04327708025 0.03987767749999999 0.235291135 0.021196377500000002 -0.2365798925 -0.217851425 0.003264728999999994 -0.07725764575 -0.14114522675000002 -0.25642523455
2 0.07907194499999999 -0.20178612999999998 -0.1203091231 -0.1796350485 -0.14549143650000002 0.4458059175 0.10286448100000001 0.07366835999999999 0.0652127235 0.07254985624999999 -0.0799201505 -0.142404616 -0.1417779395 0.006617359999999996 0.050500142500000005 -0.25301231075 0.10910801499999999 0.3008065725 0.23977809499999997 -0.19204239375 0.23604820499999998 -0.1429053575 -0.15119016149999998 0.29964081500000006 -0.11051078624999999 -0.230389695 0.0553159425 -0.02894867875 -0.06223531749999999 0.24956038075 0.03350843575 -0.05014913500000001 -0.183173755 -0.152551667 0.1220298365 -0.01822801475 -0.31346243500000004 -0.009234004000000006 -0.11480538550000001 0.02353071175 -0.18117239925 -0.07521474765 0.0900571045 0.0350047025 0.21122272824999996 -0.0294789691 0.300322895 0.137792635 -0.14305840525 -0.247304075 0.11259413125000002 0.35532728750000003 0.2029383415 -0.228144269 -0.2053144475 0.3950694925 -0.25827958500000003 -0.31533491999999996 -0.27663300749999997 -0.4358334475000001 0.052152967999999994 0.1548644235 0.20788618050000002 -0.117696735 -0.15117281249999998 -0.051826212499999996 0.1319913575 0.223333522 0.213526295 0.29894902 0.15911466400000002 0.026766988750000005 0.2843039275 -0.003311539500000002 -0.09342275925 -0.3346587775 -0.013700820000000002 0.00043704074999999926 -0.0967597435 -0.4315298825
3 0.321655855 -0.24524842500000002 -0.01924975175 -0.1322520915 0.05525635875 0.29719767 0.0383856088125 -0.027660645499999994 0.0021150075324999976 0.096583745 -0.07310765425 -0.1513067635 -0.423151765 0.020695535 0.13620116349999997 -0.20325624325 -0.07027464525 0.01131065325 0.2304010925 -0.44630384999999995 0.400855985 -0.1352442095 0.007581126000000002 0.13505829375 -0.141331964 -0.34105038075 -0.13244220250000002 -0.04714605325 0.12626217975 0.2467050275 -0.08008523249999999 0.08241435225 -0.06712652249999998 0.2698917875 -0.138023742625 -0.009190754125 -0.37966787750000003 0.014662460749999998 -0.0991447585 -0.14512803400000002 -0.11197647624999998 -0.0658831685 -0.050310060999999996 0.0157590165 0.021067073999999998 -0.0002365184999999978 0.49938805750000004 -0.0710071895 -0.16360795275 -0.280467185 0.07371772250000001 0.409482075 0.06951543475 -0.20290501125 0.04941075674999999 0.2120322 -0.11533585115000002 -0.287696 -0.22588321 -0.27834976725 0.031527935 0.15705714750000002 0.048834238749999995 -0.12002223125000001 -0.2350821675 0.00804042424999999 0.2775403225 0.228026493125 0.207099405 0.3215040875 -0.022376668250000002 0.13703198349999998 0.2302040025 0.06277202525 -0.2949805375 -0.1582662935 0.04793303499999999 -0.11228655725 -0.010981378750000007 -0.1448561275
4 0.2037474275 -0.16297557000000001 -0.1252542905 -0.13264082845000003 -0.11617859250000001 0.42191805000000004 0.1362006825 0.003552890100000001 0.1006544125 0.15858727175 -0.034875588750000006 -0.14910212425 -0.24587892 0.05415288074999999 0.072451759 -0.38905501000000003 0.23046495499999997 0.3519756625 0.297855905 -0.3412818425 0.24192836250000002 -0.127915115275 -0.1728711375 0.19873838000000002 -0.1212473445 -0.31847380000000003 -0.22865819000000004 -0.07601210700000001 -0.07910861575 0.11021976324999999 -0.09088750250000001 -0.064985863325 -0.16624690749999999 -0.02879135325 -0.051077057499999995 -0.03575207525 -0.378145155 0.0173044095 0.011577931500000006 0.04718019525 -0.269717115 -0.12760793874999998 0.163551646 0.0034602457500000003 0.156535094 0.008079479999999997 0.36019940749999996 0.14752428 -0.21265129625 -0.2160258875 0.007923604249999994 0.47027917750000003 0.1213866725 -0.238215016 -0.21092489749999999 0.37531833000000003 -0.274770635 -0.2595082825 -0.27786539499999996 -0.34488742 0.039737232500000004 0.25526014975 0.07944839509999999 -0.11185782475000002 -0.18236415875 -0.012151382000000002 0.18521294 0.2703634625 0.08275481374999999 0.43444529 0.25123969 -0.035037879 0.18522018125 0.0942691425 -0.159069765 -0.2886667125 0.027284959999999997 -0.06600890050000001 -0.13660859250000001 -0.5029576874999999
5 0.2699221 -0.188698523 -0.1890371075 -0.005387927499999997 -0.11878003625 0.34904103 0.008915958500000001 0.02568406 -0.15937751725 0.04638858174999999 -0.078984386 -0.190722494 -0.44012193250000003 0.09728275125 0.18509153 -0.33095210250000007 0.07022236500000001 0.119741665 0.3785583975 -0.2843988275 0.25796479250000004 -0.0037754682499999987 0.002434930775000001 0.381536815 -0.07650832 -0.39359255000000004 -0.11768751 -0.03284986250000001 -0.02879119300000001 0.1788798585 0.0547073935 -0.09558836250000001 -0.21480132174999997 0.05948477850000001 -0.0674272225 -0.015730743749999998 -0.32355226 0.04634766 0.015908235250000007 0.02047003325 -0.145917317 -0.164942945 0.16401322755 0.11049640475000001 0.10016037549999998 0.12599772375 0.33701089 0.23963678500000002 -0.165673279 -0.3164403375 0.13605839399999997 0.36574263999999995 0.025688967 -0.191532665 -0.15686360175 0.3954055575 -0.21129873524999998 -0.29081133249999996 -0.3690266525 -0.272768005 0.0377627915 0.20867864625 0.19266443249999998 0.017837664999999985 -0.178256645 -0.051108192499999996 0.09497561125 0.2255181575 0.26326374249999995 0.1359554725 0.06258822025 0.0028868160000000004 0.21013219375000003 0.15129539055 -0.0868385825 -0.30355562 0.080775885 -0.0866315835 -0.08602016375 -0.27098827
6 0.19458739249999998 -0.21190957249999998 -0.13714434125 -0.09328233824999999 -0.0627763265 0.33595595749999996 0.10098762025 -0.0723441505 0.08578304674999998 0.0008778390000000087 -0.123227865 -0.15590108000000003 -0.33351596 0.046001605 0.16206535275 -0.35636694750000003 0.0346500565 0.1777522 0.27027002 -0.369157355 0.3221160675 -0.1171273575 -0.2139470075 0.10667766975000001 -0.235063933 -0.1914705225 -0.09778986875 -0.0163754149 0.18390023407499997 0.230211555 -0.18328149324999998 0.06051656225 -0.04420298599999999 0.017446750500000004 -0.07666334625 -0.10677227275000001 -0.3754392525 -0.062197951 -0.0629701845 0.023330983 -0.2108698325 -0.17187335925 0.05950685325 0.06757519925 0.05166917924999999 0.018856542250000004 0.41402206750000003 0.08415089 -0.140663755 -0.2443030075 0.05276293249999999 0.43570174 0.15508450875000002 -0.28019174 -0.1532585075 0.25122776 -0.13421655999999998 -0.272543754 -0.2248898825 -0.4003799475 0.00778649312500001 0.22190271705 0.143499922125 -0.156150935 -0.1718967375 0.024082860749999997 0.2129630395 0.20104926 0.15240195325 0.387794825 -0.03771678725 0.05448258825 0.2045813065 0.030836602750000008 -0.2413519675 -0.1819316175 -0.08262562869125 -0.003731099249999998 -0.0651152025 -0.364768235
7 0.35879305250000004 -0.1595002925 -0.025871057999999995 0.02217813735 0.046597867499999994 0.24675681249999998 0.06055140149999999 -0.06205457925 0.1341987885 0.158331804 0.07313886174999999 -0.13418803 -0.35545882 0.05669326675 0.13757042142499998 -0.06600827749999999 0.036959628925 0.23717295500000002 0.15302460075 -0.3616114875 0.3570557675 -0.07552338612500001 -0.1016932905 -0.04853854899999999 -0.15633512500000002 -0.29830635325 -0.27791752000000003 -0.17364828000000002 0.0941767466 0.1635706385 -0.21965109825 0.09132057575 0.009877632499999997 0.30917913750000003 -0.1450481216 -0.10891493675 -0.33052537249999997 0.1137497081 0.010199223125000012 -0.13189954025 -0.22431311 -0.10471992999999999 -0.0237341775 -0.09470935725000001 -0.0645097825 -0.076141221875 0.3083274385 -0.04302475875 -0.167532379225 -0.13414798 -0.0341898945 0.38131992000000003 -0.007725240000000001 -0.1663131555 0.09191974825000002 0.11527436675 -0.12609513175 -0.17734543999999997 -0.09510119150000002 -0.17119890024999998 -0.09062355875 0.23916057500000001 -0.10275928624999998 -0.030927023999999994 -0.17342610749999998 0.197535505 0.21700703400000002 0.1497782885 -0.05829200825 0.43380363999999993 0.12243435275 -0.042142886000000004 0.06490846265000001 0.0536375625 -0.29491685 -0.013648082999999998 0.064267911 -0.2506595925 0.04616532375 -0.26840404112500005
8 0.15589971375 -0.034068746750000004 -0.265722786 -0.09011567749999999 0.06308930424999999 0.31612485 -0.07159079735 0.099292513325 0.07731378 0.18164989 0.0207125525 0.03062056 0.0006522028249999999 0.337206435 -0.11624331299999999 0.26556442375 -0.02771096025 0.11028055875 -0.21287322000000003 0.37732659 0.19480748250000002 -0.3309971275 -0.299869171 0.469721195 0.1609808775 -0.18972169825000001 0.0919061225 -0.047864327425 -0.15756336199999998 0.39990796749999996 0.041486136500000007 -0.10265077425 -0.23862652999999998 0.1809956585 0.13600346 -0.1322283075 0.03642366725000001 0.2575920365 -0.089279944625 -0.161058874 -0.09284260175 0.14289367175 -0.1282682075 -0.009971391500000001 0.057803212250000006 -0.222681485 0.32929148399999997 0.044671744 0.0760085875 -0.192507335 -0.10580277399999999 0.025038896500000005 0.22090204224999999 -0.2221617325 -0.058001058999999994 0.22574294 -0.2345176 -0.19067185825000002 -0.277864965 -0.151927291 0.188690533 -0.12909851675 0.26682927875 0.029404934999999997 1.9135250000003323e-05 -0.09450075275 0.08742774375 0.06277488525 0.37118392 -0.09046745475 -0.15988553575 -0.181044675 0.222304005 -0.0656354014 0.021287883250000004 -0.2241141475 -0.011073427750000003 -0.004704966499999998 0.17421179475 -0.309767095
9 0.36412775750000004 -0.2287758125 -0.04603535685 -0.073406784 -0.0623408825 0.32038106250000004 0.09898398010000001 0.016662451750000005 0.12111031375 0.062845857 -0.06310256125 -0.25213155750000005 -0.20518357625 -0.03202402275 0.16002934975 -0.379038315 0.093267381 0.3901383825 0.23482448 -0.4365818275 0.22470825749999998 -0.08494387725 0.060642656232499995 0.1698210055 -0.1053748425 -0.27052714975000003 -0.185731279 -0.1728203375 0.01372137125 0.2729998575 -0.23982937499999998 0.03572170025 -0.18393494642499997 0.022503519250000003 -0.1073344295 -0.039967839825000004 -0.33365411 0.0646309329 -0.0711809955 0.0018989217499999992 -0.2824992975 -0.14411086899999997 0.018673202500000003 -0.14628913425 0.13477877624999998 0.10712698625 0.3574696574999999 -0.011466209175000002 -0.2317441865 -0.33139293 -0.055619283500000005 0.5391034100000001 0.2679199625 -0.17601072750000002 -0.024399791500000004 0.3843361175 -0.11558238950000001 -0.3846909275 -0.21720297800000002 -0.38506702000000004 -0.047089647 0.26986705 0.1793783125 -0.06081224674999999 -0.31431916000000004 0.1888597 0.2684540725 0.23870058000000002 -0.050089645749999995 0.41304777 0.22130910400000003 -0.00338458 0.1624470985 0.025778363000000006 -0.168738905 -0.14292952750000001 -0.03153303175 -0.0667529465 -0.025727659 -0.22892377725
10 0.3481815 -0.18359268825 -0.07714832525 -0.11031986264999999 -0.09803853274999999 0.393418285 0.11430255624999999 0.0972971025 0.1009851155 0.115936174 -0.0625781 -0.14916524005 -0.2863622135 0.11970720750000001 0.12416833914999999 -0.2524867375 0.12186920749999999 0.21044509 0.22983919249999998 -0.3393128125 0.2994201675 -0.14480952125000002 -0.09771479824999998 0.13264899875 -0.172042821 -0.3158007235 -0.17473385 -0.124778413 -0.011595336200000004 0.17250150749999998 -0.11654443474999998 -0.047647115 -0.15869312624999998 0.06953909900000001 -0.195546299 0.00042023499999999797 -0.32843197749999997 0.036172619999999996 -0.05439135 -0.04850468324999999 -0.27618613000000003 -0.05759937999999999 0.045600771 -0.1512168625 0.09965697100000001 0.06394642075000001 0.4423923900000001 0.043945530499999996 -0.1821354275 -0.38286269500000003 -0.025768979500000004 0.47079570249999997 0.12154548324999999 -0.28276288125 -0.05724644753000001 0.318665975 -0.2143630075 -0.31426685 -0.2452510175 -0.35982036000000006 0.06716721700000002 0.167436172 0.1143271035 -0.051019413750000006 -0.24096567500000002 0.07773660099999999 0.2647986565 0.24220080125000001 0.07178601400000001 0.42847307999999995 0.104330759925 0.088596816 0.23197544799999997 0.15635472150000002 -0.253756785 -0.2389718 0.008582508499999995 -0.12043328924999999 -0.043953225000000005 -0.32416689875000004
11 0.20662078 0.04230832200000001 0.088957439 0.11050028775000001 0.06049238375000001 0.10597249100000002 -0.04056589999999999 0.018910063750000004 0.1507992085 0.110307841 0.2526204075 0.1288105575 -0.26757246 -0.026971914 -0.1139867775 0.30978329 0.1449622465 0.2909030125 -0.2583842575 0.06017435 0.34003360000000005 -0.11518170349999998 -0.20857651700000002 -0.05958358125000001 0.07080641800000001 -0.3571633225 -0.05184864624999999 -0.3321694925 0.2638110375 0.19576517825 -0.19289466249999998 0.05639393200000001 0.09355386425000001 0.23799581775 0.0025363895000000067 -0.14990316499999998 -0.052158835 0.1154445975 -0.14487646625 -0.12578054175 -0.017036921750000003 -0.08443705125 0.1408084 -0.0656686988075 -0.13179463 -0.277517985 0.17582438424999997 -0.166494103875 0.10562233155 0.29206901249999995 -0.1392473925 -0.0284701405 -0.32401042 0.137391588 -0.0403221225 0.04217346500000001 -0.22341785420000002 -0.05989536249999999 -0.014418248 0.03313682999999999 -0.171878545 0.10568258750000001 -0.24055113 -0.010845741499999995 -0.12788168525000002 0.44138574999999997 0.06333951725 -0.056791138500000005 0.18201137250000002 0.056478070000000005 0.07905466424999999 -0.29334890999999996 -0.0208160175 -0.19984800274999998 -0.15348847675 0.3663842975 0.09817678175 -0.1330327986 0.0714476675 -0.226154215
12 0.15684112200000003 0.36999982000000003 0.1538433925 0.282843505 -0.15321463825 -0.2015625385 0.032727994749999996 0.27843965 0.33886868 -0.1041652705 -0.015337017000000001 0.6038036 -0.34626123499999995 -0.1830539405 0.0930107925 0.216572645 0.302561455 0.263271915 -0.07291493925 0.062457982499999995 0.3824128075 -0.19262393100000003 -0.197102561 0.013105855000000007 0.04031116675 -0.48357423 0.13146762774999998 -0.298765125 0.33587707 0.18105086999999997 -0.32074459000000005 0.021941641749999997 -0.2408784465 -0.12114515179499999 0.0554606515 -0.015482260500000001 -0.08163498 -0.038122640750000006 -0.102688037 0.104208815 0.1208309525 -0.14719460150000002 0.22733106000000003 0.09627559725 -0.14432190649999999 -0.006039250250000003 0.17016054925 -0.28354423 0.4161987625 0.1352912675 -0.049947198250000005 -0.08760949525 -0.3876225625 0.3408916425 -0.40913189 0.015151597749999999 -0.19887780375000003 0.001842787999999998 -0.30406612 0.1299544285 0.02583894675 0.003676290000000002 -0.13704618975 0.05100423775 -0.20921733 0.2693671325 0.015138916000000002 -0.11692596150000001 0.14433835350000002 -0.13886322175 0.001467957500000002 -0.13574343625 0.08593022600000001 -0.2775002675 0.09430486537499999 0.46092117749999995 -0.07282912684000001 0.0409582715 -0.06926470025 -0.3229913575
13 0.11213955425000001 0.2755909525 0.1296662155 0.27781184000000003 -0.116764688 -0.06847552400000001 -0.011601076249999995 0.2335424935 0.200123665 -0.006813579 0.08626118125 0.4769743425 -0.3051347325 -0.1777556275 -0.0266386685 0.313729095 0.298556285 0.3114299825 -0.214169765 0.10745119375000001 0.2994051525 -0.165882026 -0.15670295799999998 -0.012769763999999996 0.10987377549999999 -0.5014199275 0.11147056150000001 -0.31196026 0.30462751499999996 0.177194089 -0.21146116025000003 -0.05024041215 -0.12378055849999998 -0.026500750875 0.066487067 -0.051628017000000005 -0.059400045000000005 0.06536172425 -0.1250962665 0.12206243325000002 0.04443200425 -0.11931424385 0.30127698275000003 0.059457765999999995 -0.0833720575 -0.1000585906 0.18025725625 -0.24878255999999999 0.34134082250000003 0.23268873 -0.09115893125 -0.1380031825 -0.38338169499999997 0.22969835249999998 -0.3260234375 0.085606356 -0.19245907375 -0.0566771425 -0.22137010499999998 0.06939116375 0.01012623675 -0.0488223325 -0.15710764000000002 -0.003790680750000005 -0.188714319 0.35124018250000005 -0.020102115000000004 -0.13404250325 0.217763365 -0.14648855 -0.00020495825000000321 -0.220949605 0.0493965775 -0.21716644325 0.009035503650000002 0.3994516 -0.009330786249999997 0.015158550500000013 -0.018832350500000004 -0.2948266275
14 0.074077011575 0.23056603625000002 0.1977246075 0.2881815475 -0.131136229 -0.03205187425 0.03612727275 0.262943205 0.23884840750000003 -0.04912932435 0.06407601045 0.48694604 -0.3236419825 -0.1669287825 0.08962077925 0.39988991250000006 0.3014181175 0.24907404149999998 -0.19457119125 0.07869775849999999 0.3996153025 -0.19908879000000002 -0.17991332249999997 -0.09954581775 0.119656333 -0.5210148475 0.1084234435825 -0.193973545 0.3347344225 0.077908488625 -0.09274852075000001 -0.050886454750000004 -0.11827948249999998 -0.008093688999999994 0.05001145275 -0.055585061500000005 -0.028535717500000002 0.004331648750000005 -0.1735146915 0.18286476200000001 0.056627759449999995 -0.022197855925000003 0.31628429649999995 0.0432004435 -0.04527465374999999 -0.0487107503 0.22413663 -0.3337029875 0.360699275 0.13369776125 -0.0334681535 -0.16464935249999998 -0.3879800675 0.2272697775 -0.468949195 0.068196852 -0.17308191750000002 0.040451631249999995 -0.2675287125 0.026870207999999993 0.10463180175 -0.109313301675 -0.21529280249999996 -0.027297798999999998 -0.131949282 0.33837315 -0.044833780999999996 -0.0501232545 0.315958026 -0.149341145 0.018162743999999998 -0.03930407500000001 0.08293452975 -0.19989504925 -0.16134752575 0.353934015 -0.0201215925 -0.007855013249999997 -0.05388107149999999 -0.277465925
15 0.141073067 0.22964323 0.2565789825 0.198426505 -0.035921317 -0.07298658999999999 0.115602666425 0.172252479 0.2290965875 0.041365126 0.1242910575 0.47155673249999996 -0.3681273025 -0.07763753625000001 -0.030235506250000002 0.27007990185 0.3066155825 0.289844265 -0.28399196 0.10444803250000001 0.343505485 -0.20749087 -0.2188467275 -0.028879904999999987 0.179990645 -0.5374449525 0.07221224675 -0.34381708749999995 0.2980601825 0.1139431515 -0.2408026554 0.0793136807 -0.11862525574999999 -0.08181091750000001 -0.0666520775 0.0170089944 -0.111658917 0.004867564300000002 -0.21643957875 -0.015645776000000004 0.09994444425 -0.0788329165 0.26337074075 0.027656610499999998 -0.06718301774999999 -0.08544274325 0.222825302 -0.373217095 0.34770658249999997 0.256436716 -0.1398358425 -0.082797915 -0.4160413475 0.326894215 -0.2988679275 0.093146405 -0.23551691074999997 -0.0575392475 -0.1751658175 -0.04198141175 -0.04678902825000001 0.03068521424999999 -0.2255670575 -0.02028040125000001 -0.2135553725 0.40203171000000004 0.03787557675 -0.21018980125 0.23164304624999998 -0.109251326 0.04552634075 -0.200335871 0.07824810325 -0.25621279599999996 -0.049361381499999996 0.38603826750000003 0.058331162000000006 -0.0007127798250000025 -0.09932554875 -0.27545567575
16 0.168395646 0.2408787675 0.19372344749999998 0.33212916 -0.074505231875 -0.121177141 -0.02655345499999999 0.24187380949999998 0.14239973375 0.004080493000000001 0.07519083625 0.49761747 -0.43354599250000003 -0.15110079 0.032752851 0.3869532775 0.28669821500000003 0.24257205250000002 -0.250701045 0.045873997500000006 0.39819041 -0.1665314245 -0.1439777975 -0.0862106345 0.101299762 -0.575121665 0.08615851875000001 -0.26617952 0.36490059250000006 0.1351259334325 -0.1876498495 0.012660713750000002 -0.12757693125 0.09797588675 0.007272193500000005 -0.10497103075 -0.0039730015000000035 0.112647597325 -0.12561763925 0.13465999262499997 0.05457121575 -0.091930221625 0.29529816675000004 0.09628836075000001 -0.1266561985 -0.049222372625000003 0.2738163825 -0.3328905175 0.3470821675 0.21483327575 -0.09423961074999998 -0.17576595874999998 -0.4529127725 0.23147223349999999 -0.4116115175 0.042357308499999996 -0.132086155 0.023696917499999998 -0.21419312 0.13742422324999998 0.0411189595 -0.12797881675 -0.23239010124999998 -0.030803744999999993 -0.199236045 0.358800845 -0.0667541525 -0.10968672974999999 0.273105294 -0.18788706600000002 -0.02980396625 -0.16783955624999997 0.021386323000000002 -0.21406261525 -0.16220595 0.3770749625 -0.021898573500000004 -0.04404753365 -0.02082920474999999 -0.247414225
17 0.156632895 0.34664171 0.13224009525 0.1885268725 -0.116436264 -0.127169215 0.03476529825000001 0.178909293 0.28555350749999997 -0.11982375075000001 -0.014699859999999995 0.5023997925 -0.3629640625 -0.13249760024999999 0.0011255353749999968 0.2205023075 0.2555967825 0.30209624 -0.15462161945 0.174135721875 0.26784781 -0.1842109395 -0.288352265 -0.0018371582499999983 -0.035726890750000004 -0.3972479875 0.177244011 -0.45316544999999997 0.357530385 0.2654319025 -0.43474408249999996 0.1076698665 -0.058470406 -0.20414467 -0.0757971125 0.048461290750000004 -0.137395502 -0.0359252225 -0.11966547999999999 -0.09409561999999999 0.1392171925 -0.19514770074999999 0.193712127 0.10478550549999999 -0.203267426 -0.09118189445 0.17327263925 -0.26347097 0.40029382 0.280338123825 -0.11955164 -0.0520139523 -0.3855699525 0.33950831000000004 -0.1134267585 0.04408422325 -0.25792249500000003 -0.1549269865 -0.0924317185 -0.084687408 -0.12212402750000001 0.07559981425 -0.078656055 0.03474082662499999 -0.29246513500000004 0.38774343499999997 0.12859419900000002 -0.3181814175 0.14018971925 -0.09879377107500001 -0.17338446437500002 -0.28883038949999995 0.088116976675 -0.263874868 0.1507350281 0.518188335 -0.042008517499999995 0.07580642975 -0.026125159250000002 -0.3755650025
18 0.21332759499999998 0.2789993175 0.2175317525 0.19083260749999997 0.005114572000000001 -0.16938539425000002 0.01816414725 0.32314465 0.23650698375 -0.10378923000000001 0.031432505500000006 0.42217035999999997 -0.24460902750000002 -0.259637635 0.01715461621425001 0.358188445 0.2023515025 0.28947382 -0.10409956525000001 0.044590012500000005 0.3633120475 -0.250985635 -0.10733899375 -0.0012499050000000095 0.114116397 -0.4638958175 0.08259196199999999 -0.23442202750000002 0.20593356 0.15175515500000003 -0.21015063125 0.0694961935 -0.255019459 0.0249761435 0.06830295550000001 0.10089912085 -0.04523574599999999 0.04641369604 -0.16663698999999998 0.043848559499999995 0.13305137975 0.020248436874999998 0.09507821125 0.050196282749999994 -0.145459525 -0.053941213999999994 0.199724135 -0.2941516325 0.36237420000000004 0.10449913875000001 -0.0820775675 -0.079623575 -0.20815541399999998 0.338982845 -0.28930610749999996 0.07042588150000001 -0.09949909125 -0.009351547500000008 -0.26224970999999997 0.00823504625 0.0018502507500000008 -0.14089230125 -0.0903614375 0.0839377275 -0.25175098075 0.2683754575 0.04244323 -0.04743723799999999 0.13082499 -0.1834727525 -0.0018169525000000068 -0.147778935 0.16667317 -0.365050625 0.002600923500000003 0.35691515 -0.03063697 0.019131885 -0.06335525974999999 -0.16031305325
19 0.205943505 0.35126752499999997 0.17733495 0.3323332375 -0.0839460752 -0.2824902815 0.041423468000000005 0.2801389325 0.27658986399999996 -0.0976004975 0.012854378750000006 0.57307245 -0.41308890249999997 -0.18895055249999998 0.21036564624999998 0.3178068 0.2703816825 0.210854605 -0.06267063125 0.114219925 0.3003095925 -0.26670193249999996 -0.1696419925 -0.04224386250000001 0.10187231325000001 -0.561870795 0.030530550000000004 -0.1938251025 0.29954535000000004 0.028024567499999996 -0.24508812825000004 -0.028702909500000002 -0.29213021 0.011818149249999993 0.0854885685 0.048821408250000004 -0.1450473875 0.025350121 -0.060412439 0.13425390400000003 0.1029494975 -0.022997539500000004 0.25476915499999997 0.13905520375000002 -0.180164075 0.079399709 0.19588374375 -0.41760133250000003 0.38010014000000003 0.10693577400000001 -0.04365215000000001 -0.159547055 -0.3362140025 0.2926316925 -0.463918625 0.023925985249999997 -0.16116696750000004 0.061229056500000004 -0.28564611500000003 0.052919209999999994 0.11963237825 -0.026685089249999995 -0.17502659925 0.025341590999999997 -0.1409566485 0.237747455 -0.002881490074999997 -0.0999131275 0.21029766900000002 -0.21983390149999998 -0.1115065815 -0.11163176699999998 0.1270152205 -0.27037724669999996 0.059760161 0.43900334250000006 -0.047210667000000005 0.07506334075 -0.03565311075 -0.30786171
20 0.28502026999999996 0.342047285 0.096858259 0.381822545 -0.092661578 -0.22463853749999996 -0.124705015 0.374462945 0.12335796125000001 -0.1820781375 0.009111065749999998 0.44473637749999995 -0.3945023525 -0.30140633375000003 0.2048737025 0.31752438 0.22841786624999996 0.18080624750000002 0.06161283624999999 -0.017912622 0.3150181175 -0.1993431775 -0.09758895000000002 -0.003984042 0.025619242 -0.5213307650000001 0.040851579725 -0.10960465224999999 0.30968252249999995 0.063169747 -0.181301345 -0.0923583965 -0.29623201000000005 0.21468623250000002 0.1685663825 -0.1068347575 0.0518857185 0.148765074 0.005772337499999995 0.3340313375 0.019907916499999997 -0.026441845999999998 0.22274621600000002 0.18491043725 -0.22912218999999998 0.13271382250000002 0.16604199149999999 -0.2485991175 0.2968634075 0.032904905 0.005231508999999995 -0.18440058250000002 -0.30743265875 0.1970615625 -0.48588039 0.004864708499999995 -0.0702933125 0.06638244175 -0.29059385000000004 0.25434175875000004 0.12033454999999998 -0.150380670075 -0.12439570000000001 0.09711445349999999 -0.18147760100000002 0.20744029749999998 -0.1185628875 0.08203796325 0.21090648875 -0.331103925 -0.07082954975000001 -0.1465311665 0.0487141609 -0.2589460485 -0.053444336 0.372178765 -0.078135659 0.048632431250000004 -0.005333234499999999 -0.24062469
21 0.06488582590000001 -0.30211906749999995 -0.40143472249999995 0.1558667541 -0.1533516175 0.256219067 -0.1522055225 0.04543925135 0.145899216 -0.09847668775 0.0156403435 -0.2174039325 0.0603355423325 0.12731972924999999 0.027717457500000008 0.413850265 -0.036150809500000006 0.43322553999999996 -0.180189111 0.40175367500000003 0.09472634349999999 -0.0736954725 -0.074354808 0.3380562525 0.0589209825 -0.063207135 0.1191549625 -0.103905258125 0.066064711 0.48770248250000003 0.0562876125 -0.26700326999999996 -0.185315539775 0.11176488175 0.4421465 -0.2178318975 0.101734565 0.294495835 -0.1183114625 0.07320991260000001 -0.185075761 -0.07430009324999999 0.1018030375 -0.11000425249999998 0.048888475 -0.25924470749999995 0.17880920424999996 0.11288147925 0.0979266275 -0.10583972075 0.07371433000000001 -0.14962103 0.2194649025 -0.424380475 -0.2480743975 0.4038728325 -0.197472294 -0.22052327600000002 -0.14520090325 -0.3347430925 0.0826485945 -0.132668393925 0.4482045975 -0.0728229712 0.061698382075 0.24451701425 -0.14779336375 0.0803443875 0.424850725 -0.03135325 -0.25010511999999996 -0.3819694225 0.2027584825 -0.101535366875 0.08372648249999999 -0.012366163375000006 -0.053935283925 -0.0351119585 0.40049315499999993 -0.23333742000000002
22 0.23045187250000002 -0.26583522249999997 -0.17381137440000002 0.19945785500000002 -0.015756215000000004 0.0719250675 -0.22244217675 0.242249485 -0.10578052025 -0.29115258875 0.029953999899999997 -0.28432598 0.005844665499999999 -0.133135605 0.209641000375 0.2380947425 -0.17471953250000002 0.3221689375 -0.033924202325 0.12929853675 0.046004501749999996 -0.16257841550000002 0.06035571075 0.15139886474999997 0.08323113000000001 -0.137009405875 0.094317120175 -0.19694095425 0.07796850375 0.534758475 -0.0910494325 0.09258371425 -0.2891181675 0.311249615 0.34290464750000005 -0.1754645425 0.13028352375000002 0.3515941925 -0.25422467 0.20529363250000002 -0.20988915000000002 0.06730742025 -0.175180303375 -0.08278278250000001 -0.13100032325 0.030367012499999995 0.10713312850000001 -0.058991019874999995 0.14123379749999998 -0.17485807375 0.030801945499999994 -0.09840956425 0.33053690500000005 -0.128955665 -0.207899575 0.29687415 0.0716705965 -0.27611599 -0.10773602249999997 -0.3802695575 -0.0348091275 -0.09131652925 0.4164669275 0.012539052499999993 -0.13199563074999998 0.389557565 -0.178630268 0.13982721375 0.245110375 -0.271311012 -0.21888123825000003 -0.1399649468 0.22609944499999998 -0.36565108999999996 -0.044495754825 0.1798147425 -0.154942774 0.109928087 0.2555009975 0.06593036075
23 0.3793269475 -0.283863825 0.0007026082500000003 0.29524987750000004 0.12476826024999998 -0.1765627435 -0.012621040449999999 0.036888636749999995 0.035251417925 0.036276006699999995 0.06301772224999999 -0.11556217499999999 -0.201966234 0.044083532499999994 0.228444979 0.31862528 -0.1462395715 0.24588825750000004 -0.08421702775 -0.09192403 0.26928315 -0.143909504 0.2371855 0.15723840000000003 0.15462259674999998 -0.1789493725 -0.1549662185 -0.14913847625 0.0954221185 0.33057324 -0.13683425 0.026106706250000004 -0.267842141 0.488324725 0.14533746250000001 -0.161677319 0.038442834999999995 0.365729645 -0.15104492249999998 -0.07228482275 -0.086096593075 0.05416924275 -0.25030521125000005 -0.11341094974999999 -0.1942601335 -0.150196981 0.20928453875 -0.2299731135 0.139727017 -0.18637591750000002 -0.031634332249999994 0.057699813749999995 0.17863320975 -0.04318989902499999 -0.07651178075 0.16669242574999998 0.022281234249999997 -0.023166237 -0.1637541175 -0.010193128750000002 -0.05120421925 -0.094266819 0.13556231575 0.0348250885 -0.09354136 0.229403165 -0.035237290000000004 0.19595301250000002 0.158018689 -0.0779811405 0.011764656000000004 -0.12772206175 0.15862502 -0.18029609750000003 -0.043160429775 0.1640847025 0.019371960124999997 -0.16772585 0.3866643775 0.14137444500000002
24 0.0005115999999999975 -0.25003153499999997 -0.262373985 0.09485192749999999 0.13228440924999998 0.206038773 0.013339326250000005 -0.07690257650000001 0.12233067199999999 -0.0261244015 -0.03985030825 -0.004454426250000004 -0.23553730749999996 0.24898614750000003 0.12818750099999998 0.19676685500000002 -0.07905716525 0.17095225749999998 -0.08070821874999999 0.2393620695 0.24596465 -0.28853903875 -0.19210228874999996 0.5114832475 0.07863413525 -0.08117807767499999 0.0515040221575 0.05570922575000001 -0.023748587749999998 0.27843522000000004 -0.016343400000000008 -0.019776484499999997 -0.18774483800000002 0.08265661625000001 0.32027749 -0.1871994715 -0.09648642475 0.17445940999999998 -0.124169338675 -0.10240958850000001 -0.07866311000000001 -0.0238135175 -0.09577056349999999 0.15065751675 -0.025321353749999994 -0.22641616 0.258915612425 0.031699531 0.09434834875 -0.08870619125 0.08586131624999999 0.07934899249999999 0.295480005 -0.2526332175 -0.18947896175 0.2341622 -0.229882975 -0.06872191750000001 -0.22096629150000002 -0.14258840750000001 0.047301479 -0.051578293 0.4108765625 -0.02887371825 0.012271394000000001 -0.237504045 0.025604813499999997 0.0612546675 0.35296353 -0.10320336 -0.04872359849999999 -0.2390206975 0.2138214665 -0.22356981999999997 0.10930127375000001 -0.17683615125000002 -0.0492000935 0.07699079275 0.2618235675 -0.2552381075
25 0.14033837764999998 -0.428718825 -0.237159925 0.0948642613 0.057080984 0.091745253 -0.13025000775 -0.20834569025 0.20292910249999999 -0.11985219775 0.13458071675 -0.30443248 -0.1041129029 0.09709656324999999 0.19488413719999997 0.378756925 0.020418213625 0.4288329925 -0.1381827975 0.23345576825 0.1580517725 -0.13820359149999997 -0.073147815 0.39479049250000003 0.11196499 -0.07081520325 0.04754551349999999 -0.11042616999999999 0.08768340499999999 0.455642185 -0.048938938000000015 -0.10856201625 -0.17858200625 0.24423476675000003 0.40879427 -0.30466019499999997 0.13372396450000001 0.1552950635 -0.09683972675 -0.1694540975 -0.042857345000000005 -0.030340677500000003 -0.15377866 -0.0403942201 -0.10028845850000001 -0.39543905 0.13882345975000002 -0.10965924325000001 0.012437104 -0.0007260187499999946 0.1403954015 -0.14968535700000002 0.11918101725 -0.18838725 -0.102333536 0.27636626375 -0.2729520325 -0.0856277865 0.037237578 -0.181326098 -0.13095989 0.03254369 0.36555316250000003 -0.089535171 0.10927215775 0.19942683499999997 -0.21506515200000004 0.1152962875 0.403570005 -0.07093711 -0.05497533624999999 -0.4682029125 0.109343921 -0.2651040775 0.09774261750000002 0.13381488075 0.1110576225 -0.02522749675 0.40048305 -0.24466088500000002
26 0.30355405 -0.08587560349999998 -0.39439159749999997 0.36741631250000006 0.08004724100000002 0.12326270325 -0.1520780725 -0.0715278204875 -0.10083260625 -0.102293091 -0.064242787 -0.0780592575 -0.448236735 0.3255299 0.27241207015 0.007842445999999998 -0.0091683335 0.081469510395 0.14192927 0.16835028284999998 0.052437571 -0.096293593 -0.03993475995 0.68804369 0.09963338924999997 -0.261260636 -0.2112870625 -0.0406554015 -0.05233339175 0.22856342875000002 -0.04426618574999999 -0.11986649799999999 -0.30011719000000003 0.33720358 0.11390711149999999 -0.3467831225 0.059168563249999986 0.30579148125 0.10221858750000001 0.09004781784999999 -0.150432805 -0.1990702975 0.0012232183249999973 0.207917705 -0.1143754625 0.11415184225 0.12843452875 0.179494231 0.006359373825 -0.22531519749999998 0.013272342100000008 0.10165401574999999 0.070984042 -0.14624374874999999 -0.20160243249999998 0.2639923925 -0.13095898075 -0.146980571 -0.33658748 0.137149051 0.08409325075 0.09049476349999999 0.46947277000000004 0.2197733725 -0.04587213500000001 -0.14968087 -0.19049459 0.07551020174999999 0.181691595 -0.34115272500000005 -0.09326514 -0.4132345425 -0.025451190000000002 -0.0567868985 0.0738099025 -0.1211478085 -0.027722875250000004 0.005921948750000001 0.26859760250000003 -0.19878565674999998
27 0.0759957885 -0.22059898499999997 -0.011640174999999989 0.006849826500000003 0.14652959575 0.05277481775 0.04581389925 0.151059905 0.0994274275 0.013898724099999999 -0.0004462451749999985 0.045218879000000003 -0.02849371865 0.021746888250000006 0.043426701500000005 0.2808062825 -0.09371980075 0.221299415 -0.11882397825 0.1018612095 0.294483695 -0.3240500725 0.036648444 0.2956638575 0.23455323 -0.16845987925 0.1350634725 -0.0645624119 -0.09108381025 0.37479494500000005 -0.008319693999999996 0.1284987665 -0.3224258125 0.08166060375 0.2717325475 0.03863475875 0.0052651380000000025 0.168879725 -0.27091341 -0.0999740325 0.002505507499999997 0.16358513000000002 -0.2571073875 -0.04249200375000001 0.021949704 -0.203062409625 0.3010919725 -0.121504865 0.20177787549999998 -0.12544603099999999 0.005279991467499995 0.05227130937499999 0.3242858475 -0.0224027505 -0.15988372150000002 0.23562299250000002 -0.06809314500000001 -0.1004317635 -0.24405631900000002 -0.2271915255 0.03460845075 -0.213890227 0.2579757775 -0.050740399000000005 -0.14618436 -0.020860518500000005 0.06902481 0.11726437575 0.2613206975 -0.14501754174999998 0.03472225825 -0.03590073249999999 0.286390395 -0.357842085 0.0676956725 -0.0874393145 -0.03872328 0.04473885650000001 0.10775368199999999 0.0014000594999999992
28 0.30881791999999997 -0.23998445 -0.30607162 0.2576773575 0.12685234374999999 0.07103686 -0.10425852700000002 -0.0696716485 -0.0976673625 -0.10766954625 0.025298244675 -0.2838232975 -0.26562687 0.140809632 0.292177715 -0.05260964675 -0.08993285274999999 0.2543066275 0.07648452875 0.003988428250000004 0.09392690574999998 -0.1301716825 0.08698820625 0.4354994825 0.1578474725 -0.22037085425000003 -0.2086505975 -0.08966856274999999 -0.033283649750000005 0.3583282525 -0.20321687849999998 0.05483574099999999 -0.3299443475 0.30174488999999993 0.15599624125 -0.23373241849999998 -0.080734695 0.343008775 -0.004092995124999997 0.03756657975000001 -0.18161413999999998 -0.14157788425 -0.135944305 0.12088907499999998 -0.1292076125 0.042922864049999995 0.16631433124999997 0.10621265475000001 -0.006080258249999998 -0.225476489 -0.11380019250000001 0.17702238425 0.36911117000000004 -0.10662183637500001 -0.12142679125 0.3296295675 0.05684675475 -0.14100161575 -0.29837235 -0.133592431 -0.1005296765 0.08849485125 0.43448276750000003 0.0955665675 -0.1170016825 0.0739452702 -0.013623948249999998 0.14283524525000002 0.07386945199999999 -0.1876277995 0.0022576625000000003 -0.2607821725 0.09384930550000001 -0.21598405 0.09702230672500001 0.0082545475 -0.11472022750000001 0.060818895 0.220719685 -0.025168931250000002
29 0.024228419 -0.27701983999999996 -0.23057883625 0.041545729825 0.1919528075 0.1576708835 0.07910945525 -0.1535572185 0.15781324 -0.293042865 -0.22467168250000003 0.011433709000000002 -0.37405540000000004 0.24531688725 0.3036555625 -0.060483625500000006 -0.248430575 -0.06193182 0.013343432500000005 0.04396535999999999 0.3253957675 -0.40954577999999997 -0.37612116250000005 0.25533328375 -0.154475725 0.09290139 0.17964953 0.06588909825 0.323302965 0.3846217 -0.34528792499999994 0.3420904075 -0.038273942 -0.024499051749999987 0.048506942500000004 -0.2476859555 -0.17094240975 -0.076821036 -0.21961048625 -0.04098457675 -0.13374644800000002 -0.07067392275 -0.29698547875 0.229842959 -0.12928386225 -0.0193776415 0.39257833999999997 -0.052553765499999995 0.20919070150000002 -0.0985424485 0.059689886750000004 0.25942093 0.3918591725 -0.3043026725 -0.15556747625 0.05287396212500001 -0.05523511299999999 -0.158059915 -0.07566922575 -0.3664599625 0.006174094149999998 0.0015280834999999993 0.4902868025 -0.154174688 -0.11120247000000001 -0.2295035575 0.15239335399999998 -0.019060586750000004 0.2793793 -0.08488108 -0.37217649750000004 -0.011964191499999992 0.2276418475 -0.30501346 -0.03824372795 -0.07013009475 -0.26193660750000003 0.287207975 0.1569434175 -0.2098699325
30 0.175495545 -0.13603621525 -0.21382402 -0.0932276785 0.0283492988 0.368087585 -0.061545154000000005 -0.086681277 0.060018647499999994 0.137501005 0.010187097499999992 -0.0913116535 -0.32995670325 0.157483978 0.06925697049999999 -0.13499467525 0.04433102725 0.044425660075 0.23164856500000003 -0.17282190499999997 0.31237679 -0.13555859425 -0.16821672124999998 0.368456155 -0.008771485999999995 -0.3541391425 -0.20424699999999998 0.0239534805 -0.09452356525 0.1879968425 0.0563650235 -0.009959884832499998 -0.15550461649999997 0.24642143 0.009973354375000002 -0.09353837244999999 -0.319071765 0.0644540475 0.0676804395 -0.08854425099999999 -0.07549885475 -0.0776838575 0.038004276749999996 0.19711176 0.07436649350000002 -0.0583940025 0.340765965 0.13772386 -0.134445625 -0.11986272337500001 0.06102504375000001 0.32906350749999996 0.04146415175 -0.204075868 -0.1475135325 0.197147505 -0.2213867975 -0.19280266000000001 -0.33080565749999996 -0.12897237250000002 0.15270838999999997 0.18761555625 0.1284937975 -0.04745808450000002 -0.056349855000000004 -0.20262072600000003 0.11309827750000001 0.19153072625 0.223569095 0.15351905125 0.030296938750000002 -0.072473482 0.14164427 0.030161435000000007 -0.170015994 -0.264919435 0.08249302250000001 -0.10659077100000001 -0.014104914999999999 -0.347950985
31 0.24091149750000002 -0.19459530674999997 -0.109666894 -0.10582421 -0.05657500975 0.3758902475 0.022141687 0.03961874074999999 0.07542040500000001 0.0005959945000000026 -0.06681171 -0.206748835 -0.3095534175 -0.046914412499999995 0.1270786075 -0.215369035 0.030792132249999996 0.191364445 0.297569275 -0.33808843000000005 0.3414731825 -0.1051325585 -0.052738704775 0.1467937385 -0.1304103875 -0.30320778 -0.09109867025 -0.02075878275 0.0762104845 0.2193858375 -0.050704225000000006 0.022670788650000002 -0.14494286 0.0553789155 -0.025518657249999997 -0.006410493499999998 -0.3302676325 -0.0009870786000000021 -0.07157648825 0.02002053025 -0.16680617749999999 -0.10656785125 0.069877629 0.03184965375 0.1338564025 0.07951943519999999 0.3435122725 0.0837132425 -0.152867825 -0.30015319 0.08203735000000001 0.3773115675 0.12933898435000002 -0.206429905 -0.1322027675 0.297907105 -0.11306076999999999 -0.2763427 -0.2888506375 -0.3804198125 0.018057292500000002 0.16312403175 0.14119179495 -0.03971790424999999 -0.19722590499999998 0.063588867 0.17788287275 0.23699883249999998 0.08732430775 0.31853443149999994 0.04327708025 0.03987767749999999 0.235291135 0.021196377500000002 -0.2365798925 -0.217851425 0.003264728999999994 -0.07725764575 -0.14114522675000002 -0.25642523455
32 0.07907194499999999 -0.20178612999999998 -0.1203091231 -0.1796350485 -0.14549143650000002 0.4458059175 0.10286448100000001 0.07366835999999999 0.0652127235 0.07254985624999999 -0.0799201505 -0.142404616 -0.1417779395 0.006617359999999996 0.050500142500000005 -0.25301231075 0.10910801499999999 0.3008065725 0.23977809499999997 -0.19204239375 0.23604820499999998 -0.1429053575 -0.15119016149999998 0.29964081500000006 -0.11051078624999999 -0.230389695 0.0553159425 -0.02894867875 -0.06223531749999999 0.24956038075 0.03350843575 -0.05014913500000001 -0.183173755 -0.152551667 0.1220298365 -0.01822801475 -0.31346243500000004 -0.009234004000000006 -0.11480538550000001 0.02353071175 -0.18117239925 -0.07521474765 0.0900571045 0.0350047025 0.21122272824999996 -0.0294789691 0.300322895 0.137792635 -0.14305840525 -0.247304075 0.11259413125000002 0.35532728750000003 0.2029383415 -0.228144269 -0.2053144475 0.3950694925 -0.25827958500000003 -0.31533491999999996 -0.27663300749999997 -0.4358334475000001 0.052152967999999994 0.1548644235 0.20788618050000002 -0.117696735 -0.15117281249999998 -0.051826212499999996 0.1319913575 0.223333522 0.213526295 0.29894902 0.15911466400000002 0.026766988750000005 0.2843039275 -0.003311539500000002 -0.09342275925 -0.3346587775 -0.013700820000000002 0.00043704074999999926 -0.0967597435 -0.4315298825
33 0.321655855 -0.24524842500000002 -0.01924975175 -0.1322520915 0.05525635875 0.29719767 0.0383856088125 -0.027660645499999994 0.0021150075324999976 0.096583745 -0.07310765425 -0.1513067635 -0.423151765 0.020695535 0.13620116349999997 -0.20325624325 -0.07027464525 0.01131065325 0.2304010925 -0.44630384999999995 0.400855985 -0.1352442095 0.007581126000000002 0.13505829375 -0.141331964 -0.34105038075 -0.13244220250000002 -0.04714605325 0.12626217975 0.2467050275 -0.08008523249999999 0.08241435225 -0.06712652249999998 0.2698917875 -0.138023742625 -0.009190754125 -0.37966787750000003 0.014662460749999998 -0.0991447585 -0.14512803400000002 -0.11197647624999998 -0.0658831685 -0.050310060999999996 0.0157590165 0.021067073999999998 -0.0002365184999999978 0.49938805750000004 -0.0710071895 -0.16360795275 -0.280467185 0.07371772250000001 0.409482075 0.06951543475 -0.20290501125 0.04941075674999999 0.2120322 -0.11533585115000002 -0.287696 -0.22588321 -0.27834976725 0.031527935 0.15705714750000002 0.048834238749999995 -0.12002223125000001 -0.2350821675 0.00804042424999999 0.2775403225 0.228026493125 0.207099405 0.3215040875 -0.022376668250000002 0.13703198349999998 0.2302040025 0.06277202525 -0.2949805375 -0.1582662935 0.04793303499999999 -0.11228655725 -0.010981378750000007 -0.1448561275
34 0.2037474275 -0.16297557000000001 -0.1252542905 -0.13264082845000003 -0.11617859250000001 0.42191805000000004 0.1362006825 0.003552890100000001 0.1006544125 0.15858727175 -0.034875588750000006 -0.14910212425 -0.24587892 0.05415288074999999 0.072451759 -0.38905501000000003 0.23046495499999997 0.3519756625 0.297855905 -0.3412818425 0.24192836250000002 -0.127915115275 -0.1728711375 0.19873838000000002 -0.1212473445 -0.31847380000000003 -0.22865819000000004 -0.07601210700000001 -0.07910861575 0.11021976324999999 -0.09088750250000001 -0.064985863325 -0.16624690749999999 -0.02879135325 -0.051077057499999995 -0.03575207525 -0.378145155 0.0173044095 0.011577931500000006 0.04718019525 -0.269717115 -0.12760793874999998 0.163551646 0.0034602457500000003 0.156535094 0.008079479999999997 0.36019940749999996 0.14752428 -0.21265129625 -0.2160258875 0.007923604249999994 0.47027917750000003 0.1213866725 -0.238215016 -0.21092489749999999 0.37531833000000003 -0.274770635 -0.2595082825 -0.27786539499999996 -0.34488742 0.039737232500000004 0.25526014975 0.07944839509999999 -0.11185782475000002 -0.18236415875 -0.012151382000000002 0.18521294 0.2703634625 0.08275481374999999 0.43444529 0.25123969 -0.035037879 0.18522018125 0.0942691425 -0.159069765 -0.2886667125 0.027284959999999997 -0.06600890050000001 -0.13660859250000001 -0.5029576874999999
35 0.2699221 -0.188698523 -0.1890371075 -0.005387927499999997 -0.11878003625 0.34904103 0.008915958500000001 0.02568406 -0.15937751725 0.04638858174999999 -0.078984386 -0.190722494 -0.44012193250000003 0.09728275125 0.18509153 -0.33095210250000007 0.07022236500000001 0.119741665 0.3785583975 -0.2843988275 0.25796479250000004 -0.0037754682499999987 0.002434930775000001 0.381536815 -0.07650832 -0.39359255000000004 -0.11768751 -0.03284986250000001 -0.02879119300000001 0.1788798585 0.0547073935 -0.09558836250000001 -0.21480132174999997 0.05948477850000001 -0.0674272225 -0.015730743749999998 -0.32355226 0.04634766 0.015908235250000007 0.02047003325 -0.145917317 -0.164942945 0.16401322755 0.11049640475000001 0.10016037549999998 0.12599772375 0.33701089 0.23963678500000002 -0.165673279 -0.3164403375 0.13605839399999997 0.36574263999999995 0.025688967 -0.191532665 -0.15686360175 0.3954055575 -0.21129873524999998 -0.29081133249999996 -0.3690266525 -0.272768005 0.0377627915 0.20867864625 0.19266443249999998 0.017837664999999985 -0.178256645 -0.051108192499999996 0.09497561125 0.2255181575 0.26326374249999995 0.1359554725 0.06258822025 0.0028868160000000004 0.21013219375000003 0.15129539055 -0.0868385825 -0.30355562 0.080775885 -0.0866315835 -0.08602016375 -0.27098827
36 0.19458739249999998 -0.21190957249999998 -0.13714434125 -0.09328233824999999 -0.0627763265 0.33595595749999996 0.10098762025 -0.0723441505 0.08578304674999998 0.0008778390000000087 -0.123227865 -0.15590108000000003 -0.33351596 0.046001605 0.16206535275 -0.35636694750000003 0.0346500565 0.1777522 0.27027002 -0.369157355 0.3221160675 -0.1171273575 -0.2139470075 0.10667766975000001 -0.235063933 -0.1914705225 -0.09778986875 -0.0163754149 0.18390023407499997 0.230211555 -0.18328149324999998 0.06051656225 -0.04420298599999999 0.017446750500000004 -0.07666334625 -0.10677227275000001 -0.3754392525 -0.062197951 -0.0629701845 0.023330983 -0.2108698325 -0.17187335925 0.05950685325 0.06757519925 0.05166917924999999 0.018856542250000004 0.41402206750000003 0.08415089 -0.140663755 -0.2443030075 0.05276293249999999 0.43570174 0.15508450875000002 -0.28019174 -0.1532585075 0.25122776 -0.13421655999999998 -0.272543754 -0.2248898825 -0.4003799475 0.00778649312500001 0.22190271705 0.143499922125 -0.156150935 -0.1718967375 0.024082860749999997 0.2129630395 0.20104926 0.15240195325 0.387794825 -0.03771678725 0.05448258825 0.2045813065 0.030836602750000008 -0.2413519675 -0.1819316175 -0.08262562869125 -0.003731099249999998 -0.0651152025 -0.364768235
37 0.35879305250000004 -0.1595002925 -0.025871057999999995 0.02217813735 0.046597867499999994 0.24675681249999998 0.06055140149999999 -0.06205457925 0.1341987885 0.158331804 0.07313886174999999 -0.13418803 -0.35545882 0.05669326675 0.13757042142499998 -0.06600827749999999 0.036959628925 0.23717295500000002 0.15302460075 -0.3616114875 0.3570557675 -0.07552338612500001 -0.1016932905 -0.04853854899999999 -0.15633512500000002 -0.29830635325 -0.27791752000000003 -0.17364828000000002 0.0941767466 0.1635706385 -0.21965109825 0.09132057575 0.009877632499999997 0.30917913750000003 -0.1450481216 -0.10891493675 -0.33052537249999997 0.1137497081 0.010199223125000012 -0.13189954025 -0.22431311 -0.10471992999999999 -0.0237341775 -0.09470935725000001 -0.0645097825 -0.076141221875 0.3083274385 -0.04302475875 -0.167532379225 -0.13414798 -0.0341898945 0.38131992000000003 -0.007725240000000001 -0.1663131555 0.09191974825000002 0.11527436675 -0.12609513175 -0.17734543999999997 -0.09510119150000002 -0.17119890024999998 -0.09062355875 0.23916057500000001 -0.10275928624999998 -0.030927023999999994 -0.17342610749999998 0.197535505 0.21700703400000002 0.1497782885 -0.05829200825 0.43380363999999993 0.12243435275 -0.042142886000000004 0.06490846265000001 0.0536375625 -0.29491685 -0.013648082999999998 0.064267911 -0.2506595925 0.04616532375 -0.26840404112500005
38 0.15589971375 -0.034068746750000004 -0.265722786 -0.09011567749999999 0.06308930424999999 0.31612485 -0.07159079735 0.099292513325 0.07731378 0.18164989 0.0207125525 0.03062056 0.0006522028249999999 0.337206435 -0.11624331299999999 0.26556442375 -0.02771096025 0.11028055875 -0.21287322000000003 0.37732659 0.19480748250000002 -0.3309971275 -0.299869171 0.469721195 0.1609808775 -0.18972169825000001 0.0919061225 -0.047864327425 -0.15756336199999998 0.39990796749999996 0.041486136500000007 -0.10265077425 -0.23862652999999998 0.1809956585 0.13600346 -0.1322283075 0.03642366725000001 0.2575920365 -0.089279944625 -0.161058874 -0.09284260175 0.14289367175 -0.1282682075 -0.009971391500000001 0.057803212250000006 -0.222681485 0.32929148399999997 0.044671744 0.0760085875 -0.192507335 -0.10580277399999999 0.025038896500000005 0.22090204224999999 -0.2221617325 -0.058001058999999994 0.22574294 -0.2345176 -0.19067185825000002 -0.277864965 -0.151927291 0.188690533 -0.12909851675 0.26682927875 0.029404934999999997 1.9135250000003323e-05 -0.09450075275 0.08742774375 0.06277488525 0.37118392 -0.09046745475 -0.15988553575 -0.181044675 0.222304005 -0.0656354014 0.021287883250000004 -0.2241141475 -0.011073427750000003 -0.004704966499999998 0.17421179475 -0.309767095
39 0.30355405 -0.08587560349999998 -0.39439159749999997 0.36741631250000006 0.08004724100000002 0.12326270325 -0.1520780725 -0.0715278204875 -0.10083260625 -0.102293091 -0.064242787 -0.0780592575 -0.448236735 0.3255299 0.27241207015 0.007842445999999998 -0.0091683335 0.081469510395 0.14192927 0.16835028284999998 0.052437571 -0.096293593 -0.03993475995 0.68804369 0.09963338924999997 -0.261260636 -0.2112870625 -0.0406554015 -0.05233339175 0.22856342875000002 -0.04426618574999999 -0.11986649799999999 -0.30011719000000003 0.33720358 0.11390711149999999 -0.3467831225 0.059168563249999986 0.30579148125 0.10221858750000001 0.09004781784999999 -0.150432805 -0.1990702975 0.0012232183249999973 0.207917705 -0.1143754625 0.11415184225 0.12843452875 0.179494231 0.006359373825 -0.22531519749999998 0.013272342100000008 0.10165401574999999 0.070984042 -0.14624374874999999 -0.20160243249999998 0.2639923925 -0.13095898075 -0.146980571 -0.33658748 0.137149051 0.08409325075 0.09049476349999999 0.46947277000000004 0.2197733725 -0.04587213500000001 -0.14968087 -0.19049459 0.07551020174999999 0.181691595 -0.34115272500000005 -0.09326514 -0.4132345425 -0.025451190000000002 -0.0567868985 0.0738099025 -0.1211478085 -0.027722875250000004 0.005921948750000001 0.26859760250000003 -0.19878565674999998
40 0.0005115999999999975 -0.25003153499999997 -0.262373985 0.09485192749999999 0.13228440924999998 0.206038773 0.013339326250000005 -0.07690257650000001 0.12233067199999999 -0.0261244015 -0.03985030825 -0.004454426250000004 -0.23553730749999996 0.24898614750000003 0.12818750099999998 0.19676685500000002 -0.07905716525 0.17095225749999998 -0.08070821874999999 0.2393620695 0.24596465 -0.28853903875 -0.19210228874999996 0.5114832475 0.07863413525 -0.08117807767499999 0.0515040221575 0.05570922575000001 -0.023748587749999998 0.27843522000000004 -0.016343400000000008 -0.019776484499999997 -0.18774483800000002 0.08265661625000001 0.32027749 -0.1871994715 -0.09648642475 0.17445940999999998 -0.124169338675 -0.10240958850000001 -0.07866311000000001 -0.0238135175 -0.09577056349999999 0.15065751675 -0.025321353749999994 -0.22641616 0.258915612425 0.031699531 0.09434834875 -0.08870619125 0.08586131624999999 0.07934899249999999 0.295480005 -0.2526332175 -0.18947896175 0.2341622 -0.229882975 -0.06872191750000001 -0.22096629150000002 -0.14258840750000001 0.047301479 -0.051578293 0.4108765625 -0.02887371825 0.012271394000000001 -0.237504045 0.025604813499999997 0.0612546675 0.35296353 -0.10320336 -0.04872359849999999 -0.2390206975 0.2138214665 -0.22356981999999997 0.10930127375000001 -0.17683615125000002 -0.0492000935 0.07699079275 0.2618235675 -0.2552381075
41 0.36412775750000004 -0.2287758125 -0.04603535685 -0.073406784 -0.0623408825 0.32038106250000004 0.09898398010000001 0.016662451750000005 0.12111031375 0.062845857 -0.06310256125 -0.25213155750000005 -0.20518357625 -0.03202402275 0.16002934975 -0.379038315 0.093267381 0.3901383825 0.23482448 -0.4365818275 0.22470825749999998 -0.08494387725 0.060642656232499995 0.1698210055 -0.1053748425 -0.27052714975000003 -0.185731279 -0.1728203375 0.01372137125 0.2729998575 -0.23982937499999998 0.03572170025 -0.18393494642499997 0.022503519250000003 -0.1073344295 -0.039967839825000004 -0.33365411 0.0646309329 -0.0711809955 0.0018989217499999992 -0.2824992975 -0.14411086899999997 0.018673202500000003 -0.14628913425 0.13477877624999998 0.10712698625 0.3574696574999999 -0.011466209175000002 -0.2317441865 -0.33139293 -0.055619283500000005 0.5391034100000001 0.2679199625 -0.17601072750000002 -0.024399791500000004 0.3843361175 -0.11558238950000001 -0.3846909275 -0.21720297800000002 -0.38506702000000004 -0.047089647 0.26986705 0.1793783125 -0.06081224674999999 -0.31431916000000004 0.1888597 0.2684540725 0.23870058000000002 -0.050089645749999995 0.41304777 0.22130910400000003 -0.00338458 0.1624470985 0.025778363000000006 -0.168738905 -0.14292952750000001 -0.03153303175 -0.0667529465 -0.025727659 -0.22892377725
42 0.3481815 -0.18359268825 -0.07714832525 -0.11031986264999999 -0.09803853274999999 0.393418285 0.11430255624999999 0.0972971025 0.1009851155 0.115936174 -0.0625781 -0.14916524005 -0.2863622135 0.11970720750000001 0.12416833914999999 -0.2524867375 0.12186920749999999 0.21044509 0.22983919249999998 -0.3393128125 0.2994201675 -0.14480952125000002 -0.09771479824999998 0.13264899875 -0.172042821 -0.3158007235 -0.17473385 -0.124778413 -0.011595336200000004 0.17250150749999998 -0.11654443474999998 -0.047647115 -0.15869312624999998 0.06953909900000001 -0.195546299 0.00042023499999999797 -0.32843197749999997 0.036172619999999996 -0.05439135 -0.04850468324999999 -0.27618613000000003 -0.05759937999999999 0.045600771 -0.1512168625 0.09965697100000001 0.06394642075000001 0.4423923900000001 0.043945530499999996 -0.1821354275 -0.38286269500000003 -0.025768979500000004 0.47079570249999997 0.12154548324999999 -0.28276288125 -0.05724644753000001 0.318665975 -0.2143630075 -0.31426685 -0.2452510175 -0.35982036000000006 0.06716721700000002 0.167436172 0.1143271035 -0.051019413750000006 -0.24096567500000002 0.07773660099999999 0.2647986565 0.24220080125000001 0.07178601400000001 0.42847307999999995 0.104330759925 0.088596816 0.23197544799999997 0.15635472150000002 -0.253756785 -0.2389718 0.008582508499999995 -0.12043328924999999 -0.043953225000000005 -0.32416689875000004
43 0.30881791999999997 -0.23998445 -0.30607162 0.2576773575 0.12685234374999999 0.07103686 -0.10425852700000002 -0.0696716485 -0.0976673625 -0.10766954625 0.025298244675 -0.2838232975 -0.26562687 0.140809632 0.292177715 -0.05260964675 -0.08993285274999999 0.2543066275 0.07648452875 0.003988428250000004 0.09392690574999998 -0.1301716825 0.08698820625 0.4354994825 0.1578474725 -0.22037085425000003 -0.2086505975 -0.08966856274999999 -0.033283649750000005 0.3583282525 -0.20321687849999998 0.05483574099999999 -0.3299443475 0.30174488999999993 0.15599624125 -0.23373241849999998 -0.080734695 0.343008775 -0.004092995124999997 0.03756657975000001 -0.18161413999999998 -0.14157788425 -0.135944305 0.12088907499999998 -0.1292076125 0.042922864049999995 0.16631433124999997 0.10621265475000001 -0.006080258249999998 -0.225476489 -0.11380019250000001 0.17702238425 0.36911117000000004 -0.10662183637500001 -0.12142679125 0.3296295675 0.05684675475 -0.14100161575 -0.29837235 -0.133592431 -0.1005296765 0.08849485125 0.43448276750000003 0.0955665675 -0.1170016825 0.0739452702 -0.013623948249999998 0.14283524525000002 0.07386945199999999 -0.1876277995 0.0022576625000000003 -0.2607821725 0.09384930550000001 -0.21598405 0.09702230672500001 0.0082545475 -0.11472022750000001 0.060818895 0.220719685 -0.025168931250000002
44 0.0759957885 -0.22059898499999997 -0.011640174999999989 0.006849826500000003 0.14652959575 0.05277481775 0.04581389925 0.151059905 0.0994274275 0.013898724099999999 -0.0004462451749999985 0.045218879000000003 -0.02849371865 0.021746888250000006 0.043426701500000005 0.2808062825 -0.09371980075 0.221299415 -0.11882397825 0.1018612095 0.294483695 -0.3240500725 0.036648444 0.2956638575 0.23455323 -0.16845987925 0.1350634725 -0.0645624119 -0.09108381025 0.37479494500000005 -0.008319693999999996 0.1284987665 -0.3224258125 0.08166060375 0.2717325475 0.03863475875 0.0052651380000000025 0.168879725 -0.27091341 -0.0999740325 0.002505507499999997 0.16358513000000002 -0.2571073875 -0.04249200375000001 0.021949704 -0.203062409625 0.3010919725 -0.121504865 0.20177787549999998 -0.12544603099999999 0.005279991467499995 0.05227130937499999 0.3242858475 -0.0224027505 -0.15988372150000002 0.23562299250000002 -0.06809314500000001 -0.1004317635 -0.24405631900000002 -0.2271915255 0.03460845075 -0.213890227 0.2579757775 -0.050740399000000005 -0.14618436 -0.020860518500000005 0.06902481 0.11726437575 0.2613206975 -0.14501754174999998 0.03472225825 -0.03590073249999999 0.286390395 -0.357842085 0.0676956725 -0.0874393145 -0.03872328 0.04473885650000001 0.10775368199999999 0.0014000594999999992
45 0.3793269475 -0.283863825 0.0007026082500000003 0.29524987750000004 0.12476826024999998 -0.1765627435 -0.012621040449999999 0.036888636749999995 0.035251417925 0.036276006699999995 0.06301772224999999 -0.11556217499999999 -0.201966234 0.044083532499999994 0.228444979 0.31862528 -0.1462395715 0.24588825750000004 -0.08421702775 -0.09192403 0.26928315 -0.143909504 0.2371855 0.15723840000000003 0.15462259674999998 -0.1789493725 -0.1549662185 -0.14913847625 0.0954221185 0.33057324 -0.13683425 0.026106706250000004 -0.267842141 0.488324725 0.14533746250000001 -0.161677319 0.038442834999999995 0.365729645 -0.15104492249999998 -0.07228482275 -0.086096593075 0.05416924275 -0.25030521125000005 -0.11341094974999999 -0.1942601335 -0.150196981 0.20928453875 -0.2299731135 0.139727017 -0.18637591750000002 -0.031634332249999994 0.057699813749999995 0.17863320975 -0.04318989902499999 -0.07651178075 0.16669242574999998 0.022281234249999997 -0.023166237 -0.1637541175 -0.010193128750000002 -0.05120421925 -0.094266819 0.13556231575 0.0348250885 -0.09354136 0.229403165 -0.035237290000000004 0.19595301250000002 0.158018689 -0.0779811405 0.011764656000000004 -0.12772206175 0.15862502 -0.18029609750000003 -0.043160429775 0.1640847025 0.019371960124999997 -0.16772585 0.3866643775 0.14137444500000002
46 0.024228419 -0.27701983999999996 -0.23057883625 0.041545729825 0.1919528075 0.1576708835 0.07910945525 -0.1535572185 0.15781324 -0.293042865 -0.22467168250000003 0.011433709000000002 -0.37405540000000004 0.24531688725 0.3036555625 -0.060483625500000006 -0.248430575 -0.06193182 0.013343432500000005 0.04396535999999999 0.3253957675 -0.40954577999999997 -0.37612116250000005 0.25533328375 -0.154475725 0.09290139 0.17964953 0.06588909825 0.323302965 0.3846217 -0.34528792499999994 0.3420904075 -0.038273942 -0.024499051749999987 0.048506942500000004 -0.2476859555 -0.17094240975 -0.076821036 -0.21961048625 -0.04098457675 -0.13374644800000002 -0.07067392275 -0.29698547875 0.229842959 -0.12928386225 -0.0193776415 0.39257833999999997 -0.052553765499999995 0.20919070150000002 -0.0985424485 0.059689886750000004 0.25942093 0.3918591725 -0.3043026725 -0.15556747625 0.05287396212500001 -0.05523511299999999 -0.158059915 -0.07566922575 -0.3664599625 0.006174094149999998 0.0015280834999999993 0.4902868025 -0.154174688 -0.11120247000000001 -0.2295035575 0.15239335399999998 -0.019060586750000004 0.2793793 -0.08488108 -0.37217649750000004 -0.011964191499999992 0.2276418475 -0.30501346 -0.03824372795 -0.07013009475 -0.26193660750000003 0.287207975 0.1569434175 -0.2098699325
47 0.20662078 0.04230832200000001 0.088957439 0.11050028775000001 0.06049238375000001 0.10597249100000002 -0.04056589999999999 0.018910063750000004 0.1507992085 0.110307841 0.2526204075 0.1288105575 -0.26757246 -0.026971914 -0.1139867775 0.30978329 0.1449622465 0.2909030125 -0.2583842575 0.06017435 0.34003360000000005 -0.11518170349999998 -0.20857651700000002 -0.05958358125000001 0.07080641800000001 -0.3571633225 -0.05184864624999999 -0.3321694925 0.2638110375 0.19576517825 -0.19289466249999998 0.05639393200000001 0.09355386425000001 0.23799581775 0.0025363895000000067 -0.14990316499999998 -0.052158835 0.1154445975 -0.14487646625 -0.12578054175 -0.017036921750000003 -0.08443705125 0.1408084 -0.0656686988075 -0.13179463 -0.277517985 0.17582438424999997 -0.166494103875 0.10562233155 0.29206901249999995 -0.1392473925 -0.0284701405 -0.32401042 0.137391588 -0.0403221225 0.04217346500000001 -0.22341785420000002 -0.05989536249999999 -0.014418248 0.03313682999999999 -0.171878545 0.10568258750000001 -0.24055113 -0.010845741499999995 -0.12788168525000002 0.44138574999999997 0.06333951725 -0.056791138500000005 0.18201137250000002 0.056478070000000005 0.07905466424999999 -0.29334890999999996 -0.0208160175 -0.19984800274999998 -0.15348847675 0.3663842975 0.09817678175 -0.1330327986 0.0714476675 -0.226154215
48 0.15684112200000003 0.36999982000000003 0.1538433925 0.282843505 -0.15321463825 -0.2015625385 0.032727994749999996 0.27843965 0.33886868 -0.1041652705 -0.015337017000000001 0.6038036 -0.34626123499999995 -0.1830539405 0.0930107925 0.216572645 0.302561455 0.263271915 -0.07291493925 0.062457982499999995 0.3824128075 -0.19262393100000003 -0.197102561 0.013105855000000007 0.04031116675 -0.48357423 0.13146762774999998 -0.298765125 0.33587707 0.18105086999999997 -0.32074459000000005 0.021941641749999997 -0.2408784465 -0.12114515179499999 0.0554606515 -0.015482260500000001 -0.08163498 -0.038122640750000006 -0.102688037 0.104208815 0.1208309525 -0.14719460150000002 0.22733106000000003 0.09627559725 -0.14432190649999999 -0.006039250250000003 0.17016054925 -0.28354423 0.4161987625 0.1352912675 -0.049947198250000005 -0.08760949525 -0.3876225625 0.3408916425 -0.40913189 0.015151597749999999 -0.19887780375000003 0.001842787999999998 -0.30406612 0.1299544285 0.02583894675 0.003676290000000002 -0.13704618975 0.05100423775 -0.20921733 0.2693671325 0.015138916000000002 -0.11692596150000001 0.14433835350000002 -0.13886322175 0.001467957500000002 -0.13574343625 0.08593022600000001 -0.2775002675 0.09430486537499999 0.46092117749999995 -0.07282912684000001 0.0409582715 -0.06926470025 -0.3229913575
49 0.11213955425000001 0.2755909525 0.1296662155 0.27781184000000003 -0.116764688 -0.06847552400000001 -0.011601076249999995 0.2335424935 0.200123665 -0.006813579 0.08626118125 0.4769743425 -0.3051347325 -0.1777556275 -0.0266386685 0.313729095 0.298556285 0.3114299825 -0.214169765 0.10745119375000001 0.2994051525 -0.165882026 -0.15670295799999998 -0.012769763999999996 0.10987377549999999 -0.5014199275 0.11147056150000001 -0.31196026 0.30462751499999996 0.177194089 -0.21146116025000003 -0.05024041215 -0.12378055849999998 -0.026500750875 0.066487067 -0.051628017000000005 -0.059400045000000005 0.06536172425 -0.1250962665 0.12206243325000002 0.04443200425 -0.11931424385 0.30127698275000003 0.059457765999999995 -0.0833720575 -0.1000585906 0.18025725625 -0.24878255999999999 0.34134082250000003 0.23268873 -0.09115893125 -0.1380031825 -0.38338169499999997 0.22969835249999998 -0.3260234375 0.085606356 -0.19245907375 -0.0566771425 -0.22137010499999998 0.06939116375 0.01012623675 -0.0488223325 -0.15710764000000002 -0.003790680750000005 -0.188714319 0.35124018250000005 -0.020102115000000004 -0.13404250325 0.217763365 -0.14648855 -0.00020495825000000321 -0.220949605 0.0493965775 -0.21716644325 0.009035503650000002 0.3994516 -0.009330786249999997 0.015158550500000013 -0.018832350500000004 -0.2948266275
50 0.074077011575 0.23056603625000002 0.1977246075 0.2881815475 -0.131136229 -0.03205187425 0.03612727275 0.262943205 0.23884840750000003 -0.04912932435 0.06407601045 0.48694604 -0.3236419825 -0.1669287825 0.08962077925 0.39988991250000006 0.3014181175 0.24907404149999998 -0.19457119125 0.07869775849999999 0.3996153025 -0.19908879000000002 -0.17991332249999997 -0.09954581775 0.119656333 -0.5210148475 0.1084234435825 -0.193973545 0.3347344225 0.077908488625 -0.09274852075000001 -0.050886454750000004 -0.11827948249999998 -0.008093688999999994 0.05001145275 -0.055585061500000005 -0.028535717500000002 0.004331648750000005 -0.1735146915 0.18286476200000001 0.056627759449999995 -0.022197855925000003 0.31628429649999995 0.0432004435 -0.04527465374999999 -0.0487107503 0.22413663 -0.3337029875 0.360699275 0.13369776125 -0.0334681535 -0.16464935249999998 -0.3879800675 0.2272697775 -0.468949195 0.068196852 -0.17308191750000002 0.040451631249999995 -0.2675287125 0.026870207999999993 0.10463180175 -0.109313301675 -0.21529280249999996 -0.027297798999999998 -0.131949282 0.33837315 -0.044833780999999996 -0.0501232545 0.315958026 -0.149341145 0.018162743999999998 -0.03930407500000001 0.08293452975 -0.19989504925 -0.16134752575 0.353934015 -0.0201215925 -0.007855013249999997 -0.05388107149999999 -0.277465925
51 0.141073067 0.22964323 0.2565789825 0.198426505 -0.035921317 -0.07298658999999999 0.115602666425 0.172252479 0.2290965875 0.041365126 0.1242910575 0.47155673249999996 -0.3681273025 -0.07763753625000001 -0.030235506250000002 0.27007990185 0.3066155825 0.289844265 -0.28399196 0.10444803250000001 0.343505485 -0.20749087 -0.2188467275 -0.028879904999999987 0.179990645 -0.5374449525 0.07221224675 -0.34381708749999995 0.2980601825 0.1139431515 -0.2408026554 0.0793136807 -0.11862525574999999 -0.08181091750000001 -0.0666520775 0.0170089944 -0.111658917 0.004867564300000002 -0.21643957875 -0.015645776000000004 0.09994444425 -0.0788329165 0.26337074075 0.027656610499999998 -0.06718301774999999 -0.08544274325 0.222825302 -0.373217095 0.34770658249999997 0.256436716 -0.1398358425 -0.082797915 -0.4160413475 0.326894215 -0.2988679275 0.093146405 -0.23551691074999997 -0.0575392475 -0.1751658175 -0.04198141175 -0.04678902825000001 0.03068521424999999 -0.2255670575 -0.02028040125000001 -0.2135553725 0.40203171000000004 0.03787557675 -0.21018980125 0.23164304624999998 -0.109251326 0.04552634075 -0.200335871 0.07824810325 -0.25621279599999996 -0.049361381499999996 0.38603826750000003 0.058331162000000006 -0.0007127798250000025 -0.09932554875 -0.27545567575
52 0.168395646 0.2408787675 0.19372344749999998 0.33212916 -0.074505231875 -0.121177141 -0.02655345499999999 0.24187380949999998 0.14239973375 0.004080493000000001 0.07519083625 0.49761747 -0.43354599250000003 -0.15110079 0.032752851 0.3869532775 0.28669821500000003 0.24257205250000002 -0.250701045 0.045873997500000006 0.39819041 -0.1665314245 -0.1439777975 -0.0862106345 0.101299762 -0.575121665 0.08615851875000001 -0.26617952 0.36490059250000006 0.1351259334325 -0.1876498495 0.012660713750000002 -0.12757693125 0.09797588675 0.007272193500000005 -0.10497103075 -0.0039730015000000035 0.112647597325 -0.12561763925 0.13465999262499997 0.05457121575 -0.091930221625 0.29529816675000004 0.09628836075000001 -0.1266561985 -0.049222372625000003 0.2738163825 -0.3328905175 0.3470821675 0.21483327575 -0.09423961074999998 -0.17576595874999998 -0.4529127725 0.23147223349999999 -0.4116115175 0.042357308499999996 -0.132086155 0.023696917499999998 -0.21419312 0.13742422324999998 0.0411189595 -0.12797881675 -0.23239010124999998 -0.030803744999999993 -0.199236045 0.358800845 -0.0667541525 -0.10968672974999999 0.273105294 -0.18788706600000002 -0.02980396625 -0.16783955624999997 0.021386323000000002 -0.21406261525 -0.16220595 0.3770749625 -0.021898573500000004 -0.04404753365 -0.02082920474999999 -0.247414225
53 0.156632895 0.34664171 0.13224009525 0.1885268725 -0.116436264 -0.127169215 0.03476529825000001 0.178909293 0.28555350749999997 -0.11982375075000001 -0.014699859999999995 0.5023997925 -0.3629640625 -0.13249760024999999 0.0011255353749999968 0.2205023075 0.2555967825 0.30209624 -0.15462161945 0.174135721875 0.26784781 -0.1842109395 -0.288352265 -0.0018371582499999983 -0.035726890750000004 -0.3972479875 0.177244011 -0.45316544999999997 0.357530385 0.2654319025 -0.43474408249999996 0.1076698665 -0.058470406 -0.20414467 -0.0757971125 0.048461290750000004 -0.137395502 -0.0359252225 -0.11966547999999999 -0.09409561999999999 0.1392171925 -0.19514770074999999 0.193712127 0.10478550549999999 -0.203267426 -0.09118189445 0.17327263925 -0.26347097 0.40029382 0.280338123825 -0.11955164 -0.0520139523 -0.3855699525 0.33950831000000004 -0.1134267585 0.04408422325 -0.25792249500000003 -0.1549269865 -0.0924317185 -0.084687408 -0.12212402750000001 0.07559981425 -0.078656055 0.03474082662499999 -0.29246513500000004 0.38774343499999997 0.12859419900000002 -0.3181814175 0.14018971925 -0.09879377107500001 -0.17338446437500002 -0.28883038949999995 0.088116976675 -0.263874868 0.1507350281 0.518188335 -0.042008517499999995 0.07580642975 -0.026125159250000002 -0.3755650025
54 0.21332759499999998 0.2789993175 0.2175317525 0.19083260749999997 0.005114572000000001 -0.16938539425000002 0.01816414725 0.32314465 0.23650698375 -0.10378923000000001 0.031432505500000006 0.42217035999999997 -0.24460902750000002 -0.259637635 0.01715461621425001 0.358188445 0.2023515025 0.28947382 -0.10409956525000001 0.044590012500000005 0.3633120475 -0.250985635 -0.10733899375 -0.0012499050000000095 0.114116397 -0.4638958175 0.08259196199999999 -0.23442202750000002 0.20593356 0.15175515500000003 -0.21015063125 0.0694961935 -0.255019459 0.0249761435 0.06830295550000001 0.10089912085 -0.04523574599999999 0.04641369604 -0.16663698999999998 0.043848559499999995 0.13305137975 0.020248436874999998 0.09507821125 0.050196282749999994 -0.145459525 -0.053941213999999994 0.199724135 -0.2941516325 0.36237420000000004 0.10449913875000001 -0.0820775675 -0.079623575 -0.20815541399999998 0.338982845 -0.28930610749999996 0.07042588150000001 -0.09949909125 -0.009351547500000008 -0.26224970999999997 0.00823504625 0.0018502507500000008 -0.14089230125 -0.0903614375 0.0839377275 -0.25175098075 0.2683754575 0.04244323 -0.04743723799999999 0.13082499 -0.1834727525 -0.0018169525000000068 -0.147778935 0.16667317 -0.365050625 0.002600923500000003 0.35691515 -0.03063697 0.019131885 -0.06335525974999999 -0.16031305325
55 0.205943505 0.35126752499999997 0.17733495 0.3323332375 -0.0839460752 -0.2824902815 0.041423468000000005 0.2801389325 0.27658986399999996 -0.0976004975 0.012854378750000006 0.57307245 -0.41308890249999997 -0.18895055249999998 0.21036564624999998 0.3178068 0.2703816825 0.210854605 -0.06267063125 0.114219925 0.3003095925 -0.26670193249999996 -0.1696419925 -0.04224386250000001 0.10187231325000001 -0.561870795 0.030530550000000004 -0.1938251025 0.29954535000000004 0.028024567499999996 -0.24508812825000004 -0.028702909500000002 -0.29213021 0.011818149249999993 0.0854885685 0.048821408250000004 -0.1450473875 0.025350121 -0.060412439 0.13425390400000003 0.1029494975 -0.022997539500000004 0.25476915499999997 0.13905520375000002 -0.180164075 0.079399709 0.19588374375 -0.41760133250000003 0.38010014000000003 0.10693577400000001 -0.04365215000000001 -0.159547055 -0.3362140025 0.2926316925 -0.463918625 0.023925985249999997 -0.16116696750000004 0.061229056500000004 -0.28564611500000003 0.052919209999999994 0.11963237825 -0.026685089249999995 -0.17502659925 0.025341590999999997 -0.1409566485 0.237747455 -0.002881490074999997 -0.0999131275 0.21029766900000002 -0.21983390149999998 -0.1115065815 -0.11163176699999998 0.1270152205 -0.27037724669999996 0.059760161 0.43900334250000006 -0.047210667000000005 0.07506334075 -0.03565311075 -0.30786171
56 0.28502026999999996 0.342047285 0.096858259 0.381822545 -0.092661578 -0.22463853749999996 -0.124705015 0.374462945 0.12335796125000001 -0.1820781375 0.009111065749999998 0.44473637749999995 -0.3945023525 -0.30140633375000003 0.2048737025 0.31752438 0.22841786624999996 0.18080624750000002 0.06161283624999999 -0.017912622 0.3150181175 -0.1993431775 -0.09758895000000002 -0.003984042 0.025619242 -0.5213307650000001 0.040851579725 -0.10960465224999999 0.30968252249999995 0.063169747 -0.181301345 -0.0923583965 -0.29623201000000005 0.21468623250000002 0.1685663825 -0.1068347575 0.0518857185 0.148765074 0.005772337499999995 0.3340313375 0.019907916499999997 -0.026441845999999998 0.22274621600000002 0.18491043725 -0.22912218999999998 0.13271382250000002 0.16604199149999999 -0.2485991175 0.2968634075 0.032904905 0.005231508999999995 -0.18440058250000002 -0.30743265875 0.1970615625 -0.48588039 0.004864708499999995 -0.0702933125 0.06638244175 -0.29059385000000004 0.25434175875000004 0.12033454999999998 -0.150380670075 -0.12439570000000001 0.09711445349999999 -0.18147760100000002 0.20744029749999998 -0.1185628875 0.08203796325 0.21090648875 -0.331103925 -0.07082954975000001 -0.1465311665 0.0487141609 -0.2589460485 -0.053444336 0.372178765 -0.078135659 0.048632431250000004 -0.005333234499999999 -0.24062469
57 0.06488582590000001 -0.30211906749999995 -0.40143472249999995 0.1558667541 -0.1533516175 0.256219067 -0.1522055225 0.04543925135 0.145899216 -0.09847668775 0.0156403435 -0.2174039325 0.0603355423325 0.12731972924999999 0.027717457500000008 0.413850265 -0.036150809500000006 0.43322553999999996 -0.180189111 0.40175367500000003 0.09472634349999999 -0.0736954725 -0.074354808 0.3380562525 0.0589209825 -0.063207135 0.1191549625 -0.103905258125 0.066064711 0.48770248250000003 0.0562876125 -0.26700326999999996 -0.185315539775 0.11176488175 0.4421465 -0.2178318975 0.101734565 0.294495835 -0.1183114625 0.07320991260000001 -0.185075761 -0.07430009324999999 0.1018030375 -0.11000425249999998 0.048888475 -0.25924470749999995 0.17880920424999996 0.11288147925 0.0979266275 -0.10583972075 0.07371433000000001 -0.14962103 0.2194649025 -0.424380475 -0.2480743975 0.4038728325 -0.197472294 -0.22052327600000002 -0.14520090325 -0.3347430925 0.0826485945 -0.132668393925 0.4482045975 -0.0728229712 0.061698382075 0.24451701425 -0.14779336375 0.0803443875 0.424850725 -0.03135325 -0.25010511999999996 -0.3819694225 0.2027584825 -0.101535366875 0.08372648249999999 -0.012366163375000006 -0.053935283925 -0.0351119585 0.40049315499999993 -0.23333742000000002
58 0.23045187250000002 -0.26583522249999997 -0.17381137440000002 0.19945785500000002 -0.015756215000000004 0.0719250675 -0.22244217675 0.242249485 -0.10578052025 -0.29115258875 0.029953999899999997 -0.28432598 0.005844665499999999 -0.133135605 0.209641000375 0.2380947425 -0.17471953250000002 0.3221689375 -0.033924202325 0.12929853675 0.046004501749999996 -0.16257841550000002 0.06035571075 0.15139886474999997 0.08323113000000001 -0.137009405875 0.094317120175 -0.19694095425 0.07796850375 0.534758475 -0.0910494325 0.09258371425 -0.2891181675 0.311249615 0.34290464750000005 -0.1754645425 0.13028352375000002 0.3515941925 -0.25422467 0.20529363250000002 -0.20988915000000002 0.06730742025 -0.175180303375 -0.08278278250000001 -0.13100032325 0.030367012499999995 0.10713312850000001 -0.058991019874999995 0.14123379749999998 -0.17485807375 0.030801945499999994 -0.09840956425 0.33053690500000005 -0.128955665 -0.207899575 0.29687415 0.0716705965 -0.27611599 -0.10773602249999997 -0.3802695575 -0.0348091275 -0.09131652925 0.4164669275 0.012539052499999993 -0.13199563074999998 0.389557565 -0.178630268 0.13982721375 0.245110375 -0.271311012 -0.21888123825000003 -0.1399649468 0.22609944499999998 -0.36565108999999996 -0.044495754825 0.1798147425 -0.154942774 0.109928087 0.2555009975 0.06593036075
59 0.14033837764999998 -0.428718825 -0.237159925 0.0948642613 0.057080984 0.091745253 -0.13025000775 -0.20834569025 0.20292910249999999 -0.11985219775 0.13458071675 -0.30443248 -0.1041129029 0.09709656324999999 0.19488413719999997 0.378756925 0.020418213625 0.4288329925 -0.1381827975 0.23345576825 0.1580517725 -0.13820359149999997 -0.073147815 0.39479049250000003 0.11196499 -0.07081520325 0.04754551349999999 -0.11042616999999999 0.08768340499999999 0.455642185 -0.048938938000000015 -0.10856201625 -0.17858200625 0.24423476675000003 0.40879427 -0.30466019499999997 0.13372396450000001 0.1552950635 -0.09683972675 -0.1694540975 -0.042857345000000005 -0.030340677500000003 -0.15377866 -0.0403942201 -0.10028845850000001 -0.39543905 0.13882345975000002 -0.10965924325000001 0.012437104 -0.0007260187499999946 0.1403954015 -0.14968535700000002 0.11918101725 -0.18838725 -0.102333536 0.27636626375 -0.2729520325 -0.0856277865 0.037237578 -0.181326098 -0.13095989 0.03254369 0.36555316250000003 -0.089535171 0.10927215775 0.19942683499999997 -0.21506515200000004 0.1152962875 0.403570005 -0.07093711 -0.05497533624999999 -0.4682029125 0.109343921 -0.2651040775 0.09774261750000002 0.13381488075 0.1110576225 -0.02522749675 0.40048305 -0.24466088500000002
60 0.175495545 -0.13603621525 -0.21382402 -0.09322767850000001 0.028349298799999995 0.368087585 -0.061545154000000005 -0.086681277 0.060018647499999994 0.137501005 0.010187097499999992 -0.0913116535 -0.32995670325000004 0.157483978 0.06925697049999999 -0.13499467525 0.04433102725 0.044425660075 0.23164856499999997 -0.172821905 0.31237679 -0.13555859425 -0.16821672124999998 0.368456155 -0.008771485999999995 -0.3541391425 -0.20424699999999998 0.0239534805 -0.09452356525 0.1879968425 0.05636502350000001 -0.009959884832499998 -0.1555046165 0.24642143000000002 0.009973354375000002 -0.09353837244999999 -0.319071765 0.0644540475 0.0676804395 -0.088544251 -0.07549885475000001 -0.07768385750000001 0.03800427674999999 0.19711176 0.07436649350000002 -0.0583940025 0.340765965 0.13772386 -0.134445625 -0.11986272337499998 0.06102504375000001 0.32906350749999996 0.04146415175 -0.204075868 -0.1475135325 0.197147505 -0.2213867975 -0.19280266000000001 -0.33080565749999996 -0.12897237250000002 0.15270839 0.18761555625 0.1284937975 -0.04745808450000001 -0.056349855000000004 -0.20262072600000003 0.11309827750000001 0.19153072624999998 0.223569095 0.15351905125 0.030296938750000002 -0.072473482 0.14164427 0.030161434999999993 -0.170015994 -0.264919435 0.08249302250000001 -0.10659077100000001 -0.014104914999999999 -0.347950985
61 0.24091149749999996 -0.19459530674999997 -0.10966689399999999 -0.10582421 -0.05657500975 0.3758902475 0.022141687000000004 0.03961874075 0.07542040500000001 0.0005959944999999992 -0.06681171 -0.206748835 -0.3095534175 -0.046914412499999995 0.1270786075 -0.215369035 0.03079213225 0.191364445 0.29756927499999997 -0.33808843000000005 0.3414731825 -0.1051325585 -0.052738704775 0.14679373850000002 -0.1304103875 -0.30320778 -0.09109867025 -0.02075878275 0.0762104845 0.21938583749999999 -0.050704225000000006 0.022670788650000002 -0.14494286000000003 0.0553789155 -0.025518657249999997 -0.0064104934999999995 -0.3302676325 -0.0009870786000000004 -0.07157648824999999 0.02002053025000001 -0.16680617749999999 -0.10656785125000001 0.069877629 0.03184965375 0.1338564025 0.07951943519999999 0.3435122725 0.0837132425 -0.152867825 -0.30015319 0.08203734999999998 0.3773115675 0.12933898435000002 -0.206429905 -0.1322027675 0.297907105 -0.11306076999999999 -0.2763427 -0.2888506375 -0.38041981249999995 0.018057292500000002 0.16312403174999998 0.14119179495 -0.03971790424999999 -0.19722590499999998 0.063588867 0.17788287275 0.23699883249999998 0.08732430775 0.3185344315 0.043277080249999995 0.03987767749999999 0.235291135 0.021196377500000002 -0.2365798925 -0.217851425 0.003264728999999994 -0.07725764574999999 -0.14114522675000002 -0.25642523455
62 0.07907194499999999 -0.20178612999999998 -0.1203091231 -0.1796350485 -0.1454914365 0.4458059175 0.10286448100000001 0.07366835999999999 0.0652127235 0.07254985624999999 -0.0799201505 -0.142404616 -0.1417779395 0.006617359999999996 0.0505001425 -0.25301231075 0.10910801499999999 0.3008065725 0.239778095 -0.19204239375 0.23604820499999998 -0.1429053575 -0.15119016149999998 0.29964081500000006 -0.11051078624999999 -0.230389695 0.05531594249999999 -0.028948678749999998 -0.0622353175 0.24956038075 0.03350843575 -0.050149135000000004 -0.183173755 -0.152551667 0.1220298365 -0.01822801475 -0.31346243500000004 -0.009234004000000002 -0.11480538550000001 0.02353071175 -0.18117239925 -0.07521474765 0.0900571045 0.0350047025 0.21122272825 -0.029478969100000002 0.300322895 0.137792635 -0.14305840525 -0.247304075 0.11259413124999999 0.35532728750000003 0.20293834149999998 -0.228144269 -0.2053144475 0.3950694925 -0.25827958500000003 -0.31533491999999996 -0.2766330075 -0.4358334475 0.052152967999999994 0.1548644235 0.20788618050000002 -0.117696735 -0.1511728125 -0.051826212499999996 0.1319913575 0.223333522 0.213526295 0.29894902 0.159114664 0.026766988750000005 0.2843039275 -0.003311539500000002 -0.09342275925000001 -0.3346587775 -0.013700819999999996 0.00043704074999999926 -0.0967597435 -0.4315298825
63 0.321655855 -0.245248425 -0.01924975175 -0.13225209149999997 0.05525635875 0.29719767 0.0383856088125 -0.027660645499999994 0.0021150075324999976 0.096583745 -0.07310765424999999 -0.1513067635 -0.423151765 0.020695535000000008 0.1362011635 -0.20325624325 -0.07027464525 0.01131065325 0.2304010925 -0.44630385 0.400855985 -0.1352442095 0.007581125999999999 0.13505829374999997 -0.141331964 -0.34105038075 -0.13244220250000002 -0.04714605325 0.12626217974999998 0.2467050275 -0.08008523249999999 0.08241435225 -0.06712652250000001 0.2698917875 -0.138023742625 -0.009190754125 -0.37966787750000003 0.014662460749999998 -0.0991447585 -0.14512803400000002 -0.11197647624999998 -0.0658831685 -0.05031006100000001 0.0157590165 0.021067074000000005 -0.0002365184999999978 0.49938805750000004 -0.0710071895 -0.16360795275 -0.280467185 0.07371772250000001 0.409482075 0.06951543475 -0.20290501125 0.04941075674999999 0.2120322 -0.11533585115 -0.287696 -0.22588321 -0.27834976725 0.031527935 0.15705714750000002 0.048834238749999995 -0.12002223125 -0.2350821675 0.00804042424999999 0.2775403225 0.228026493125 0.20709940500000001 0.32150408750000004 -0.022376668250000002 0.1370319835 0.2302040025 0.06277202525 -0.2949805375 -0.1582662935 0.04793303499999999 -0.11228655725 -0.010981378750000007 -0.1448561275
64 0.2037474275 -0.16297557000000001 -0.1252542905 -0.13264082845000003 -0.11617859250000001 0.42191805000000004 0.1362006825 0.003552890100000001 0.1006544125 0.15858727175 -0.034875588750000006 -0.14910212425 -0.24587892 0.05415288074999999 0.072451759 -0.38905501000000003 0.23046495500000003 0.3519756625 0.297855905 -0.3412818425 0.2419283625 -0.127915115275 -0.1728711375 0.19873838 -0.1212473445 -0.31847380000000003 -0.22865819000000004 -0.076012107 -0.07910861575 0.11021976324999999 -0.09088750250000001 -0.064985863325 -0.16624690749999999 -0.02879135325 -0.051077057499999995 -0.03575207525 -0.378145155 0.017304409500000006 0.011577931500000006 0.04718019525 -0.269717115 -0.12760793874999998 0.163551646 0.0034602457499999986 0.156535094 0.008079479999999997 0.3601994075 0.14752428 -0.21265129625 -0.2160258875 0.007923604249999994 0.47027917750000003 0.1213866725 -0.238215016 -0.21092489749999999 0.37531833000000003 -0.274770635 -0.2595082825 -0.27786539499999996 -0.34488742 0.039737232500000004 0.25526014975 0.0794483951 -0.11185782475 -0.18236415875 -0.012151382 0.18521294 0.2703634625 0.08275481375 0.43444529 0.25123969 -0.035037879 0.18522018125 0.09426914250000001 -0.159069765 -0.2886667125 0.027284959999999997 -0.0660089005 -0.13660859250000001 -0.5029576874999999
65 0.2699221 -0.188698523 -0.18903710750000002 -0.0053879275 -0.11878003625 0.34904103 0.008915958500000001 0.02568406 -0.15937751725 0.04638858175 -0.07898438599999999 -0.190722494 -0.44012193250000003 0.09728275125 0.18509153 -0.33095210249999996 0.07022236500000001 0.119741665 0.3785583975 -0.2843988275 0.25796479250000004 -0.0037754682499999987 0.002434930775 0.381536815 -0.07650832 -0.39359255000000004 -0.11768751 -0.03284986250000001 -0.028791193000000003 0.1788798585 0.0547073935 -0.09558836250000001 -0.21480132175 0.05948477850000001 -0.0674272225 -0.01573074375 -0.32355226000000004 0.04634766 0.015908235250000007 0.02047003325 -0.145917317 -0.164942945 0.16401322755 0.11049640475 0.10016037549999998 0.12599772375 0.33701089 0.23963678500000002 -0.165673279 -0.3164403375 0.136058394 0.36574264 0.025688967000000004 -0.191532665 -0.15686360175 0.3954055575 -0.21129873525 -0.29081133249999996 -0.3690266525 -0.272768005 0.037762791500000004 0.20867864625000004 0.19266443249999998 0.017837664999999992 -0.178256645 -0.051108192499999996 0.09497561125 0.22551815749999998 0.26326374249999995 0.1359554725 0.06258822025 0.0028868160000000004 0.21013219374999997 0.15129539055 -0.08683858250000001 -0.30355562 0.080775885 -0.0866315835 -0.08602016375 -0.27098827
66 0.19458739249999998 -0.21190957249999998 -0.13714434125 -0.09328233824999999 -0.0627763265 0.33595595749999996 0.10098762025 -0.0723441505 0.08578304675000001 0.0008778390000000053 -0.123227865 -0.15590108000000003 -0.33351596 0.046001605 0.16206535275 -0.35636694750000003 0.0346500565 0.1777522 0.27027002 -0.36915735499999996 0.3221160675 -0.1171273575 -0.2139470075 0.10667766975000001 -0.235063933 -0.1914705225 -0.09778986875 -0.0163754149 0.183900234075 0.230211555 -0.18328149324999998 0.06051656225 -0.04420298599999999 0.017446750499999997 -0.07666334625 -0.10677227275000001 -0.3754392525 -0.062197951000000015 -0.0629701845 0.023330983 -0.2108698325 -0.17187335925 0.05950685325 0.06757519925 0.05166917924999999 0.018856542250000004 0.41402206750000003 0.08415089 -0.140663755 -0.2443030075 0.05276293249999999 0.43570174 0.15508450875000002 -0.28019174 -0.1532585075 0.25122776 -0.13421655999999998 -0.272543754 -0.2248898825 -0.4003799475 0.007786493125000003 0.22190271705 0.143499922125 -0.156150935 -0.1718967375 0.024082860749999997 0.2129630395 0.20104926 0.15240195325 0.387794825 -0.03771678725 0.05448258825 0.2045813065 0.03083660275 -0.2413519675 -0.1819316175 -0.08262562869125001 -0.0037310992499999945 -0.0651152025 -0.364768235
67 0.35879305250000004 -0.1595002925 -0.025871057999999995 0.02217813735 0.046597867499999994 0.2467568125 0.06055140149999999 -0.06205457925 0.1341987885 0.158331804 0.07313886174999999 -0.13418803 -0.35545882 0.05669326675 0.13757042142499998 -0.06600827749999999 0.036959628925 0.23717295500000002 0.15302460075000002 -0.36161148749999994 0.3570557675 -0.07552338612500001 -0.1016932905 -0.04853854899999999 -0.15633512500000002 -0.29830635325 -0.27791752000000003 -0.17364828000000002 0.0941767466 0.1635706385 -0.21965109825 0.09132057575000001 0.009877632499999997 0.30917913750000003 -0.1450481216 -0.10891493675000001 -0.3305253725 0.1137497081 0.010199223125000012 -0.13189954025 -0.22431311 -0.10471993 -0.02373417749999999 -0.09470935725000001 -0.0645097825 -0.076141221875 0.3083274385 -0.043024758749999996 -0.167532379225 -0.13414798 -0.0341898945 0.38131992000000003 -0.007725240000000005 -0.16631315549999998 0.09191974825 0.11527436675 -0.12609513175 -0.17734543999999997 -0.09510119149999999 -0.17119890025 -0.09062355875 0.23916057500000001 -0.10275928624999998 -0.030927024 -0.17342610749999998 0.19753550500000003 0.21700703400000002 0.14977828849999997 -0.05829200825 0.43380364 0.12243435275 -0.042142886000000004 0.06490846265000001 0.0536375625 -0.29491685 -0.013648082999999998 0.064267911 -0.2506595925 0.04616532375 -0.26840404112500005
68 0.15589971375 -0.034068746750000004 -0.265722786 -0.0901156775 0.06308930424999999 0.31612485 -0.07159079735000001 0.099292513325 0.07731378 0.18164988999999998 0.02071255249999999 0.03062056 0.0006522028250000008 0.337206435 -0.11624331299999999 0.26556442375 -0.02771096025 0.11028055875 -0.21287322 0.37732658999999996 0.19480748250000002 -0.3309971275 -0.299869171 0.469721195 0.16098087749999998 -0.18972169825000001 0.0919061225 -0.047864327425 -0.15756336199999998 0.39990796749999996 0.041486136500000007 -0.10265077425000001 -0.23862653 0.1809956585 0.13600346 -0.1322283075 0.03642366725 0.2575920365 -0.089279944625 -0.16105887400000002 -0.09284260175 0.14289367175 -0.1282682075 -0.009971391500000001 0.057803212250000006 -0.222681485 0.32929148399999997 0.044671744 0.0760085875 -0.192507335 -0.105802774 0.0250388965 0.22090204224999999 -0.22216173250000001 -0.058001059 0.22574294 -0.2345176 -0.19067185825000002 -0.27786496499999996 -0.151927291 0.188690533 -0.12909851675 0.26682927875 0.029404935000000004 1.9135250000003323e-05 -0.09450075275 0.08742774375 0.06277488525 0.37118392 -0.09046745475000001 -0.15988553575 -0.181044675 0.222304005 -0.0656354014 0.021287883250000004 -0.2241141475 -0.01107342775 -0.004704966499999998 0.17421179475 -0.309767095
69 0.30355405 -0.0858756035 -0.39439159749999997 0.36741631250000006 0.08004724099999999 0.12326270325 -0.1520780725 -0.0715278204875 -0.10083260625 -0.102293091 -0.064242787 -0.0780592575 -0.448236735 0.3255299 0.27241207015 0.007842446000000001 -0.0091683335 0.081469510395 0.14192927 0.16835028284999998 0.052437571 -0.096293593 -0.03993475995 0.68804369 0.09963338925 -0.261260636 -0.2112870625 -0.040655401499999994 -0.05233339175 0.22856342875 -0.04426618574999999 -0.11986649799999999 -0.30011719000000003 0.33720358 0.11390711149999999 -0.3467831225 0.05916856325 0.30579148125 0.10221858750000001 0.09004781784999999 -0.150432805 -0.1990702975 0.0012232183249999973 0.207917705 -0.1143754625 0.11415184225 0.12843452875 0.179494231 0.006359373825 -0.22531519749999998 0.0132723421 0.10165401574999999 0.070984042 -0.14624374875 -0.20160243250000004 0.2639923925 -0.13095898075 -0.14698057100000003 -0.33658748 0.137149051 0.08409325075 0.09049476349999999 0.46947277 0.2197733725 -0.04587213500000001 -0.14968086999999997 -0.19049459000000002 0.07551020175 0.181691595 -0.34115272500000005 -0.09326514 -0.4132345425 -0.02545119 -0.0567868985 0.0738099025 -0.1211478085 -0.02772287525 0.005921948750000001 0.2685976025 -0.19878565675
70 0.0005116000000000009 -0.25003153499999997 -0.262373985 0.09485192749999999 0.13228440924999998 0.206038773 0.013339326249999998 -0.07690257650000001 0.12233067199999999 -0.0261244015 -0.03985030825 -0.004454426250000004 -0.23553730749999996 0.24898614750000003 0.12818750099999998 0.19676685500000002 -0.07905716525 0.17095225749999998 -0.08070821875 0.2393620695 0.24596465 -0.28853903875 -0.19210228875000002 0.5114832475 0.07863413525 -0.08117807767499999 0.0515040221575 0.05570922575 -0.02374858775 0.27843522 -0.016343400000000008 -0.019776484499999997 -0.187744838 0.08265661625000001 0.32027749 -0.18719947150000002 -0.09648642475 0.17445940999999998 -0.12416933867499999 -0.10240958850000001 -0.07866311000000001 -0.023813517500000003 -0.09577056349999999 0.15065751675 -0.025321353749999994 -0.22641616 0.258915612425 0.031699531 0.09434834875000002 -0.08870619125 0.08586131624999999 0.0793489925 0.295480005 -0.2526332175 -0.18947896175 0.2341622 -0.229882975 -0.06872191750000001 -0.22096629150000002 -0.14258840750000001 0.04730147900000001 -0.051578293 0.4108765625 -0.028873718250000006 0.012271394000000005 -0.237504045 0.0256048135 0.0612546675 0.35296353 -0.10320336 -0.04872359849999999 -0.2390206975 0.2138214665 -0.22356981999999997 0.10930127375000001 -0.17683615125000002 -0.0492000935 0.07699079275 0.26182356749999997 -0.2552381075
71 0.36412775750000004 -0.2287758125 -0.04603535685000001 -0.073406784 -0.0623408825 0.3203810625 0.09898398010000001 0.016662451750000005 0.12111031375 0.062845857 -0.06310256125 -0.2521315575 -0.20518357625 -0.03202402275 0.16002934975 -0.379038315 0.093267381 0.3901383825 0.23482448 -0.4365818275 0.22470825749999998 -0.08494387725 0.060642656232499995 0.1698210055 -0.1053748425 -0.27052714975 -0.185731279 -0.1728203375 0.01372137125 0.2729998575 -0.239829375 0.03572170025 -0.183934946425 0.022503519250000003 -0.1073344295 -0.039967839825 -0.33365411 0.0646309329 -0.0711809955 0.0018989217499999992 -0.2824992975 -0.14411086899999997 0.018673202500000007 -0.14628913425 0.13477877624999998 0.10712698625 0.3574696574999999 -0.011466209174999995 -0.2317441865 -0.33139293 -0.055619283500000005 0.5391034100000001 0.2679199625 -0.17601072750000002 -0.0243997915 0.3843361175 -0.11558238950000001 -0.3846909275 -0.21720297800000002 -0.38506702000000004 -0.047089647 0.26986705 0.1793783125 -0.06081224675000001 -0.31431916000000004 0.1888597 0.2684540725 0.23870058 -0.050089645749999995 0.41304777000000004 0.22130910400000003 -0.0033845799999999964 0.1624470985 0.025778363000000006 -0.168738905 -0.14292952750000001 -0.03153303175000001 -0.0667529465 -0.025727658999999996 -0.22892377725
72 0.34818150000000003 -0.18359268825 -0.07714832525 -0.11031986264999999 -0.09803853274999999 0.393418285 0.11430255624999999 0.0972971025 0.1009851155 0.115936174 -0.0625781 -0.14916524004999998 -0.2863622135 0.11970720750000001 0.12416833915 -0.2524867375 0.12186920749999999 0.21044509 0.2298391925 -0.3393128125 0.2994201675 -0.14480952125000002 -0.09771479825000001 0.13264899875 -0.172042821 -0.3158007235 -0.17473385 -0.124778413 -0.011595336200000004 0.17250150749999998 -0.11654443474999998 -0.047647115000000004 -0.15869312624999998 0.069539099 -0.195546299 0.00042023499999999797 -0.3284319775 0.03617262 -0.05439135 -0.04850468324999999 -0.27618613000000003 -0.05759937999999999 0.045600771 -0.1512168625 0.09965697099999998 0.06394642075 0.44239238999999997 0.043945530499999996 -0.1821354275 -0.38286269500000003 -0.025768979499999997 0.4707957024999999 0.12154548324999999 -0.28276288125 -0.05724644753000001 0.31866597499999993 -0.2143630075 -0.31426685 -0.2452510175 -0.35982036000000006 0.067167217 0.167436172 0.1143271035 -0.05101941375 -0.240965675 0.077736601 0.2647986565 0.24220080125000001 0.07178601400000001 0.42847307999999995 0.104330759925 0.088596816 0.23197544799999997 0.15635472150000002 -0.253756785 -0.2389718 0.008582508499999995 -0.12043328924999999 -0.043953225000000005 -0.32416689875000004
73 0.30881791999999997 -0.23998445 -0.30607161999999993 0.2576773575 0.12685234374999999 0.07103686000000001 -0.104258527 -0.0696716485 -0.0976673625 -0.10766954625 0.025298244675 -0.2838232975 -0.26562687 0.14080963200000002 0.292177715 -0.05260964675 -0.08993285275000001 0.2543066275 0.07648452875 0.003988428250000004 0.09392690574999998 -0.1301716825 0.08698820625 0.4354994825 0.1578474725 -0.22037085425000003 -0.2086505975 -0.08966856275 -0.033283649750000005 0.3583282525 -0.20321687849999998 0.05483574100000001 -0.3299443475 0.30174488999999993 0.15599624125 -0.23373241849999998 -0.080734695 0.34300877500000004 -0.004092995124999997 0.03756657975 -0.18161413999999998 -0.14157788425 -0.135944305 0.12088907499999998 -0.1292076125 0.042922864049999995 0.16631433124999997 0.10621265475000001 -0.006080258249999998 -0.225476489 -0.11380019250000001 0.17702238425 0.36911117 -0.106621836375 -0.12142679124999999 0.32962956750000005 0.056846754750000006 -0.14100161575 -0.29837235 -0.133592431 -0.1005296765 0.08849485125 0.4344827675 0.0955665675 -0.1170016825 0.0739452702 -0.01362394825 0.14283524525000002 0.07386945199999999 -0.1876277995 0.0022576625000000003 -0.2607821725 0.0938493055 -0.21598405 0.09702230672500001 0.0082545475 -0.1147202275 0.060818895 0.220719685 -0.025168931250000002
74 0.024228419 -0.27701984 -0.23057883625 0.041545729825 0.1919528075 0.1576708835 0.07910945524999999 -0.1535572185 0.15781324000000002 -0.293042865 -0.22467168250000003 0.011433709000000002 -0.3740554 0.24531688725 0.3036555625 -0.060483625500000006 -0.248430575 -0.061931820000000005 0.013343432500000005 0.04396535999999999 0.32539576750000004 -0.40954577999999997 -0.3761211625 0.25533328375 -0.154475725 0.09290139 0.17964953 0.06588909825 0.323302965 0.3846217 -0.34528792499999994 0.34209040749999997 -0.038273942 -0.024499051749999987 0.048506942500000004 -0.2476859555 -0.17094240975 -0.076821036 -0.21961048625 -0.04098457675 -0.133746448 -0.07067392275 -0.29698547875 0.22984295899999999 -0.12928386225000002 -0.0193776415 0.39257834 -0.052553765499999995 0.2091907015 -0.09854244849999999 0.05968988674999999 0.25942093 0.3918591725 -0.3043026725 -0.15556747625 0.05287396212500001 -0.05523511299999999 -0.158059915 -0.07566922575000001 -0.3664599625 0.0061740941499999966 0.0015280834999999993 0.4902868025 -0.154174688 -0.11120247000000001 -0.2295035575 0.15239335399999998 -0.019060586750000004 0.2793793 -0.08488108 -0.37217649750000004 -0.011964191500000006 0.2276418475 -0.30501345999999996 -0.03824372795 -0.07013009475 -0.26193660750000003 0.287207975 0.1569434175 -0.2098699325
75 0.07599578849999998 -0.22059898499999997 -0.011640174999999996 0.00684982650000001 0.14652959575000002 0.05277481775 0.04581389925 0.151059905 0.0994274275 0.013898724099999996 -0.0004462451749999985 0.045218879000000003 -0.02849371865 0.021746888250000006 0.043426701500000005 0.2808062825 -0.09371980074999998 0.221299415 -0.11882397825 0.1018612095 0.294483695 -0.32405007250000006 0.036648444 0.2956638575 0.23455323 -0.16845987925 0.1350634725 -0.06456241189999999 -0.09108381025 0.374794945 -0.008319693999999996 0.1284987665 -0.3224258125 0.08166060375 0.2717325475 0.03863475875 0.0052651380000000025 0.168879725 -0.27091341 -0.0999740325 0.002505507499999997 0.16358513000000002 -0.2571073875 -0.042492003750000014 0.021949704 -0.203062409625 0.30109197249999997 -0.121504865 0.20177787549999998 -0.12544603099999999 0.005279991467499995 0.05227130937499999 0.3242858475 -0.022402750499999992 -0.15988372150000002 0.23562299249999996 -0.06809314500000001 -0.1004317635 -0.24405631900000002 -0.2271915255 0.03460845075 -0.213890227 0.2579757775 -0.050740399000000005 -0.14618436 -0.020860518500000005 0.06902481 0.11726437575 0.2613206975 -0.14501754174999998 0.03472225825 -0.03590073249999999 0.28639039499999996 -0.35784208500000003 0.0676956725 -0.0874393145 -0.03872328 0.04473885650000001 0.10775368199999999 0.0014000594999999992
